digraph Tree {
node [shape=box, style="filled, rounded", color="black", fontname=helvetica] ;
graph [ranksep=equally, splines=polyline] ;
edge [fontname=helvetica] ;
0 [label="v_29 <= 16.31\ngini = 0.67\nsamples = 2070\nvalue = [690, 690, 690]\nclass = 0", fillcolor="#ffffff"] ;
1 [label="v_22 <= 23.29\ngini = 0.43\nsamples = 406\nvalue = [295, 29, 82]\nclass = 0", fillcolor="#eeac7d"] ;
0 -> 1 [labeldistance=2.5, labelangle=45, headlabel="True"] ;
2 [label="v_17 <= 43.5\ngini = 0.39\nsamples = 361\nvalue = [275, 27, 59]\nclass = 0", fillcolor="#eca571"] ;
1 -> 2 ;
3 [label="v_10 <= 22.5\ngini = 0.51\nsamples = 141\nvalue = [93, 21, 27]\nclass = 0", fillcolor="#f0b68c"] ;
2 -> 3 ;
4 [label="v_13 <= 15.5\ngini = 0.65\nsamples = 74\nvalue = [30, 18, 26]\nclass = 0", fillcolor="#fdf4ee"] ;
3 -> 4 ;
5 [label="v_15 <= 10.5\ngini = 0.65\nsamples = 72\nvalue = [30, 18, 24]\nclass = 0", fillcolor="#fcefe6"] ;
4 -> 5 ;
6 [label="v_31 <= 26.5\ngini = 0.6\nsamples = 48\nvalue = [26, 10, 12]\nclass = 0", fillcolor="#f5ceb2"] ;
5 -> 6 ;
7 [label="gini = 0.67\nsamples = 22\nvalue = [7, 8, 7]\nclass = 1", fillcolor="#f2fdf7"] ;
6 -> 7 ;
8 [label="v_31 <= 27.5\ngini = 0.42\nsamples = 26\nvalue = [19, 2, 5]\nclass = 0", fillcolor="#eeab7b"] ;
6 -> 8 ;
9 [label="gini = 0.38\nsamples = 8\nvalue = [6, 2, 0]\nclass = 0", fillcolor="#eeab7b"] ;
8 -> 9 ;
10 [label="v_31 <= 30.5\ngini = 0.4\nsamples = 18\nvalue = [13, 0, 5]\nclass = 0", fillcolor="#efb185"] ;
8 -> 10 ;
11 [label="v_31 <= 29.5\ngini = 0.46\nsamples = 14\nvalue = [9, 0, 5]\nclass = 0", fillcolor="#f3c7a7"] ;
10 -> 11 ;
12 [label="v_31 <= 28.5\ngini = 0.32\nsamples = 10\nvalue = [8, 0, 2]\nclass = 0", fillcolor="#eca06a"] ;
11 -> 12 ;
13 [label="gini = 0.32\nsamples = 5\nvalue = [4, 0, 1]\nclass = 0", fillcolor="#eca06a"] ;
12 -> 13 ;
14 [label="gini = 0.32\nsamples = 5\nvalue = [4, 0, 1]\nclass = 0", fillcolor="#eca06a"] ;
12 -> 14 ;
15 [label="gini = 0.38\nsamples = 4\nvalue = [1, 0, 3]\nclass = 2", fillcolor="#ab7bee"] ;
11 -> 15 ;
16 [label="gini = 0.0\nsamples = 4\nvalue = [4, 0, 0]\nclass = 0", fillcolor="#e58139"] ;
10 -> 16 ;
17 [label="v_31 <= 26.5\ngini = 0.61\nsamples = 24\nvalue = [4, 8, 12]\nclass = 2", fillcolor="#e0cef8"] ;
5 -> 17 ;
18 [label="v_15 <= 12.5\ngini = 0.31\nsamples = 11\nvalue = [1, 1, 9]\nclass = 2", fillcolor="#9a61ea"] ;
17 -> 18 ;
19 [label="v_15 <= 11.5\ngini = 0.18\nsamples = 10\nvalue = [1, 0, 9]\nclass = 2", fillcolor="#8f4fe8"] ;
18 -> 19 ;
20 [label="gini = 0.2\nsamples = 9\nvalue = [1, 0, 8]\nclass = 2", fillcolor="#9152e8"] ;
19 -> 20 ;
21 [label="gini = 0.0\nsamples = 1\nvalue = [0, 0, 1]\nclass = 2", fillcolor="#8139e5"] ;
19 -> 21 ;
22 [label="gini = 0.0\nsamples = 1\nvalue = [0, 1, 0]\nclass = 1", fillcolor="#39e581"] ;
18 -> 22 ;
23 [label="v_15 <= 12.5\ngini = 0.6\nsamples = 13\nvalue = [3, 7, 3]\nclass = 1", fillcolor="#b0f5cd"] ;
17 -> 23 ;
24 [label="v_31 <= 29.0\ngini = 0.49\nsamples = 7\nvalue = [0, 4, 3]\nclass = 1", fillcolor="#cef8e0"] ;
23 -> 24 ;
25 [label="v_31 <= 27.5\ngini = 0.38\nsamples = 4\nvalue = [0, 3, 1]\nclass = 1", fillcolor="#7beeab"] ;
24 -> 25 ;
26 [label="gini = 0.5\nsamples = 2\nvalue = [0, 1, 1]\nclass = 1", fillcolor="#ffffff"] ;
25 -> 26 ;
27 [label="gini = 0.0\nsamples = 2\nvalue = [0, 2, 0]\nclass = 1", fillcolor="#39e581"] ;
25 -> 27 ;
28 [label="gini = 0.44\nsamples = 3\nvalue = [0, 1, 2]\nclass = 2", fillcolor="#c09cf2"] ;
24 -> 28 ;
29 [label="v_15 <= 13.5\ngini = 0.5\nsamples = 6\nvalue = [3, 3, 0]\nclass = 0", fillcolor="#ffffff"] ;
23 -> 29 ;
30 [label="v_31 <= 29.0\ngini = 0.48\nsamples = 5\nvalue = [3, 2, 0]\nclass = 0", fillcolor="#f6d5bd"] ;
29 -> 30 ;
31 [label="v_31 <= 27.5\ngini = 0.38\nsamples = 4\nvalue = [3, 1, 0]\nclass = 0", fillcolor="#eeab7b"] ;
30 -> 31 ;
32 [label="gini = 0.44\nsamples = 3\nvalue = [2, 1, 0]\nclass = 0", fillcolor="#f2c09c"] ;
31 -> 32 ;
33 [label="gini = 0.0\nsamples = 1\nvalue = [1, 0, 0]\nclass = 0", fillcolor="#e58139"] ;
31 -> 33 ;
34 [label="gini = 0.0\nsamples = 1\nvalue = [0, 1, 0]\nclass = 1", fillcolor="#39e581"] ;
30 -> 34 ;
35 [label="gini = 0.0\nsamples = 1\nvalue = [0, 1, 0]\nclass = 1", fillcolor="#39e581"] ;
29 -> 35 ;
36 [label="gini = 0.0\nsamples = 2\nvalue = [0, 0, 2]\nclass = 2", fillcolor="#8139e5"] ;
4 -> 36 ;
37 [label="v_22 <= 18.5\ngini = 0.11\nsamples = 67\nvalue = [63, 3, 1]\nclass = 0", fillcolor="#e78945"] ;
3 -> 37 ;
38 [label="v_15 <= 10.5\ngini = 0.03\nsamples = 64\nvalue = [63, 0, 1]\nclass = 0", fillcolor="#e5833c"] ;
37 -> 38 ;
39 [label="v_33 <= 24.5\ngini = 0.06\nsamples = 35\nvalue = [34, 0, 1]\nclass = 0", fillcolor="#e6853f"] ;
38 -> 39 ;
40 [label="v_31 <= 56.5\ngini = 0.5\nsamples = 2\nvalue = [1, 0, 1]\nclass = 0", fillcolor="#ffffff"] ;
39 -> 40 ;
41 [label="gini = 0.0\nsamples = 1\nvalue = [0, 0, 1]\nclass = 2", fillcolor="#8139e5"] ;
40 -> 41 ;
42 [label="gini = 0.0\nsamples = 1\nvalue = [1, 0, 0]\nclass = 0", fillcolor="#e58139"] ;
40 -> 42 ;
43 [label="gini = 0.0\nsamples = 33\nvalue = [33, 0, 0]\nclass = 0", fillcolor="#e58139"] ;
39 -> 43 ;
44 [label="gini = 0.0\nsamples = 29\nvalue = [29, 0, 0]\nclass = 0", fillcolor="#e58139"] ;
38 -> 44 ;
45 [label="gini = 0.0\nsamples = 3\nvalue = [0, 3, 0]\nclass = 1", fillcolor="#39e581"] ;
37 -> 45 ;
46 [label="v_33 <= 24.0\ngini = 0.29\nsamples = 220\nvalue = [182, 6, 32]\nclass = 0", fillcolor="#ea9a61"] ;
2 -> 46 ;
47 [label="gini = 0.0\nsamples = 2\nvalue = [0, 2, 0]\nclass = 1", fillcolor="#39e581"] ;
46 -> 47 ;
48 [label="v_17 <= 46.5\ngini = 0.28\nsamples = 218\nvalue = [182, 4, 32]\nclass = 0", fillcolor="#ea995f"] ;
46 -> 48 ;
49 [label="v_6 <= 9.5\ngini = 0.08\nsamples = 49\nvalue = [47, 1, 1]\nclass = 0", fillcolor="#e68641"] ;
48 -> 49 ;
50 [label="v_15 <= 10.5\ngini = 0.04\nsamples = 45\nvalue = [44, 0, 1]\nclass = 0", fillcolor="#e6843d"] ;
49 -> 50 ;
51 [label="v_31 <= 41.5\ngini = 0.06\nsamples = 33\nvalue = [32, 0, 1]\nclass = 0", fillcolor="#e6853f"] ;
50 -> 51 ;
52 [label="gini = 0.0\nsamples = 23\nvalue = [23, 0, 0]\nclass = 0", fillcolor="#e58139"] ;
51 -> 52 ;
53 [label="v_31 <= 42.5\ngini = 0.18\nsamples = 10\nvalue = [9, 0, 1]\nclass = 0", fillcolor="#e88f4f"] ;
51 -> 53 ;
54 [label="gini = 0.0\nsamples = 1\nvalue = [0, 0, 1]\nclass = 2", fillcolor="#8139e5"] ;
53 -> 54 ;
55 [label="gini = 0.0\nsamples = 9\nvalue = [9, 0, 0]\nclass = 0", fillcolor="#e58139"] ;
53 -> 55 ;
56 [label="gini = 0.0\nsamples = 12\nvalue = [12, 0, 0]\nclass = 0", fillcolor="#e58139"] ;
50 -> 56 ;
57 [label="v_23 <= 9.5\ngini = 0.38\nsamples = 4\nvalue = [3, 1, 0]\nclass = 0", fillcolor="#eeab7b"] ;
49 -> 57 ;
58 [label="gini = 0.0\nsamples = 3\nvalue = [3, 0, 0]\nclass = 0", fillcolor="#e58139"] ;
57 -> 58 ;
59 [label="gini = 0.0\nsamples = 1\nvalue = [0, 1, 0]\nclass = 1", fillcolor="#39e581"] ;
57 -> 59 ;
60 [label="v_31 <= 29.5\ngini = 0.33\nsamples = 169\nvalue = [135, 3, 31]\nclass = 0", fillcolor="#eba06a"] ;
48 -> 60 ;
61 [label="v_10 <= 25.5\ngini = 0.51\nsamples = 50\nvalue = [28, 1, 21]\nclass = 0", fillcolor="#f9e1cf"] ;
60 -> 61 ;
62 [label="v_33 <= 28.5\ngini = 0.46\nsamples = 39\nvalue = [25, 0, 14]\nclass = 0", fillcolor="#f4c8a8"] ;
61 -> 62 ;
63 [label="v_15 <= 16.5\ngini = 0.5\nsamples = 27\nvalue = [13, 0, 14]\nclass = 2", fillcolor="#f6f1fd"] ;
62 -> 63 ;
64 [label="v_5 <= 36.5\ngini = 0.5\nsamples = 25\nvalue = [13, 0, 12]\nclass = 0", fillcolor="#fdf5f0"] ;
63 -> 64 ;
65 [label="v_5 <= 34.0\ngini = 0.43\nsamples = 16\nvalue = [11, 0, 5]\nclass = 0", fillcolor="#f1ba93"] ;
64 -> 65 ;
66 [label="gini = 0.0\nsamples = 3\nvalue = [3, 0, 0]\nclass = 0", fillcolor="#e58139"] ;
65 -> 66 ;
67 [label="v_17 <= 52.5\ngini = 0.47\nsamples = 13\nvalue = [8, 0, 5]\nclass = 0", fillcolor="#f5d0b5"] ;
65 -> 67 ;
68 [label="v_31 <= 28.5\ngini = 0.41\nsamples = 7\nvalue = [2, 0, 5]\nclass = 2", fillcolor="#b388ef"] ;
67 -> 68 ;
69 [label="gini = 0.0\nsamples = 5\nvalue = [0, 0, 5]\nclass = 2", fillcolor="#8139e5"] ;
68 -> 69 ;
70 [label="gini = 0.0\nsamples = 2\nvalue = [2, 0, 0]\nclass = 0", fillcolor="#e58139"] ;
68 -> 70 ;
71 [label="gini = 0.0\nsamples = 6\nvalue = [6, 0, 0]\nclass = 0", fillcolor="#e58139"] ;
67 -> 71 ;
72 [label="v_15 <= 12.5\ngini = 0.35\nsamples = 9\nvalue = [2, 0, 7]\nclass = 2", fillcolor="#a572ec"] ;
64 -> 72 ;
73 [label="gini = 0.0\nsamples = 7\nvalue = [0, 0, 7]\nclass = 2", fillcolor="#8139e5"] ;
72 -> 73 ;
74 [label="gini = 0.0\nsamples = 2\nvalue = [2, 0, 0]\nclass = 0", fillcolor="#e58139"] ;
72 -> 74 ;
75 [label="gini = 0.0\nsamples = 2\nvalue = [0, 0, 2]\nclass = 2", fillcolor="#8139e5"] ;
63 -> 75 ;
76 [label="gini = 0.0\nsamples = 12\nvalue = [12, 0, 0]\nclass = 0", fillcolor="#e58139"] ;
62 -> 76 ;
77 [label="v_19 <= 18.5\ngini = 0.51\nsamples = 11\nvalue = [3, 1, 7]\nclass = 2", fillcolor="#c09cf2"] ;
61 -> 77 ;
78 [label="v_0 <= 13.0\ngini = 0.35\nsamples = 9\nvalue = [2, 0, 7]\nclass = 2", fillcolor="#a572ec"] ;
77 -> 78 ;
79 [label="gini = 0.0\nsamples = 2\nvalue = [0, 0, 2]\nclass = 2", fillcolor="#8139e5"] ;
78 -> 79 ;
80 [label="v_23 <= 6.5\ngini = 0.41\nsamples = 7\nvalue = [2, 0, 5]\nclass = 2", fillcolor="#b388ef"] ;
78 -> 80 ;
81 [label="gini = 0.0\nsamples = 1\nvalue = [1, 0, 0]\nclass = 0", fillcolor="#e58139"] ;
80 -> 81 ;
82 [label="v_31 <= 27.0\ngini = 0.28\nsamples = 6\nvalue = [1, 0, 5]\nclass = 2", fillcolor="#9a61ea"] ;
80 -> 82 ;
83 [label="v_23 <= 9.5\ngini = 0.44\nsamples = 3\nvalue = [1, 0, 2]\nclass = 2", fillcolor="#c09cf2"] ;
82 -> 83 ;
84 [label="gini = 0.0\nsamples = 2\nvalue = [0, 0, 2]\nclass = 2", fillcolor="#8139e5"] ;
83 -> 84 ;
85 [label="gini = 0.0\nsamples = 1\nvalue = [1, 0, 0]\nclass = 0", fillcolor="#e58139"] ;
83 -> 85 ;
86 [label="gini = 0.0\nsamples = 3\nvalue = [0, 0, 3]\nclass = 2", fillcolor="#8139e5"] ;
82 -> 86 ;
87 [label="v_29 <= 6.5\ngini = 0.5\nsamples = 2\nvalue = [1, 1, 0]\nclass = 0", fillcolor="#ffffff"] ;
77 -> 87 ;
88 [label="gini = 0.0\nsamples = 1\nvalue = [1, 0, 0]\nclass = 0", fillcolor="#e58139"] ;
87 -> 88 ;
89 [label="gini = 0.0\nsamples = 1\nvalue = [0, 1, 0]\nclass = 1", fillcolor="#39e581"] ;
87 -> 89 ;
90 [label="v_31 <= 39.5\ngini = 0.18\nsamples = 119\nvalue = [107, 2, 10]\nclass = 0", fillcolor="#e88f4f"] ;
60 -> 90 ;
91 [label="v_31 <= 37.5\ngini = 0.26\nsamples = 80\nvalue = [68, 2, 10]\nclass = 0", fillcolor="#e9975b"] ;
90 -> 91 ;
92 [label="v_13 <= 19.5\ngini = 0.19\nsamples = 67\nvalue = [60, 2, 5]\nclass = 0", fillcolor="#e88f4f"] ;
91 -> 92 ;
93 [label="v_33 <= 34.0\ngini = 0.13\nsamples = 58\nvalue = [54, 0, 4]\nclass = 0", fillcolor="#e78a48"] ;
92 -> 93 ;
94 [label="v_10 <= 24.5\ngini = 0.1\nsamples = 55\nvalue = [52, 0, 3]\nclass = 0", fillcolor="#e68844"] ;
93 -> 94 ;
95 [label="gini = 0.0\nsamples = 17\nvalue = [17, 0, 0]\nclass = 0", fillcolor="#e58139"] ;
94 -> 95 ;
96 [label="v_31 <= 35.5\ngini = 0.15\nsamples = 38\nvalue = [35, 0, 3]\nclass = 0", fillcolor="#e78c4a"] ;
94 -> 96 ;
97 [label="v_5 <= 37.5\ngini = 0.2\nsamples = 26\nvalue = [23, 0, 3]\nclass = 0", fillcolor="#e89153"] ;
96 -> 97 ;
98 [label="v_17 <= 47.5\ngini = 0.44\nsamples = 9\nvalue = [6, 0, 3]\nclass = 0", fillcolor="#f2c09c"] ;
97 -> 98 ;
99 [label="v_33 <= 29.5\ngini = 0.48\nsamples = 5\nvalue = [2, 0, 3]\nclass = 2", fillcolor="#d5bdf6"] ;
98 -> 99 ;
100 [label="v_31 <= 34.0\ngini = 0.38\nsamples = 4\nvalue = [1, 0, 3]\nclass = 2", fillcolor="#ab7bee"] ;
99 -> 100 ;
101 [label="v_31 <= 32.5\ngini = 0.5\nsamples = 2\nvalue = [1, 0, 1]\nclass = 0", fillcolor="#ffffff"] ;
100 -> 101 ;
102 [label="gini = 0.0\nsamples = 1\nvalue = [0, 0, 1]\nclass = 2", fillcolor="#8139e5"] ;
101 -> 102 ;
103 [label="gini = 0.0\nsamples = 1\nvalue = [1, 0, 0]\nclass = 0", fillcolor="#e58139"] ;
101 -> 103 ;
104 [label="gini = 0.0\nsamples = 2\nvalue = [0, 0, 2]\nclass = 2", fillcolor="#8139e5"] ;
100 -> 104 ;
105 [label="gini = 0.0\nsamples = 1\nvalue = [1, 0, 0]\nclass = 0", fillcolor="#e58139"] ;
99 -> 105 ;
106 [label="gini = 0.0\nsamples = 4\nvalue = [4, 0, 0]\nclass = 0", fillcolor="#e58139"] ;
98 -> 106 ;
107 [label="gini = 0.0\nsamples = 17\nvalue = [17, 0, 0]\nclass = 0", fillcolor="#e58139"] ;
97 -> 107 ;
108 [label="gini = 0.0\nsamples = 12\nvalue = [12, 0, 0]\nclass = 0", fillcolor="#e58139"] ;
96 -> 108 ;
109 [label="v_19 <= 18.5\ngini = 0.44\nsamples = 3\nvalue = [2, 0, 1]\nclass = 0", fillcolor="#f2c09c"] ;
93 -> 109 ;
110 [label="gini = 0.0\nsamples = 1\nvalue = [0, 0, 1]\nclass = 2", fillcolor="#8139e5"] ;
109 -> 110 ;
111 [label="gini = 0.0\nsamples = 2\nvalue = [2, 0, 0]\nclass = 0", fillcolor="#e58139"] ;
109 -> 111 ;
112 [label="v_15 <= 14.0\ngini = 0.49\nsamples = 9\nvalue = [6, 2, 1]\nclass = 0", fillcolor="#f0b78e"] ;
92 -> 112 ;
113 [label="gini = 0.0\nsamples = 2\nvalue = [0, 2, 0]\nclass = 1", fillcolor="#39e581"] ;
112 -> 113 ;
114 [label="v_23 <= 11.5\ngini = 0.24\nsamples = 7\nvalue = [6, 0, 1]\nclass = 0", fillcolor="#e9965a"] ;
112 -> 114 ;
115 [label="gini = 0.0\nsamples = 6\nvalue = [6, 0, 0]\nclass = 0", fillcolor="#e58139"] ;
114 -> 115 ;
116 [label="gini = 0.0\nsamples = 1\nvalue = [0, 0, 1]\nclass = 2", fillcolor="#8139e5"] ;
114 -> 116 ;
117 [label="v_17 <= 52.5\ngini = 0.47\nsamples = 13\nvalue = [8, 0, 5]\nclass = 0", fillcolor="#f5d0b5"] ;
91 -> 117 ;
118 [label="v_19 <= 18.5\ngini = 0.49\nsamples = 9\nvalue = [4, 0, 5]\nclass = 2", fillcolor="#e6d7fa"] ;
117 -> 118 ;
119 [label="v_23 <= 7.0\ngini = 0.47\nsamples = 8\nvalue = [3, 0, 5]\nclass = 2", fillcolor="#cdb0f5"] ;
118 -> 119 ;
120 [label="v_10 <= 24.5\ngini = 0.28\nsamples = 6\nvalue = [1, 0, 5]\nclass = 2", fillcolor="#9a61ea"] ;
119 -> 120 ;
121 [label="v_33 <= 28.5\ngini = 0.44\nsamples = 3\nvalue = [1, 0, 2]\nclass = 2", fillcolor="#c09cf2"] ;
120 -> 121 ;
122 [label="gini = 0.0\nsamples = 1\nvalue = [1, 0, 0]\nclass = 0", fillcolor="#e58139"] ;
121 -> 122 ;
123 [label="gini = 0.0\nsamples = 2\nvalue = [0, 0, 2]\nclass = 2", fillcolor="#8139e5"] ;
121 -> 123 ;
124 [label="gini = 0.0\nsamples = 3\nvalue = [0, 0, 3]\nclass = 2", fillcolor="#8139e5"] ;
120 -> 124 ;
125 [label="gini = 0.0\nsamples = 2\nvalue = [2, 0, 0]\nclass = 0", fillcolor="#e58139"] ;
119 -> 125 ;
126 [label="gini = 0.0\nsamples = 1\nvalue = [1, 0, 0]\nclass = 0", fillcolor="#e58139"] ;
118 -> 126 ;
127 [label="gini = 0.0\nsamples = 4\nvalue = [4, 0, 0]\nclass = 0", fillcolor="#e58139"] ;
117 -> 127 ;
128 [label="gini = 0.0\nsamples = 39\nvalue = [39, 0, 0]\nclass = 0", fillcolor="#e58139"] ;
90 -> 128 ;
129 [label="v_22 <= 24.12\ngini = 0.54\nsamples = 45\nvalue = [20, 2, 23]\nclass = 2", fillcolor="#f0e7fc"] ;
1 -> 129 ;
130 [label="v_5 <= 43.5\ngini = 0.32\nsamples = 10\nvalue = [2, 0, 8]\nclass = 2", fillcolor="#a06aec"] ;
129 -> 130 ;
131 [label="gini = 0.0\nsamples = 8\nvalue = [0, 0, 8]\nclass = 2", fillcolor="#8139e5"] ;
130 -> 131 ;
132 [label="gini = 0.0\nsamples = 2\nvalue = [2, 0, 0]\nclass = 0", fillcolor="#e58139"] ;
130 -> 132 ;
133 [label="v_22 <= 25.14\ngini = 0.55\nsamples = 35\nvalue = [18, 2, 15]\nclass = 0", fillcolor="#fbece1"] ;
129 -> 133 ;
134 [label="v_5 <= 39.5\ngini = 0.44\nsamples = 21\nvalue = [14, 0, 7]\nclass = 0", fillcolor="#f2c09c"] ;
133 -> 134 ;
135 [label="v_22 <= 24.67\ngini = 0.17\nsamples = 11\nvalue = [10, 0, 1]\nclass = 0", fillcolor="#e88e4d"] ;
134 -> 135 ;
136 [label="v_19 <= 21.0\ngini = 0.38\nsamples = 4\nvalue = [3, 0, 1]\nclass = 0", fillcolor="#eeab7b"] ;
135 -> 136 ;
137 [label="gini = 0.0\nsamples = 1\nvalue = [0, 0, 1]\nclass = 2", fillcolor="#8139e5"] ;
136 -> 137 ;
138 [label="gini = 0.0\nsamples = 3\nvalue = [3, 0, 0]\nclass = 0", fillcolor="#e58139"] ;
136 -> 138 ;
139 [label="gini = 0.0\nsamples = 7\nvalue = [7, 0, 0]\nclass = 0", fillcolor="#e58139"] ;
135 -> 139 ;
140 [label="v_0 <= 13.0\ngini = 0.48\nsamples = 10\nvalue = [4, 0, 6]\nclass = 2", fillcolor="#d5bdf6"] ;
134 -> 140 ;
141 [label="v_5 <= 43.0\ngini = 0.38\nsamples = 8\nvalue = [2, 0, 6]\nclass = 2", fillcolor="#ab7bee"] ;
140 -> 141 ;
142 [label="gini = 0.0\nsamples = 6\nvalue = [0, 0, 6]\nclass = 2", fillcolor="#8139e5"] ;
141 -> 142 ;
143 [label="gini = 0.0\nsamples = 2\nvalue = [2, 0, 0]\nclass = 0", fillcolor="#e58139"] ;
141 -> 143 ;
144 [label="gini = 0.0\nsamples = 2\nvalue = [2, 0, 0]\nclass = 0", fillcolor="#e58139"] ;
140 -> 144 ;
145 [label="v_31 <= 34.5\ngini = 0.57\nsamples = 14\nvalue = [4, 2, 8]\nclass = 2", fillcolor="#cdb0f5"] ;
133 -> 145 ;
146 [label="v_22 <= 27.88\ngini = 0.62\nsamples = 8\nvalue = [4, 2, 2]\nclass = 0", fillcolor="#f6d5bd"] ;
145 -> 146 ;
147 [label="v_0 <= 12.5\ngini = 0.48\nsamples = 5\nvalue = [3, 2, 0]\nclass = 0", fillcolor="#f6d5bd"] ;
146 -> 147 ;
148 [label="gini = 0.0\nsamples = 2\nvalue = [2, 0, 0]\nclass = 0", fillcolor="#e58139"] ;
147 -> 148 ;
149 [label="v_29 <= 11.0\ngini = 0.44\nsamples = 3\nvalue = [1, 2, 0]\nclass = 1", fillcolor="#9cf2c0"] ;
147 -> 149 ;
150 [label="gini = 0.0\nsamples = 2\nvalue = [0, 2, 0]\nclass = 1", fillcolor="#39e581"] ;
149 -> 150 ;
151 [label="gini = 0.0\nsamples = 1\nvalue = [1, 0, 0]\nclass = 0", fillcolor="#e58139"] ;
149 -> 151 ;
152 [label="v_6 <= 10.0\ngini = 0.44\nsamples = 3\nvalue = [1, 0, 2]\nclass = 2", fillcolor="#c09cf2"] ;
146 -> 152 ;
153 [label="gini = 0.0\nsamples = 2\nvalue = [0, 0, 2]\nclass = 2", fillcolor="#8139e5"] ;
152 -> 153 ;
154 [label="gini = 0.0\nsamples = 1\nvalue = [1, 0, 0]\nclass = 0", fillcolor="#e58139"] ;
152 -> 154 ;
155 [label="gini = 0.0\nsamples = 6\nvalue = [0, 0, 6]\nclass = 2", fillcolor="#8139e5"] ;
145 -> 155 ;
156 [label="v_6 <= 12.5\ngini = 0.65\nsamples = 1664\nvalue = [395, 661, 608]\nclass = 1", fillcolor="#f5fef9"] ;
0 -> 156 [labeldistance=2.5, labelangle=-45, headlabel="False"] ;
157 [label="v_31 <= 33.5\ngini = 0.58\nsamples = 527\nvalue = [233, 46, 248]\nclass = 2", fillcolor="#f9f5fe"] ;
156 -> 157 ;
158 [label="v_6 <= 9.5\ngini = 0.56\nsamples = 374\nvalue = [132, 33, 209]\nclass = 2", fillcolor="#d7c0f7"] ;
157 -> 158 ;
159 [label="v_31 <= 29.5\ngini = 0.26\nsamples = 60\nvalue = [51, 0, 9]\nclass = 0", fillcolor="#ea975c"] ;
158 -> 159 ;
160 [label="v_19 <= 19.5\ngini = 0.33\nsamples = 43\nvalue = [34, 0, 9]\nclass = 0", fillcolor="#eca26d"] ;
159 -> 160 ;
161 [label="v_5 <= 39.0\ngini = 0.49\nsamples = 9\nvalue = [4, 0, 5]\nclass = 2", fillcolor="#e6d7fa"] ;
160 -> 161 ;
162 [label="gini = 0.0\nsamples = 2\nvalue = [2, 0, 0]\nclass = 0", fillcolor="#e58139"] ;
161 -> 162 ;
163 [label="v_17 <= 54.0\ngini = 0.41\nsamples = 7\nvalue = [2, 0, 5]\nclass = 2", fillcolor="#b388ef"] ;
161 -> 163 ;
164 [label="v_29 <= 18.5\ngini = 0.28\nsamples = 6\nvalue = [1, 0, 5]\nclass = 2", fillcolor="#9a61ea"] ;
163 -> 164 ;
165 [label="gini = 0.0\nsamples = 4\nvalue = [0, 0, 4]\nclass = 2", fillcolor="#8139e5"] ;
164 -> 165 ;
166 [label="v_6 <= 8.5\ngini = 0.5\nsamples = 2\nvalue = [1, 0, 1]\nclass = 0", fillcolor="#ffffff"] ;
164 -> 166 ;
167 [label="gini = 0.0\nsamples = 1\nvalue = [1, 0, 0]\nclass = 0", fillcolor="#e58139"] ;
166 -> 167 ;
168 [label="gini = 0.0\nsamples = 1\nvalue = [0, 0, 1]\nclass = 2", fillcolor="#8139e5"] ;
166 -> 168 ;
169 [label="gini = 0.0\nsamples = 1\nvalue = [1, 0, 0]\nclass = 0", fillcolor="#e58139"] ;
163 -> 169 ;
170 [label="v_6 <= 8.5\ngini = 0.21\nsamples = 34\nvalue = [30, 0, 4]\nclass = 0", fillcolor="#e89253"] ;
160 -> 170 ;
171 [label="v_17 <= 54.5\ngini = 0.08\nsamples = 25\nvalue = [24, 0, 1]\nclass = 0", fillcolor="#e68641"] ;
170 -> 171 ;
172 [label="gini = 0.0\nsamples = 23\nvalue = [23, 0, 0]\nclass = 0", fillcolor="#e58139"] ;
171 -> 172 ;
173 [label="v_19 <= 20.5\ngini = 0.5\nsamples = 2\nvalue = [1, 0, 1]\nclass = 0", fillcolor="#ffffff"] ;
171 -> 173 ;
174 [label="gini = 0.0\nsamples = 1\nvalue = [1, 0, 0]\nclass = 0", fillcolor="#e58139"] ;
173 -> 174 ;
175 [label="gini = 0.0\nsamples = 1\nvalue = [0, 0, 1]\nclass = 2", fillcolor="#8139e5"] ;
173 -> 175 ;
176 [label="v_19 <= 22.5\ngini = 0.44\nsamples = 9\nvalue = [6, 0, 3]\nclass = 0", fillcolor="#f2c09c"] ;
170 -> 176 ;
177 [label="gini = 0.0\nsamples = 6\nvalue = [6, 0, 0]\nclass = 0", fillcolor="#e58139"] ;
176 -> 177 ;
178 [label="gini = 0.0\nsamples = 3\nvalue = [0, 0, 3]\nclass = 2", fillcolor="#8139e5"] ;
176 -> 178 ;
179 [label="gini = 0.0\nsamples = 17\nvalue = [17, 0, 0]\nclass = 0", fillcolor="#e58139"] ;
159 -> 179 ;
180 [label="v_33 <= 28.5\ngini = 0.52\nsamples = 314\nvalue = [81, 33, 200]\nclass = 2", fillcolor="#bf9af2"] ;
158 -> 180 ;
181 [label="v_5 <= 36.5\ngini = 0.42\nsamples = 150\nvalue = [23, 16, 111]\nclass = 2", fillcolor="#a876ed"] ;
180 -> 181 ;
182 [label="v_22 <= 25.25\ngini = 0.6\nsamples = 15\nvalue = [7, 2, 6]\nclass = 0", fillcolor="#fcf1e9"] ;
181 -> 182 ;
183 [label="v_5 <= 35.5\ngini = 0.56\nsamples = 10\nvalue = [2, 2, 6]\nclass = 2", fillcolor="#c09cf2"] ;
182 -> 183 ;
184 [label="gini = 0.0\nsamples = 4\nvalue = [0, 0, 4]\nclass = 2", fillcolor="#8139e5"] ;
183 -> 184 ;
185 [label="v_29 <= 17.42\ngini = 0.67\nsamples = 6\nvalue = [2, 2, 2]\nclass = 0", fillcolor="#ffffff"] ;
183 -> 185 ;
186 [label="gini = 0.0\nsamples = 2\nvalue = [2, 0, 0]\nclass = 0", fillcolor="#e58139"] ;
185 -> 186 ;
187 [label="v_17 <= 46.5\ngini = 0.5\nsamples = 4\nvalue = [0, 2, 2]\nclass = 1", fillcolor="#ffffff"] ;
185 -> 187 ;
188 [label="gini = 0.0\nsamples = 1\nvalue = [0, 0, 1]\nclass = 2", fillcolor="#8139e5"] ;
187 -> 188 ;
189 [label="v_22 <= 24.75\ngini = 0.44\nsamples = 3\nvalue = [0, 2, 1]\nclass = 1", fillcolor="#9cf2c0"] ;
187 -> 189 ;
190 [label="gini = 0.0\nsamples = 2\nvalue = [0, 2, 0]\nclass = 1", fillcolor="#39e581"] ;
189 -> 190 ;
191 [label="gini = 0.0\nsamples = 1\nvalue = [0, 0, 1]\nclass = 2", fillcolor="#8139e5"] ;
189 -> 191 ;
192 [label="gini = 0.0\nsamples = 5\nvalue = [5, 0, 0]\nclass = 0", fillcolor="#e58139"] ;
182 -> 192 ;
193 [label="v_15 <= 14.5\ngini = 0.37\nsamples = 135\nvalue = [16, 14, 105]\nclass = 2", fillcolor="#a16bec"] ;
181 -> 193 ;
194 [label="v_29 <= 20.42\ngini = 0.33\nsamples = 128\nvalue = [15, 10, 103]\nclass = 2", fillcolor="#9d65eb"] ;
193 -> 194 ;
195 [label="v_19 <= 21.5\ngini = 0.31\nsamples = 124\nvalue = [12, 10, 102]\nclass = 2", fillcolor="#9a60ea"] ;
194 -> 195 ;
196 [label="v_19 <= 20.5\ngini = 0.25\nsamples = 65\nvalue = [7, 2, 56]\nclass = 2", fillcolor="#9558e9"] ;
195 -> 196 ;
197 [label="v_17 <= 49.5\ngini = 0.33\nsamples = 19\nvalue = [4, 0, 15]\nclass = 2", fillcolor="#a36eec"] ;
196 -> 197 ;
198 [label="gini = 0.0\nsamples = 3\nvalue = [3, 0, 0]\nclass = 0", fillcolor="#e58139"] ;
197 -> 198 ;
199 [label="v_29 <= 17.75\ngini = 0.12\nsamples = 16\nvalue = [1, 0, 15]\nclass = 2", fillcolor="#8946e7"] ;
197 -> 199 ;
200 [label="gini = 0.0\nsamples = 7\nvalue = [0, 0, 7]\nclass = 2", fillcolor="#8139e5"] ;
199 -> 200 ;
201 [label="v_29 <= 18.25\ngini = 0.2\nsamples = 9\nvalue = [1, 0, 8]\nclass = 2", fillcolor="#9152e8"] ;
199 -> 201 ;
202 [label="v_22 <= 23.75\ngini = 0.5\nsamples = 2\nvalue = [1, 0, 1]\nclass = 0", fillcolor="#ffffff"] ;
201 -> 202 ;
203 [label="gini = 0.0\nsamples = 1\nvalue = [0, 0, 1]\nclass = 2", fillcolor="#8139e5"] ;
202 -> 203 ;
204 [label="gini = 0.0\nsamples = 1\nvalue = [1, 0, 0]\nclass = 0", fillcolor="#e58139"] ;
202 -> 204 ;
205 [label="gini = 0.0\nsamples = 7\nvalue = [0, 0, 7]\nclass = 2", fillcolor="#8139e5"] ;
201 -> 205 ;
206 [label="v_15 <= 12.5\ngini = 0.2\nsamples = 46\nvalue = [3, 2, 41]\nclass = 2", fillcolor="#9050e8"] ;
196 -> 206 ;
207 [label="v_22 <= 25.39\ngini = 0.25\nsamples = 36\nvalue = [3, 2, 31]\nclass = 2", fillcolor="#9457e9"] ;
206 -> 207 ;
208 [label="v_17 <= 48.5\ngini = 0.36\nsamples = 23\nvalue = [3, 2, 18]\nclass = 2", fillcolor="#a06aec"] ;
207 -> 208 ;
209 [label="v_0 <= 13.0\ngini = 0.44\nsamples = 9\nvalue = [3, 0, 6]\nclass = 2", fillcolor="#c09cf2"] ;
208 -> 209 ;
210 [label="v_31 <= 26.5\ngini = 0.38\nsamples = 8\nvalue = [2, 0, 6]\nclass = 2", fillcolor="#ab7bee"] ;
209 -> 210 ;
211 [label="gini = 0.0\nsamples = 1\nvalue = [1, 0, 0]\nclass = 0", fillcolor="#e58139"] ;
210 -> 211 ;
212 [label="v_5 <= 40.5\ngini = 0.24\nsamples = 7\nvalue = [1, 0, 6]\nclass = 2", fillcolor="#965ae9"] ;
210 -> 212 ;
213 [label="gini = 0.0\nsamples = 6\nvalue = [0, 0, 6]\nclass = 2", fillcolor="#8139e5"] ;
212 -> 213 ;
214 [label="gini = 0.0\nsamples = 1\nvalue = [1, 0, 0]\nclass = 0", fillcolor="#e58139"] ;
212 -> 214 ;
215 [label="gini = 0.0\nsamples = 1\nvalue = [1, 0, 0]\nclass = 0", fillcolor="#e58139"] ;
209 -> 215 ;
216 [label="v_5 <= 39.5\ngini = 0.24\nsamples = 14\nvalue = [0, 2, 12]\nclass = 2", fillcolor="#965ae9"] ;
208 -> 216 ;
217 [label="v_17 <= 53.5\ngini = 0.48\nsamples = 5\nvalue = [0, 2, 3]\nclass = 2", fillcolor="#d5bdf6"] ;
216 -> 217 ;
218 [label="v_6 <= 11.5\ngini = 0.5\nsamples = 4\nvalue = [0, 2, 2]\nclass = 1", fillcolor="#ffffff"] ;
217 -> 218 ;
219 [label="gini = 0.0\nsamples = 2\nvalue = [0, 0, 2]\nclass = 2", fillcolor="#8139e5"] ;
218 -> 219 ;
220 [label="gini = 0.0\nsamples = 2\nvalue = [0, 2, 0]\nclass = 1", fillcolor="#39e581"] ;
218 -> 220 ;
221 [label="gini = 0.0\nsamples = 1\nvalue = [0, 0, 1]\nclass = 2", fillcolor="#8139e5"] ;
217 -> 221 ;
222 [label="gini = 0.0\nsamples = 9\nvalue = [0, 0, 9]\nclass = 2", fillcolor="#8139e5"] ;
216 -> 222 ;
223 [label="gini = 0.0\nsamples = 13\nvalue = [0, 0, 13]\nclass = 2", fillcolor="#8139e5"] ;
207 -> 223 ;
224 [label="gini = 0.0\nsamples = 10\nvalue = [0, 0, 10]\nclass = 2", fillcolor="#8139e5"] ;
206 -> 224 ;
225 [label="v_5 <= 43.5\ngini = 0.37\nsamples = 59\nvalue = [5, 8, 46]\nclass = 2", fillcolor="#a16bec"] ;
195 -> 225 ;
226 [label="v_17 <= 46.5\ngini = 0.33\nsamples = 57\nvalue = [4, 7, 46]\nclass = 2", fillcolor="#9d65eb"] ;
225 -> 226 ;
227 [label="v_22 <= 25.92\ngini = 0.62\nsamples = 8\nvalue = [2, 2, 4]\nclass = 2", fillcolor="#d5bdf6"] ;
226 -> 227 ;
228 [label="v_31 <= 26.5\ngini = 0.32\nsamples = 5\nvalue = [0, 1, 4]\nclass = 2", fillcolor="#a06aec"] ;
227 -> 228 ;
229 [label="gini = 0.0\nsamples = 1\nvalue = [0, 1, 0]\nclass = 1", fillcolor="#39e581"] ;
228 -> 229 ;
230 [label="gini = 0.0\nsamples = 4\nvalue = [0, 0, 4]\nclass = 2", fillcolor="#8139e5"] ;
228 -> 230 ;
231 [label="v_31 <= 26.5\ngini = 0.44\nsamples = 3\nvalue = [2, 1, 0]\nclass = 0", fillcolor="#f2c09c"] ;
227 -> 231 ;
232 [label="gini = 0.0\nsamples = 1\nvalue = [0, 1, 0]\nclass = 1", fillcolor="#39e581"] ;
231 -> 232 ;
233 [label="gini = 0.0\nsamples = 2\nvalue = [2, 0, 0]\nclass = 0", fillcolor="#e58139"] ;
231 -> 233 ;
234 [label="v_15 <= 13.5\ngini = 0.25\nsamples = 49\nvalue = [2, 5, 42]\nclass = 2", fillcolor="#9559e9"] ;
226 -> 234 ;
235 [label="v_19 <= 22.5\ngini = 0.23\nsamples = 46\nvalue = [2, 4, 40]\nclass = 2", fillcolor="#9355e9"] ;
234 -> 235 ;
236 [label="v_23 <= 3.5\ngini = 0.33\nsamples = 31\nvalue = [2, 4, 25]\nclass = 2", fillcolor="#9d65eb"] ;
235 -> 236 ;
237 [label="v_17 <= 51.5\ngini = 0.26\nsamples = 28\nvalue = [2, 2, 24]\nclass = 2", fillcolor="#9457e9"] ;
236 -> 237 ;
238 [label="v_29 <= 18.9\ngini = 0.21\nsamples = 26\nvalue = [1, 2, 23]\nclass = 2", fillcolor="#9152e8"] ;
237 -> 238 ;
239 [label="v_15 <= 11.5\ngini = 0.15\nsamples = 25\nvalue = [1, 1, 23]\nclass = 2", fillcolor="#8c49e7"] ;
238 -> 239 ;
240 [label="v_31 <= 29.5\ngini = 0.09\nsamples = 22\nvalue = [0, 1, 21]\nclass = 2", fillcolor="#8742e6"] ;
239 -> 240 ;
241 [label="gini = 0.0\nsamples = 18\nvalue = [0, 0, 18]\nclass = 2", fillcolor="#8139e5"] ;
240 -> 241 ;
242 [label="v_17 <= 50.0\ngini = 0.38\nsamples = 4\nvalue = [0, 1, 3]\nclass = 2", fillcolor="#ab7bee"] ;
240 -> 242 ;
243 [label="gini = 0.0\nsamples = 1\nvalue = [0, 1, 0]\nclass = 1", fillcolor="#39e581"] ;
242 -> 243 ;
244 [label="gini = 0.0\nsamples = 3\nvalue = [0, 0, 3]\nclass = 2", fillcolor="#8139e5"] ;
242 -> 244 ;
245 [label="v_22 <= 26.5\ngini = 0.44\nsamples = 3\nvalue = [1, 0, 2]\nclass = 2", fillcolor="#c09cf2"] ;
239 -> 245 ;
246 [label="gini = 0.0\nsamples = 1\nvalue = [1, 0, 0]\nclass = 0", fillcolor="#e58139"] ;
245 -> 246 ;
247 [label="gini = 0.0\nsamples = 2\nvalue = [0, 0, 2]\nclass = 2", fillcolor="#8139e5"] ;
245 -> 247 ;
248 [label="gini = 0.0\nsamples = 1\nvalue = [0, 1, 0]\nclass = 1", fillcolor="#39e581"] ;
238 -> 248 ;
249 [label="v_22 <= 25.75\ngini = 0.5\nsamples = 2\nvalue = [1, 0, 1]\nclass = 0", fillcolor="#ffffff"] ;
237 -> 249 ;
250 [label="gini = 0.0\nsamples = 1\nvalue = [0, 0, 1]\nclass = 2", fillcolor="#8139e5"] ;
249 -> 250 ;
251 [label="gini = 0.0\nsamples = 1\nvalue = [1, 0, 0]\nclass = 0", fillcolor="#e58139"] ;
249 -> 251 ;
252 [label="v_29 <= 18.5\ngini = 0.44\nsamples = 3\nvalue = [0, 2, 1]\nclass = 1", fillcolor="#9cf2c0"] ;
236 -> 252 ;
253 [label="gini = 0.0\nsamples = 2\nvalue = [0, 2, 0]\nclass = 1", fillcolor="#39e581"] ;
252 -> 253 ;
254 [label="gini = 0.0\nsamples = 1\nvalue = [0, 0, 1]\nclass = 2", fillcolor="#8139e5"] ;
252 -> 254 ;
255 [label="gini = 0.0\nsamples = 15\nvalue = [0, 0, 15]\nclass = 2", fillcolor="#8139e5"] ;
235 -> 255 ;
256 [label="v_31 <= 28.0\ngini = 0.44\nsamples = 3\nvalue = [0, 1, 2]\nclass = 2", fillcolor="#c09cf2"] ;
234 -> 256 ;
257 [label="gini = 0.0\nsamples = 1\nvalue = [0, 1, 0]\nclass = 1", fillcolor="#39e581"] ;
256 -> 257 ;
258 [label="gini = 0.0\nsamples = 2\nvalue = [0, 0, 2]\nclass = 2", fillcolor="#8139e5"] ;
256 -> 258 ;
259 [label="v_6 <= 11.0\ngini = 0.5\nsamples = 2\nvalue = [1, 1, 0]\nclass = 0", fillcolor="#ffffff"] ;
225 -> 259 ;
260 [label="gini = 0.0\nsamples = 1\nvalue = [1, 0, 0]\nclass = 0", fillcolor="#e58139"] ;
259 -> 260 ;
261 [label="gini = 0.0\nsamples = 1\nvalue = [0, 1, 0]\nclass = 1", fillcolor="#39e581"] ;
259 -> 261 ;
262 [label="v_17 <= 48.5\ngini = 0.38\nsamples = 4\nvalue = [3, 0, 1]\nclass = 0", fillcolor="#eeab7b"] ;
194 -> 262 ;
263 [label="gini = 0.0\nsamples = 3\nvalue = [3, 0, 0]\nclass = 0", fillcolor="#e58139"] ;
262 -> 263 ;
264 [label="gini = 0.0\nsamples = 1\nvalue = [0, 0, 1]\nclass = 2", fillcolor="#8139e5"] ;
262 -> 264 ;
265 [label="v_6 <= 11.5\ngini = 0.57\nsamples = 7\nvalue = [1, 4, 2]\nclass = 1", fillcolor="#b0f5cd"] ;
193 -> 265 ;
266 [label="v_17 <= 46.5\ngini = 0.61\nsamples = 6\nvalue = [1, 3, 2]\nclass = 1", fillcolor="#cef8e0"] ;
265 -> 266 ;
267 [label="gini = 0.0\nsamples = 2\nvalue = [0, 0, 2]\nclass = 2", fillcolor="#8139e5"] ;
266 -> 267 ;
268 [label="v_17 <= 49.0\ngini = 0.38\nsamples = 4\nvalue = [1, 3, 0]\nclass = 1", fillcolor="#7beeab"] ;
266 -> 268 ;
269 [label="gini = 0.0\nsamples = 3\nvalue = [0, 3, 0]\nclass = 1", fillcolor="#39e581"] ;
268 -> 269 ;
270 [label="gini = 0.0\nsamples = 1\nvalue = [1, 0, 0]\nclass = 0", fillcolor="#e58139"] ;
268 -> 270 ;
271 [label="gini = 0.0\nsamples = 1\nvalue = [0, 1, 0]\nclass = 1", fillcolor="#39e581"] ;
265 -> 271 ;
272 [label="v_29 <= 21.35\ngini = 0.57\nsamples = 164\nvalue = [58, 17, 89]\nclass = 2", fillcolor="#dac5f7"] ;
180 -> 272 ;
273 [label="v_19 <= 22.5\ngini = 0.56\nsamples = 158\nvalue = [52, 17, 89]\nclass = 2", fillcolor="#d3baf6"] ;
272 -> 273 ;
274 [label="v_15 <= 12.5\ngini = 0.53\nsamples = 79\nvalue = [36, 3, 40]\nclass = 2", fillcolor="#f3edfd"] ;
273 -> 274 ;
275 [label="v_22 <= 23.12\ngini = 0.53\nsamples = 70\nvalue = [28, 3, 39]\nclass = 2", fillcolor="#decbf8"] ;
274 -> 275 ;
276 [label="gini = 0.0\nsamples = 4\nvalue = [4, 0, 0]\nclass = 0", fillcolor="#e58139"] ;
275 -> 276 ;
277 [label="v_17 <= 54.5\ngini = 0.52\nsamples = 66\nvalue = [24, 3, 39]\nclass = 2", fillcolor="#d2b8f6"] ;
275 -> 277 ;
278 [label="v_6 <= 10.5\ngini = 0.54\nsamples = 56\nvalue = [23, 3, 30]\nclass = 2", fillcolor="#e4d5f9"] ;
277 -> 278 ;
279 [label="v_24 <= 16.5\ngini = 0.41\nsamples = 14\nvalue = [4, 0, 10]\nclass = 2", fillcolor="#b388ef"] ;
278 -> 279 ;
280 [label="v_17 <= 50.0\ngini = 0.36\nsamples = 13\nvalue = [3, 0, 10]\nclass = 2", fillcolor="#a774ed"] ;
279 -> 280 ;
281 [label="gini = 0.0\nsamples = 2\nvalue = [2, 0, 0]\nclass = 0", fillcolor="#e58139"] ;
280 -> 281 ;
282 [label="v_19 <= 21.5\ngini = 0.17\nsamples = 11\nvalue = [1, 0, 10]\nclass = 2", fillcolor="#8e4de8"] ;
280 -> 282 ;
283 [label="v_29 <= 17.83\ngini = 0.24\nsamples = 7\nvalue = [1, 0, 6]\nclass = 2", fillcolor="#965ae9"] ;
282 -> 283 ;
284 [label="gini = 0.0\nsamples = 5\nvalue = [0, 0, 5]\nclass = 2", fillcolor="#8139e5"] ;
283 -> 284 ;
285 [label="v_5 <= 44.0\ngini = 0.5\nsamples = 2\nvalue = [1, 0, 1]\nclass = 0", fillcolor="#ffffff"] ;
283 -> 285 ;
286 [label="gini = 0.0\nsamples = 1\nvalue = [1, 0, 0]\nclass = 0", fillcolor="#e58139"] ;
285 -> 286 ;
287 [label="gini = 0.0\nsamples = 1\nvalue = [0, 0, 1]\nclass = 2", fillcolor="#8139e5"] ;
285 -> 287 ;
288 [label="gini = 0.0\nsamples = 4\nvalue = [0, 0, 4]\nclass = 2", fillcolor="#8139e5"] ;
282 -> 288 ;
289 [label="gini = 0.0\nsamples = 1\nvalue = [1, 0, 0]\nclass = 0", fillcolor="#e58139"] ;
279 -> 289 ;
290 [label="v_19 <= 21.5\ngini = 0.56\nsamples = 42\nvalue = [19, 3, 20]\nclass = 2", fillcolor="#faf6fe"] ;
278 -> 290 ;
291 [label="v_29 <= 17.58\ngini = 0.39\nsamples = 15\nvalue = [4, 0, 11]\nclass = 2", fillcolor="#af81ee"] ;
290 -> 291 ;
292 [label="gini = 0.0\nsamples = 6\nvalue = [0, 0, 6]\nclass = 2", fillcolor="#8139e5"] ;
291 -> 292 ;
293 [label="v_29 <= 18.67\ngini = 0.49\nsamples = 9\nvalue = [4, 0, 5]\nclass = 2", fillcolor="#e6d7fa"] ;
291 -> 293 ;
294 [label="v_22 <= 23.46\ngini = 0.32\nsamples = 5\nvalue = [4, 0, 1]\nclass = 0", fillcolor="#eca06a"] ;
293 -> 294 ;
295 [label="gini = 0.0\nsamples = 1\nvalue = [0, 0, 1]\nclass = 2", fillcolor="#8139e5"] ;
294 -> 295 ;
296 [label="gini = 0.0\nsamples = 4\nvalue = [4, 0, 0]\nclass = 0", fillcolor="#e58139"] ;
294 -> 296 ;
297 [label="gini = 0.0\nsamples = 4\nvalue = [0, 0, 4]\nclass = 2", fillcolor="#8139e5"] ;
293 -> 297 ;
298 [label="v_22 <= 24.88\ngini = 0.57\nsamples = 27\nvalue = [15, 3, 9]\nclass = 0", fillcolor="#f6d5bd"] ;
290 -> 298 ;
299 [label="v_17 <= 49.5\ngini = 0.52\nsamples = 20\nvalue = [13, 3, 4]\nclass = 0", fillcolor="#f0b890"] ;
298 -> 299 ;
300 [label="v_22 <= 24.12\ngini = 0.62\nsamples = 4\nvalue = [1, 1, 2]\nclass = 2", fillcolor="#d5bdf6"] ;
299 -> 300 ;
301 [label="v_17 <= 48.5\ngini = 0.44\nsamples = 3\nvalue = [1, 0, 2]\nclass = 2", fillcolor="#c09cf2"] ;
300 -> 301 ;
302 [label="gini = 0.0\nsamples = 1\nvalue = [1, 0, 0]\nclass = 0", fillcolor="#e58139"] ;
301 -> 302 ;
303 [label="gini = 0.0\nsamples = 2\nvalue = [0, 0, 2]\nclass = 2", fillcolor="#8139e5"] ;
301 -> 303 ;
304 [label="gini = 0.0\nsamples = 1\nvalue = [0, 1, 0]\nclass = 1", fillcolor="#39e581"] ;
300 -> 304 ;
305 [label="v_17 <= 51.5\ngini = 0.41\nsamples = 16\nvalue = [12, 2, 2]\nclass = 0", fillcolor="#eca572"] ;
299 -> 305 ;
306 [label="v_22 <= 23.71\ngini = 0.48\nsamples = 5\nvalue = [3, 2, 0]\nclass = 0", fillcolor="#f6d5bd"] ;
305 -> 306 ;
307 [label="gini = 0.0\nsamples = 2\nvalue = [2, 0, 0]\nclass = 0", fillcolor="#e58139"] ;
306 -> 307 ;
308 [label="v_29 <= 18.1\ngini = 0.44\nsamples = 3\nvalue = [1, 2, 0]\nclass = 1", fillcolor="#9cf2c0"] ;
306 -> 308 ;
309 [label="gini = 0.0\nsamples = 2\nvalue = [0, 2, 0]\nclass = 1", fillcolor="#39e581"] ;
308 -> 309 ;
310 [label="gini = 0.0\nsamples = 1\nvalue = [1, 0, 0]\nclass = 0", fillcolor="#e58139"] ;
308 -> 310 ;
311 [label="v_31 <= 27.5\ngini = 0.3\nsamples = 11\nvalue = [9, 0, 2]\nclass = 0", fillcolor="#eb9d65"] ;
305 -> 311 ;
312 [label="gini = 0.0\nsamples = 7\nvalue = [7, 0, 0]\nclass = 0", fillcolor="#e58139"] ;
311 -> 312 ;
313 [label="v_17 <= 52.5\ngini = 0.5\nsamples = 4\nvalue = [2, 0, 2]\nclass = 0", fillcolor="#ffffff"] ;
311 -> 313 ;
314 [label="gini = 0.0\nsamples = 1\nvalue = [0, 0, 1]\nclass = 2", fillcolor="#8139e5"] ;
313 -> 314 ;
315 [label="v_5 <= 43.5\ngini = 0.44\nsamples = 3\nvalue = [2, 0, 1]\nclass = 0", fillcolor="#f2c09c"] ;
313 -> 315 ;
316 [label="gini = 0.0\nsamples = 2\nvalue = [2, 0, 0]\nclass = 0", fillcolor="#e58139"] ;
315 -> 316 ;
317 [label="gini = 0.0\nsamples = 1\nvalue = [0, 0, 1]\nclass = 2", fillcolor="#8139e5"] ;
315 -> 317 ;
318 [label="v_17 <= 48.5\ngini = 0.41\nsamples = 7\nvalue = [2, 0, 5]\nclass = 2", fillcolor="#b388ef"] ;
298 -> 318 ;
319 [label="gini = 0.0\nsamples = 1\nvalue = [1, 0, 0]\nclass = 0", fillcolor="#e58139"] ;
318 -> 319 ;
320 [label="v_29 <= 18.62\ngini = 0.28\nsamples = 6\nvalue = [1, 0, 5]\nclass = 2", fillcolor="#9a61ea"] ;
318 -> 320 ;
321 [label="gini = 0.0\nsamples = 5\nvalue = [0, 0, 5]\nclass = 2", fillcolor="#8139e5"] ;
320 -> 321 ;
322 [label="gini = 0.0\nsamples = 1\nvalue = [1, 0, 0]\nclass = 0", fillcolor="#e58139"] ;
320 -> 322 ;
323 [label="v_15 <= 10.5\ngini = 0.18\nsamples = 10\nvalue = [1, 0, 9]\nclass = 2", fillcolor="#8f4fe8"] ;
277 -> 323 ;
324 [label="v_31 <= 32.0\ngini = 0.38\nsamples = 4\nvalue = [1, 0, 3]\nclass = 2", fillcolor="#ab7bee"] ;
323 -> 324 ;
325 [label="gini = 0.0\nsamples = 3\nvalue = [0, 0, 3]\nclass = 2", fillcolor="#8139e5"] ;
324 -> 325 ;
326 [label="gini = 0.0\nsamples = 1\nvalue = [1, 0, 0]\nclass = 0", fillcolor="#e58139"] ;
324 -> 326 ;
327 [label="gini = 0.0\nsamples = 6\nvalue = [0, 0, 6]\nclass = 2", fillcolor="#8139e5"] ;
323 -> 327 ;
328 [label="v_15 <= 13.5\ngini = 0.2\nsamples = 9\nvalue = [8, 0, 1]\nclass = 0", fillcolor="#e89152"] ;
274 -> 328 ;
329 [label="gini = 0.0\nsamples = 3\nvalue = [3, 0, 0]\nclass = 0", fillcolor="#e58139"] ;
328 -> 329 ;
330 [label="v_31 <= 27.5\ngini = 0.28\nsamples = 6\nvalue = [5, 0, 1]\nclass = 0", fillcolor="#ea9a61"] ;
328 -> 330 ;
331 [label="gini = 0.0\nsamples = 2\nvalue = [2, 0, 0]\nclass = 0", fillcolor="#e58139"] ;
330 -> 331 ;
332 [label="v_22 <= 23.5\ngini = 0.38\nsamples = 4\nvalue = [3, 0, 1]\nclass = 0", fillcolor="#eeab7b"] ;
330 -> 332 ;
333 [label="gini = 0.0\nsamples = 1\nvalue = [0, 0, 1]\nclass = 2", fillcolor="#8139e5"] ;
332 -> 333 ;
334 [label="gini = 0.0\nsamples = 3\nvalue = [3, 0, 0]\nclass = 0", fillcolor="#e58139"] ;
332 -> 334 ;
335 [label="v_15 <= 10.5\ngini = 0.54\nsamples = 79\nvalue = [16, 14, 49]\nclass = 2", fillcolor="#bd97f1"] ;
273 -> 335 ;
336 [label="v_19 <= 26.5\ngini = 0.41\nsamples = 51\nvalue = [8, 5, 38]\nclass = 2", fillcolor="#a775ed"] ;
335 -> 336 ;
337 [label="v_13 <= 19.5\ngini = 0.39\nsamples = 50\nvalue = [7, 5, 38]\nclass = 2", fillcolor="#a470ec"] ;
336 -> 337 ;
338 [label="v_17 <= 50.5\ngini = 0.37\nsamples = 49\nvalue = [6, 5, 38]\nclass = 2", fillcolor="#a16cec"] ;
337 -> 338 ;
339 [label="v_22 <= 26.48\ngini = 0.55\nsamples = 23\nvalue = [5, 4, 14]\nclass = 2", fillcolor="#c09cf2"] ;
338 -> 339 ;
340 [label="v_13 <= 14.5\ngini = 0.5\nsamples = 21\nvalue = [3, 4, 14]\nclass = 2", fillcolor="#b58bf0"] ;
339 -> 340 ;
341 [label="v_17 <= 47.5\ngini = 0.43\nsamples = 15\nvalue = [2, 2, 11]\nclass = 2", fillcolor="#a876ed"] ;
340 -> 341 ;
342 [label="gini = 0.0\nsamples = 1\nvalue = [0, 1, 0]\nclass = 1", fillcolor="#39e581"] ;
341 -> 342 ;
343 [label="v_17 <= 48.5\ngini = 0.36\nsamples = 14\nvalue = [2, 1, 11]\nclass = 2", fillcolor="#a06bec"] ;
341 -> 343 ;
344 [label="gini = 0.0\nsamples = 7\nvalue = [0, 0, 7]\nclass = 2", fillcolor="#8139e5"] ;
343 -> 344 ;
345 [label="v_19 <= 23.5\ngini = 0.57\nsamples = 7\nvalue = [2, 1, 4]\nclass = 2", fillcolor="#cdb0f5"] ;
343 -> 345 ;
346 [label="v_31 <= 27.0\ngini = 0.5\nsamples = 6\nvalue = [1, 1, 4]\nclass = 2", fillcolor="#b388ef"] ;
345 -> 346 ;
347 [label="gini = 0.0\nsamples = 2\nvalue = [0, 0, 2]\nclass = 2", fillcolor="#8139e5"] ;
346 -> 347 ;
348 [label="v_31 <= 28.5\ngini = 0.62\nsamples = 4\nvalue = [1, 1, 2]\nclass = 2", fillcolor="#d5bdf6"] ;
346 -> 348 ;
349 [label="v_17 <= 49.5\ngini = 0.5\nsamples = 2\nvalue = [1, 1, 0]\nclass = 0", fillcolor="#ffffff"] ;
348 -> 349 ;
350 [label="gini = 0.0\nsamples = 1\nvalue = [0, 1, 0]\nclass = 1", fillcolor="#39e581"] ;
349 -> 350 ;
351 [label="gini = 0.0\nsamples = 1\nvalue = [1, 0, 0]\nclass = 0", fillcolor="#e58139"] ;
349 -> 351 ;
352 [label="gini = 0.0\nsamples = 2\nvalue = [0, 0, 2]\nclass = 2", fillcolor="#8139e5"] ;
348 -> 352 ;
353 [label="gini = 0.0\nsamples = 1\nvalue = [1, 0, 0]\nclass = 0", fillcolor="#e58139"] ;
345 -> 353 ;
354 [label="v_5 <= 46.0\ngini = 0.61\nsamples = 6\nvalue = [1, 2, 3]\nclass = 2", fillcolor="#e0cef8"] ;
340 -> 354 ;
355 [label="v_31 <= 31.5\ngini = 0.38\nsamples = 4\nvalue = [1, 0, 3]\nclass = 2", fillcolor="#ab7bee"] ;
354 -> 355 ;
356 [label="v_6 <= 10.5\ngini = 0.5\nsamples = 2\nvalue = [1, 0, 1]\nclass = 0", fillcolor="#ffffff"] ;
355 -> 356 ;
357 [label="gini = 0.0\nsamples = 1\nvalue = [0, 0, 1]\nclass = 2", fillcolor="#8139e5"] ;
356 -> 357 ;
358 [label="gini = 0.0\nsamples = 1\nvalue = [1, 0, 0]\nclass = 0", fillcolor="#e58139"] ;
356 -> 358 ;
359 [label="gini = 0.0\nsamples = 2\nvalue = [0, 0, 2]\nclass = 2", fillcolor="#8139e5"] ;
355 -> 359 ;
360 [label="gini = 0.0\nsamples = 2\nvalue = [0, 2, 0]\nclass = 1", fillcolor="#39e581"] ;
354 -> 360 ;
361 [label="gini = 0.0\nsamples = 2\nvalue = [2, 0, 0]\nclass = 0", fillcolor="#e58139"] ;
339 -> 361 ;
362 [label="v_6 <= 10.5\ngini = 0.14\nsamples = 26\nvalue = [1, 1, 24]\nclass = 2", fillcolor="#8b49e7"] ;
338 -> 362 ;
363 [label="gini = 0.0\nsamples = 10\nvalue = [0, 0, 10]\nclass = 2", fillcolor="#8139e5"] ;
362 -> 363 ;
364 [label="v_31 <= 27.5\ngini = 0.23\nsamples = 16\nvalue = [1, 1, 14]\nclass = 2", fillcolor="#9253e8"] ;
362 -> 364 ;
365 [label="v_31 <= 26.5\ngini = 0.67\nsamples = 3\nvalue = [1, 1, 1]\nclass = 0", fillcolor="#ffffff"] ;
364 -> 365 ;
366 [label="v_23 <= 3.5\ngini = 0.5\nsamples = 2\nvalue = [0, 1, 1]\nclass = 1", fillcolor="#ffffff"] ;
365 -> 366 ;
367 [label="gini = 0.0\nsamples = 1\nvalue = [0, 1, 0]\nclass = 1", fillcolor="#39e581"] ;
366 -> 367 ;
368 [label="gini = 0.0\nsamples = 1\nvalue = [0, 0, 1]\nclass = 2", fillcolor="#8139e5"] ;
366 -> 368 ;
369 [label="gini = 0.0\nsamples = 1\nvalue = [1, 0, 0]\nclass = 0", fillcolor="#e58139"] ;
365 -> 369 ;
370 [label="gini = 0.0\nsamples = 13\nvalue = [0, 0, 13]\nclass = 2", fillcolor="#8139e5"] ;
364 -> 370 ;
371 [label="gini = 0.0\nsamples = 1\nvalue = [1, 0, 0]\nclass = 0", fillcolor="#e58139"] ;
337 -> 371 ;
372 [label="gini = 0.0\nsamples = 1\nvalue = [1, 0, 0]\nclass = 0", fillcolor="#e58139"] ;
336 -> 372 ;
373 [label="v_22 <= 24.83\ngini = 0.66\nsamples = 28\nvalue = [8, 9, 11]\nclass = 2", fillcolor="#f2eafc"] ;
335 -> 373 ;
374 [label="v_15 <= 12.5\ngini = 0.57\nsamples = 18\nvalue = [6, 2, 10]\nclass = 2", fillcolor="#d5bdf6"] ;
373 -> 374 ;
375 [label="v_31 <= 26.5\ngini = 0.6\nsamples = 11\nvalue = [6, 2, 3]\nclass = 0", fillcolor="#f5d0b5"] ;
374 -> 375 ;
376 [label="v_29 <= 18.08\ngini = 0.44\nsamples = 3\nvalue = [0, 2, 1]\nclass = 1", fillcolor="#9cf2c0"] ;
375 -> 376 ;
377 [label="gini = 0.0\nsamples = 1\nvalue = [0, 0, 1]\nclass = 2", fillcolor="#8139e5"] ;
376 -> 377 ;
378 [label="gini = 0.0\nsamples = 2\nvalue = [0, 2, 0]\nclass = 1", fillcolor="#39e581"] ;
376 -> 378 ;
379 [label="v_5 <= 38.5\ngini = 0.38\nsamples = 8\nvalue = [6, 0, 2]\nclass = 0", fillcolor="#eeab7b"] ;
375 -> 379 ;
380 [label="gini = 0.0\nsamples = 1\nvalue = [0, 0, 1]\nclass = 2", fillcolor="#8139e5"] ;
379 -> 380 ;
381 [label="v_22 <= 24.0\ngini = 0.24\nsamples = 7\nvalue = [6, 0, 1]\nclass = 0", fillcolor="#e9965a"] ;
379 -> 381 ;
382 [label="gini = 0.0\nsamples = 5\nvalue = [5, 0, 0]\nclass = 0", fillcolor="#e58139"] ;
381 -> 382 ;
383 [label="v_31 <= 29.5\ngini = 0.5\nsamples = 2\nvalue = [1, 0, 1]\nclass = 0", fillcolor="#ffffff"] ;
381 -> 383 ;
384 [label="gini = 0.0\nsamples = 1\nvalue = [0, 0, 1]\nclass = 2", fillcolor="#8139e5"] ;
383 -> 384 ;
385 [label="gini = 0.0\nsamples = 1\nvalue = [1, 0, 0]\nclass = 0", fillcolor="#e58139"] ;
383 -> 385 ;
386 [label="gini = 0.0\nsamples = 7\nvalue = [0, 0, 7]\nclass = 2", fillcolor="#8139e5"] ;
374 -> 386 ;
387 [label="v_17 <= 48.5\ngini = 0.46\nsamples = 10\nvalue = [2, 7, 1]\nclass = 1", fillcolor="#83efb0"] ;
373 -> 387 ;
388 [label="gini = 0.0\nsamples = 4\nvalue = [0, 4, 0]\nclass = 1", fillcolor="#39e581"] ;
387 -> 388 ;
389 [label="v_17 <= 50.5\ngini = 0.61\nsamples = 6\nvalue = [2, 3, 1]\nclass = 1", fillcolor="#cef8e0"] ;
387 -> 389 ;
390 [label="v_31 <= 27.0\ngini = 0.5\nsamples = 2\nvalue = [1, 0, 1]\nclass = 0", fillcolor="#ffffff"] ;
389 -> 390 ;
391 [label="gini = 0.0\nsamples = 1\nvalue = [1, 0, 0]\nclass = 0", fillcolor="#e58139"] ;
390 -> 391 ;
392 [label="gini = 0.0\nsamples = 1\nvalue = [0, 0, 1]\nclass = 2", fillcolor="#8139e5"] ;
390 -> 392 ;
393 [label="v_5 <= 46.0\ngini = 0.38\nsamples = 4\nvalue = [1, 3, 0]\nclass = 1", fillcolor="#7beeab"] ;
389 -> 393 ;
394 [label="gini = 0.0\nsamples = 3\nvalue = [0, 3, 0]\nclass = 1", fillcolor="#39e581"] ;
393 -> 394 ;
395 [label="gini = 0.0\nsamples = 1\nvalue = [1, 0, 0]\nclass = 0", fillcolor="#e58139"] ;
393 -> 395 ;
396 [label="gini = 0.0\nsamples = 6\nvalue = [6, 0, 0]\nclass = 0", fillcolor="#e58139"] ;
272 -> 396 ;
397 [label="v_10 <= 24.5\ngini = 0.49\nsamples = 153\nvalue = [101, 13, 39]\nclass = 0", fillcolor="#f1ba93"] ;
157 -> 397 ;
398 [label="v_19 <= 21.5\ngini = 0.59\nsamples = 54\nvalue = [26, 6, 22]\nclass = 0", fillcolor="#fcefe6"] ;
397 -> 398 ;
399 [label="v_6 <= 10.5\ngini = 0.5\nsamples = 33\nvalue = [21, 2, 10]\nclass = 0", fillcolor="#f3c3a0"] ;
398 -> 399 ;
400 [label="v_29 <= 17.38\ngini = 0.11\nsamples = 17\nvalue = [16, 0, 1]\nclass = 0", fillcolor="#e78945"] ;
399 -> 400 ;
401 [label="v_5 <= 40.5\ngini = 0.22\nsamples = 8\nvalue = [7, 0, 1]\nclass = 0", fillcolor="#e99355"] ;
400 -> 401 ;
402 [label="gini = 0.0\nsamples = 7\nvalue = [7, 0, 0]\nclass = 0", fillcolor="#e58139"] ;
401 -> 402 ;
403 [label="gini = 0.0\nsamples = 1\nvalue = [0, 0, 1]\nclass = 2", fillcolor="#8139e5"] ;
401 -> 403 ;
404 [label="gini = 0.0\nsamples = 9\nvalue = [9, 0, 0]\nclass = 0", fillcolor="#e58139"] ;
400 -> 404 ;
405 [label="v_22 <= 23.83\ngini = 0.57\nsamples = 16\nvalue = [5, 2, 9]\nclass = 2", fillcolor="#d1b7f6"] ;
399 -> 405 ;
406 [label="gini = 0.0\nsamples = 3\nvalue = [3, 0, 0]\nclass = 0", fillcolor="#e58139"] ;
405 -> 406 ;
407 [label="v_31 <= 39.0\ngini = 0.47\nsamples = 13\nvalue = [2, 2, 9]\nclass = 2", fillcolor="#af81ee"] ;
405 -> 407 ;
408 [label="v_29 <= 18.62\ngini = 0.5\nsamples = 2\nvalue = [1, 1, 0]\nclass = 0", fillcolor="#ffffff"] ;
407 -> 408 ;
409 [label="gini = 0.0\nsamples = 1\nvalue = [0, 1, 0]\nclass = 1", fillcolor="#39e581"] ;
408 -> 409 ;
410 [label="gini = 0.0\nsamples = 1\nvalue = [1, 0, 0]\nclass = 0", fillcolor="#e58139"] ;
408 -> 410 ;
411 [label="v_19 <= 20.5\ngini = 0.31\nsamples = 11\nvalue = [1, 1, 9]\nclass = 2", fillcolor="#9a61ea"] ;
407 -> 411 ;
412 [label="gini = 0.0\nsamples = 7\nvalue = [0, 0, 7]\nclass = 2", fillcolor="#8139e5"] ;
411 -> 412 ;
413 [label="v_5 <= 40.5\ngini = 0.62\nsamples = 4\nvalue = [1, 1, 2]\nclass = 2", fillcolor="#d5bdf6"] ;
411 -> 413 ;
414 [label="v_5 <= 39.0\ngini = 0.5\nsamples = 2\nvalue = [1, 1, 0]\nclass = 0", fillcolor="#ffffff"] ;
413 -> 414 ;
415 [label="gini = 0.0\nsamples = 1\nvalue = [0, 1, 0]\nclass = 1", fillcolor="#39e581"] ;
414 -> 415 ;
416 [label="gini = 0.0\nsamples = 1\nvalue = [1, 0, 0]\nclass = 0", fillcolor="#e58139"] ;
414 -> 416 ;
417 [label="gini = 0.0\nsamples = 2\nvalue = [0, 0, 2]\nclass = 2", fillcolor="#8139e5"] ;
413 -> 417 ;
418 [label="v_29 <= 20.62\ngini = 0.58\nsamples = 21\nvalue = [5, 4, 12]\nclass = 2", fillcolor="#c8a8f4"] ;
398 -> 418 ;
419 [label="v_19 <= 22.5\ngini = 0.49\nsamples = 18\nvalue = [2, 4, 12]\nclass = 2", fillcolor="#b78ef0"] ;
418 -> 419 ;
420 [label="v_0 <= 13.5\ngini = 0.41\nsamples = 16\nvalue = [2, 2, 12]\nclass = 2", fillcolor="#a572ec"] ;
419 -> 420 ;
421 [label="v_31 <= 41.5\ngini = 0.24\nsamples = 14\nvalue = [2, 0, 12]\nclass = 2", fillcolor="#965ae9"] ;
420 -> 421 ;
422 [label="gini = 0.0\nsamples = 7\nvalue = [0, 0, 7]\nclass = 2", fillcolor="#8139e5"] ;
421 -> 422 ;
423 [label="v_6 <= 11.5\ngini = 0.41\nsamples = 7\nvalue = [2, 0, 5]\nclass = 2", fillcolor="#b388ef"] ;
421 -> 423 ;
424 [label="v_6 <= 9.5\ngini = 0.44\nsamples = 3\nvalue = [2, 0, 1]\nclass = 0", fillcolor="#f2c09c"] ;
423 -> 424 ;
425 [label="gini = 0.0\nsamples = 1\nvalue = [1, 0, 0]\nclass = 0", fillcolor="#e58139"] ;
424 -> 425 ;
426 [label="v_22 <= 25.33\ngini = 0.5\nsamples = 2\nvalue = [1, 0, 1]\nclass = 0", fillcolor="#ffffff"] ;
424 -> 426 ;
427 [label="gini = 0.0\nsamples = 1\nvalue = [0, 0, 1]\nclass = 2", fillcolor="#8139e5"] ;
426 -> 427 ;
428 [label="gini = 0.0\nsamples = 1\nvalue = [1, 0, 0]\nclass = 0", fillcolor="#e58139"] ;
426 -> 428 ;
429 [label="gini = 0.0\nsamples = 4\nvalue = [0, 0, 4]\nclass = 2", fillcolor="#8139e5"] ;
423 -> 429 ;
430 [label="gini = 0.0\nsamples = 2\nvalue = [0, 2, 0]\nclass = 1", fillcolor="#39e581"] ;
420 -> 430 ;
431 [label="gini = 0.0\nsamples = 2\nvalue = [0, 2, 0]\nclass = 1", fillcolor="#39e581"] ;
419 -> 431 ;
432 [label="gini = 0.0\nsamples = 3\nvalue = [3, 0, 0]\nclass = 0", fillcolor="#e58139"] ;
418 -> 432 ;
433 [label="v_22 <= 31.23\ngini = 0.39\nsamples = 99\nvalue = [75, 7, 17]\nclass = 0", fillcolor="#eda673"] ;
397 -> 433 ;
434 [label="v_5 <= 47.5\ngini = 0.35\nsamples = 95\nvalue = [75, 7, 13]\nclass = 0", fillcolor="#eba069"] ;
433 -> 434 ;
435 [label="v_24 <= 18.5\ngini = 0.27\nsamples = 79\nvalue = [67, 7, 5]\nclass = 0", fillcolor="#e9965a"] ;
434 -> 435 ;
436 [label="v_31 <= 64.0\ngini = 0.19\nsamples = 69\nvalue = [62, 2, 5]\nclass = 0", fillcolor="#e88f4f"] ;
435 -> 436 ;
437 [label="v_22 <= 29.25\ngini = 0.16\nsamples = 68\nvalue = [62, 1, 5]\nclass = 0", fillcolor="#e78d4c"] ;
436 -> 437 ;
438 [label="v_29 <= 16.71\ngini = 0.14\nsamples = 67\nvalue = [62, 1, 4]\nclass = 0", fillcolor="#e78b49"] ;
437 -> 438 ;
439 [label="gini = 0.0\nsamples = 2\nvalue = [0, 0, 2]\nclass = 2", fillcolor="#8139e5"] ;
438 -> 439 ;
440 [label="v_29 <= 18.17\ngini = 0.09\nsamples = 65\nvalue = [62, 1, 2]\nclass = 0", fillcolor="#e68742"] ;
438 -> 440 ;
441 [label="gini = 0.0\nsamples = 41\nvalue = [41, 0, 0]\nclass = 0", fillcolor="#e58139"] ;
440 -> 441 ;
442 [label="v_31 <= 34.5\ngini = 0.23\nsamples = 24\nvalue = [21, 1, 2]\nclass = 0", fillcolor="#e99254"] ;
440 -> 442 ;
443 [label="gini = 0.0\nsamples = 1\nvalue = [0, 0, 1]\nclass = 2", fillcolor="#8139e5"] ;
442 -> 443 ;
444 [label="v_22 <= 13.5\ngini = 0.16\nsamples = 23\nvalue = [21, 1, 1]\nclass = 0", fillcolor="#e78c4b"] ;
442 -> 444 ;
445 [label="v_5 <= 39.5\ngini = 0.28\nsamples = 6\nvalue = [5, 0, 1]\nclass = 0", fillcolor="#ea9a61"] ;
444 -> 445 ;
446 [label="gini = 0.0\nsamples = 4\nvalue = [4, 0, 0]\nclass = 0", fillcolor="#e58139"] ;
445 -> 446 ;
447 [label="v_31 <= 38.5\ngini = 0.5\nsamples = 2\nvalue = [1, 0, 1]\nclass = 0", fillcolor="#ffffff"] ;
445 -> 447 ;
448 [label="gini = 0.0\nsamples = 1\nvalue = [1, 0, 0]\nclass = 0", fillcolor="#e58139"] ;
447 -> 448 ;
449 [label="gini = 0.0\nsamples = 1\nvalue = [0, 0, 1]\nclass = 2", fillcolor="#8139e5"] ;
447 -> 449 ;
450 [label="v_5 <= 42.5\ngini = 0.11\nsamples = 17\nvalue = [16, 1, 0]\nclass = 0", fillcolor="#e78945"] ;
444 -> 450 ;
451 [label="v_29 <= 18.6\ngini = 0.32\nsamples = 5\nvalue = [4, 1, 0]\nclass = 0", fillcolor="#eca06a"] ;
450 -> 451 ;
452 [label="gini = 0.0\nsamples = 1\nvalue = [0, 1, 0]\nclass = 1", fillcolor="#39e581"] ;
451 -> 452 ;
453 [label="gini = 0.0\nsamples = 4\nvalue = [4, 0, 0]\nclass = 0", fillcolor="#e58139"] ;
451 -> 453 ;
454 [label="gini = 0.0\nsamples = 12\nvalue = [12, 0, 0]\nclass = 0", fillcolor="#e58139"] ;
450 -> 454 ;
455 [label="gini = 0.0\nsamples = 1\nvalue = [0, 0, 1]\nclass = 2", fillcolor="#8139e5"] ;
437 -> 455 ;
456 [label="gini = 0.0\nsamples = 1\nvalue = [0, 1, 0]\nclass = 1", fillcolor="#39e581"] ;
436 -> 456 ;
457 [label="v_15 <= 12.0\ngini = 0.5\nsamples = 10\nvalue = [5, 5, 0]\nclass = 0", fillcolor="#ffffff"] ;
435 -> 457 ;
458 [label="v_22 <= 26.75\ngini = 0.28\nsamples = 6\nvalue = [1, 5, 0]\nclass = 1", fillcolor="#61ea9a"] ;
457 -> 458 ;
459 [label="gini = 0.0\nsamples = 5\nvalue = [0, 5, 0]\nclass = 1", fillcolor="#39e581"] ;
458 -> 459 ;
460 [label="gini = 0.0\nsamples = 1\nvalue = [1, 0, 0]\nclass = 0", fillcolor="#e58139"] ;
458 -> 460 ;
461 [label="gini = 0.0\nsamples = 4\nvalue = [4, 0, 0]\nclass = 0", fillcolor="#e58139"] ;
457 -> 461 ;
462 [label="v_31 <= 36.5\ngini = 0.5\nsamples = 16\nvalue = [8, 0, 8]\nclass = 0", fillcolor="#ffffff"] ;
434 -> 462 ;
463 [label="gini = 0.0\nsamples = 6\nvalue = [0, 0, 6]\nclass = 2", fillcolor="#8139e5"] ;
462 -> 463 ;
464 [label="v_17 <= 53.5\ngini = 0.32\nsamples = 10\nvalue = [8, 0, 2]\nclass = 0", fillcolor="#eca06a"] ;
462 -> 464 ;
465 [label="gini = 0.0\nsamples = 2\nvalue = [0, 0, 2]\nclass = 2", fillcolor="#8139e5"] ;
464 -> 465 ;
466 [label="gini = 0.0\nsamples = 8\nvalue = [8, 0, 0]\nclass = 0", fillcolor="#e58139"] ;
464 -> 466 ;
467 [label="gini = 0.0\nsamples = 4\nvalue = [0, 0, 4]\nclass = 2", fillcolor="#8139e5"] ;
433 -> 467 ;
468 [label="v_23 <= 3.5\ngini = 0.59\nsamples = 1137\nvalue = [162, 615, 360]\nclass = 1", fillcolor="#bef6d6"] ;
156 -> 468 ;
469 [label="v_22 <= 25.83\ngini = 0.53\nsamples = 814\nvalue = [79, 498, 237]\nclass = 1", fillcolor="#a5f3c6"] ;
468 -> 469 ;
470 [label="v_19 <= 23.5\ngini = 0.6\nsamples = 391\nvalue = [48, 187, 156]\nclass = 1", fillcolor="#e5fcee"] ;
469 -> 470 ;
471 [label="v_5 <= 36.5\ngini = 0.6\nsamples = 158\nvalue = [21, 57, 80]\nclass = 2", fillcolor="#e2d2f9"] ;
470 -> 471 ;
472 [label="v_19 <= 22.5\ngini = 0.28\nsamples = 12\nvalue = [0, 10, 2]\nclass = 1", fillcolor="#61ea9a"] ;
471 -> 472 ;
473 [label="gini = 0.0\nsamples = 3\nvalue = [0, 3, 0]\nclass = 1", fillcolor="#39e581"] ;
472 -> 473 ;
474 [label="v_29 <= 18.5\ngini = 0.35\nsamples = 9\nvalue = [0, 7, 2]\nclass = 1", fillcolor="#72eca5"] ;
472 -> 474 ;
475 [label="v_29 <= 17.8\ngini = 0.48\nsamples = 5\nvalue = [0, 3, 2]\nclass = 1", fillcolor="#bdf6d5"] ;
474 -> 475 ;
476 [label="gini = 0.0\nsamples = 3\nvalue = [0, 3, 0]\nclass = 1", fillcolor="#39e581"] ;
475 -> 476 ;
477 [label="gini = 0.0\nsamples = 2\nvalue = [0, 0, 2]\nclass = 2", fillcolor="#8139e5"] ;
475 -> 477 ;
478 [label="gini = 0.0\nsamples = 4\nvalue = [0, 4, 0]\nclass = 1", fillcolor="#39e581"] ;
474 -> 478 ;
479 [label="v_22 <= 25.41\ngini = 0.59\nsamples = 146\nvalue = [21, 47, 78]\nclass = 2", fillcolor="#d8c1f7"] ;
471 -> 479 ;
480 [label="v_22 <= 25.16\ngini = 0.6\nsamples = 122\nvalue = [17, 45, 60]\nclass = 2", fillcolor="#e6d8fa"] ;
479 -> 480 ;
481 [label="v_33 <= 28.5\ngini = 0.59\nsamples = 102\nvalue = [14, 33, 55]\nclass = 2", fillcolor="#d7c0f7"] ;
480 -> 481 ;
482 [label="v_19 <= 22.5\ngini = 0.5\nsamples = 24\nvalue = [1, 15, 8]\nclass = 1", fillcolor="#a8f4c8"] ;
481 -> 482 ;
483 [label="v_5 <= 38.5\ngini = 0.24\nsamples = 7\nvalue = [0, 1, 6]\nclass = 2", fillcolor="#965ae9"] ;
482 -> 483 ;
484 [label="v_31 <= 35.5\ngini = 0.44\nsamples = 3\nvalue = [0, 1, 2]\nclass = 2", fillcolor="#c09cf2"] ;
483 -> 484 ;
485 [label="gini = 0.0\nsamples = 1\nvalue = [0, 1, 0]\nclass = 1", fillcolor="#39e581"] ;
484 -> 485 ;
486 [label="gini = 0.0\nsamples = 2\nvalue = [0, 0, 2]\nclass = 2", fillcolor="#8139e5"] ;
484 -> 486 ;
487 [label="gini = 0.0\nsamples = 4\nvalue = [0, 0, 4]\nclass = 2", fillcolor="#8139e5"] ;
483 -> 487 ;
488 [label="v_17 <= 49.5\ngini = 0.3\nsamples = 17\nvalue = [1, 14, 2]\nclass = 1", fillcolor="#61ea9a"] ;
482 -> 488 ;
489 [label="gini = 0.0\nsamples = 11\nvalue = [0, 11, 0]\nclass = 1", fillcolor="#39e581"] ;
488 -> 489 ;
490 [label="v_22 <= 25.06\ngini = 0.61\nsamples = 6\nvalue = [1, 3, 2]\nclass = 1", fillcolor="#cef8e0"] ;
488 -> 490 ;
491 [label="v_31 <= 38.5\ngini = 0.38\nsamples = 4\nvalue = [1, 3, 0]\nclass = 1", fillcolor="#7beeab"] ;
490 -> 491 ;
492 [label="gini = 0.0\nsamples = 1\nvalue = [1, 0, 0]\nclass = 0", fillcolor="#e58139"] ;
491 -> 492 ;
493 [label="gini = 0.0\nsamples = 3\nvalue = [0, 3, 0]\nclass = 1", fillcolor="#39e581"] ;
491 -> 493 ;
494 [label="gini = 0.0\nsamples = 2\nvalue = [0, 0, 2]\nclass = 2", fillcolor="#8139e5"] ;
490 -> 494 ;
495 [label="v_10 <= 25.5\ngini = 0.56\nsamples = 78\nvalue = [13, 18, 47]\nclass = 2", fillcolor="#c29ff2"] ;
481 -> 495 ;
496 [label="v_29 <= 18.17\ngini = 0.57\nsamples = 66\nvalue = [10, 18, 38]\nclass = 2", fillcolor="#caacf4"] ;
495 -> 496 ;
497 [label="v_5 <= 41.5\ngini = 0.62\nsamples = 25\nvalue = [4, 11, 10]\nclass = 1", fillcolor="#f2fdf7"] ;
496 -> 497 ;
498 [label="v_29 <= 17.9\ngini = 0.64\nsamples = 13\nvalue = [4, 6, 3]\nclass = 1", fillcolor="#d3f9e3"] ;
497 -> 498 ;
499 [label="v_17 <= 49.5\ngini = 0.6\nsamples = 11\nvalue = [2, 6, 3]\nclass = 1", fillcolor="#b5f5d0"] ;
498 -> 499 ;
500 [label="v_5 <= 38.5\ngini = 0.5\nsamples = 4\nvalue = [2, 0, 2]\nclass = 0", fillcolor="#ffffff"] ;
499 -> 500 ;
501 [label="gini = 0.0\nsamples = 1\nvalue = [1, 0, 0]\nclass = 0", fillcolor="#e58139"] ;
500 -> 501 ;
502 [label="v_6 <= 13.5\ngini = 0.44\nsamples = 3\nvalue = [1, 0, 2]\nclass = 2", fillcolor="#c09cf2"] ;
500 -> 502 ;
503 [label="gini = 0.0\nsamples = 2\nvalue = [0, 0, 2]\nclass = 2", fillcolor="#8139e5"] ;
502 -> 503 ;
504 [label="gini = 0.0\nsamples = 1\nvalue = [1, 0, 0]\nclass = 0", fillcolor="#e58139"] ;
502 -> 504 ;
505 [label="v_22 <= 23.85\ngini = 0.24\nsamples = 7\nvalue = [0, 6, 1]\nclass = 1", fillcolor="#5ae996"] ;
499 -> 505 ;
506 [label="v_6 <= 13.5\ngini = 0.5\nsamples = 2\nvalue = [0, 1, 1]\nclass = 1", fillcolor="#ffffff"] ;
505 -> 506 ;
507 [label="gini = 0.0\nsamples = 1\nvalue = [0, 1, 0]\nclass = 1", fillcolor="#39e581"] ;
506 -> 507 ;
508 [label="gini = 0.0\nsamples = 1\nvalue = [0, 0, 1]\nclass = 2", fillcolor="#8139e5"] ;
506 -> 508 ;
509 [label="gini = 0.0\nsamples = 5\nvalue = [0, 5, 0]\nclass = 1", fillcolor="#39e581"] ;
505 -> 509 ;
510 [label="gini = 0.0\nsamples = 2\nvalue = [2, 0, 0]\nclass = 0", fillcolor="#e58139"] ;
498 -> 510 ;
511 [label="v_29 <= 18.07\ngini = 0.49\nsamples = 12\nvalue = [0, 5, 7]\nclass = 2", fillcolor="#dbc6f8"] ;
497 -> 511 ;
512 [label="v_31 <= 27.5\ngini = 0.42\nsamples = 10\nvalue = [0, 3, 7]\nclass = 2", fillcolor="#b78ef0"] ;
511 -> 512 ;
513 [label="v_6 <= 13.5\ngini = 0.44\nsamples = 3\nvalue = [0, 2, 1]\nclass = 1", fillcolor="#9cf2c0"] ;
512 -> 513 ;
514 [label="gini = 0.0\nsamples = 2\nvalue = [0, 2, 0]\nclass = 1", fillcolor="#39e581"] ;
513 -> 514 ;
515 [label="gini = 0.0\nsamples = 1\nvalue = [0, 0, 1]\nclass = 2", fillcolor="#8139e5"] ;
513 -> 515 ;
516 [label="v_5 <= 45.0\ngini = 0.24\nsamples = 7\nvalue = [0, 1, 6]\nclass = 2", fillcolor="#965ae9"] ;
512 -> 516 ;
517 [label="gini = 0.0\nsamples = 6\nvalue = [0, 0, 6]\nclass = 2", fillcolor="#8139e5"] ;
516 -> 517 ;
518 [label="gini = 0.0\nsamples = 1\nvalue = [0, 1, 0]\nclass = 1", fillcolor="#39e581"] ;
516 -> 518 ;
519 [label="gini = 0.0\nsamples = 2\nvalue = [0, 2, 0]\nclass = 1", fillcolor="#39e581"] ;
511 -> 519 ;
520 [label="v_15 <= 13.0\ngini = 0.48\nsamples = 41\nvalue = [6, 7, 28]\nclass = 2", fillcolor="#b185ef"] ;
496 -> 520 ;
521 [label="v_6 <= 13.5\ngini = 0.44\nsamples = 39\nvalue = [5, 6, 28]\nclass = 2", fillcolor="#ab7bee"] ;
520 -> 521 ;
522 [label="v_19 <= 21.5\ngini = 0.38\nsamples = 35\nvalue = [4, 4, 27]\nclass = 2", fillcolor="#a26cec"] ;
521 -> 522 ;
523 [label="gini = 0.0\nsamples = 2\nvalue = [2, 0, 0]\nclass = 0", fillcolor="#e58139"] ;
522 -> 523 ;
524 [label="v_22 <= 24.9\ngini = 0.31\nsamples = 33\nvalue = [2, 4, 27]\nclass = 2", fillcolor="#9b62ea"] ;
522 -> 524 ;
525 [label="v_29 <= 19.1\ngini = 0.23\nsamples = 30\nvalue = [0, 4, 26]\nclass = 2", fillcolor="#9457e9"] ;
524 -> 525 ;
526 [label="v_22 <= 24.7\ngini = 0.08\nsamples = 23\nvalue = [0, 1, 22]\nclass = 2", fillcolor="#8742e6"] ;
525 -> 526 ;
527 [label="gini = 0.0\nsamples = 13\nvalue = [0, 0, 13]\nclass = 2", fillcolor="#8139e5"] ;
526 -> 527 ;
528 [label="v_17 <= 49.0\ngini = 0.18\nsamples = 10\nvalue = [0, 1, 9]\nclass = 2", fillcolor="#8f4fe8"] ;
526 -> 528 ;
529 [label="gini = 0.0\nsamples = 5\nvalue = [0, 0, 5]\nclass = 2", fillcolor="#8139e5"] ;
528 -> 529 ;
530 [label="v_5 <= 39.5\ngini = 0.32\nsamples = 5\nvalue = [0, 1, 4]\nclass = 2", fillcolor="#a06aec"] ;
528 -> 530 ;
531 [label="gini = 0.0\nsamples = 1\nvalue = [0, 1, 0]\nclass = 1", fillcolor="#39e581"] ;
530 -> 531 ;
532 [label="gini = 0.0\nsamples = 4\nvalue = [0, 0, 4]\nclass = 2", fillcolor="#8139e5"] ;
530 -> 532 ;
533 [label="v_17 <= 52.0\ngini = 0.49\nsamples = 7\nvalue = [0, 3, 4]\nclass = 2", fillcolor="#e0cef8"] ;
525 -> 533 ;
534 [label="v_31 <= 29.0\ngini = 0.38\nsamples = 4\nvalue = [0, 3, 1]\nclass = 1", fillcolor="#7beeab"] ;
533 -> 534 ;
535 [label="gini = 0.0\nsamples = 3\nvalue = [0, 3, 0]\nclass = 1", fillcolor="#39e581"] ;
534 -> 535 ;
536 [label="gini = 0.0\nsamples = 1\nvalue = [0, 0, 1]\nclass = 2", fillcolor="#8139e5"] ;
534 -> 536 ;
537 [label="gini = 0.0\nsamples = 3\nvalue = [0, 0, 3]\nclass = 2", fillcolor="#8139e5"] ;
533 -> 537 ;
538 [label="v_15 <= 11.0\ngini = 0.44\nsamples = 3\nvalue = [2, 0, 1]\nclass = 0", fillcolor="#f2c09c"] ;
524 -> 538 ;
539 [label="gini = 0.0\nsamples = 2\nvalue = [2, 0, 0]\nclass = 0", fillcolor="#e58139"] ;
538 -> 539 ;
540 [label="gini = 0.0\nsamples = 1\nvalue = [0, 0, 1]\nclass = 2", fillcolor="#8139e5"] ;
538 -> 540 ;
541 [label="v_17 <= 49.5\ngini = 0.62\nsamples = 4\nvalue = [1, 2, 1]\nclass = 1", fillcolor="#bdf6d5"] ;
521 -> 541 ;
542 [label="gini = 0.0\nsamples = 2\nvalue = [0, 2, 0]\nclass = 1", fillcolor="#39e581"] ;
541 -> 542 ;
543 [label="v_5 <= 38.5\ngini = 0.5\nsamples = 2\nvalue = [1, 0, 1]\nclass = 0", fillcolor="#ffffff"] ;
541 -> 543 ;
544 [label="gini = 0.0\nsamples = 1\nvalue = [1, 0, 0]\nclass = 0", fillcolor="#e58139"] ;
543 -> 544 ;
545 [label="gini = 0.0\nsamples = 1\nvalue = [0, 0, 1]\nclass = 2", fillcolor="#8139e5"] ;
543 -> 545 ;
546 [label="v_19 <= 22.5\ngini = 0.5\nsamples = 2\nvalue = [1, 1, 0]\nclass = 0", fillcolor="#ffffff"] ;
520 -> 546 ;
547 [label="gini = 0.0\nsamples = 1\nvalue = [0, 1, 0]\nclass = 1", fillcolor="#39e581"] ;
546 -> 547 ;
548 [label="gini = 0.0\nsamples = 1\nvalue = [1, 0, 0]\nclass = 0", fillcolor="#e58139"] ;
546 -> 548 ;
549 [label="v_5 <= 45.0\ngini = 0.38\nsamples = 12\nvalue = [3, 0, 9]\nclass = 2", fillcolor="#ab7bee"] ;
495 -> 549 ;
550 [label="v_6 <= 13.5\ngini = 0.18\nsamples = 10\nvalue = [1, 0, 9]\nclass = 2", fillcolor="#8f4fe8"] ;
549 -> 550 ;
551 [label="gini = 0.0\nsamples = 5\nvalue = [0, 0, 5]\nclass = 2", fillcolor="#8139e5"] ;
550 -> 551 ;
552 [label="v_19 <= 22.5\ngini = 0.32\nsamples = 5\nvalue = [1, 0, 4]\nclass = 2", fillcolor="#a06aec"] ;
550 -> 552 ;
553 [label="gini = 0.0\nsamples = 1\nvalue = [1, 0, 0]\nclass = 0", fillcolor="#e58139"] ;
552 -> 553 ;
554 [label="gini = 0.0\nsamples = 4\nvalue = [0, 0, 4]\nclass = 2", fillcolor="#8139e5"] ;
552 -> 554 ;
555 [label="gini = 0.0\nsamples = 2\nvalue = [2, 0, 0]\nclass = 0", fillcolor="#e58139"] ;
549 -> 555 ;
556 [label="v_15 <= 14.5\ngini = 0.55\nsamples = 20\nvalue = [3, 12, 5]\nclass = 1", fillcolor="#a3f3c4"] ;
480 -> 556 ;
557 [label="v_33 <= 29.5\ngini = 0.48\nsamples = 18\nvalue = [1, 12, 5]\nclass = 1", fillcolor="#94f1bb"] ;
556 -> 557 ;
558 [label="v_15 <= 11.5\ngini = 0.32\nsamples = 15\nvalue = [0, 12, 3]\nclass = 1", fillcolor="#6aeca0"] ;
557 -> 558 ;
559 [label="gini = 0.0\nsamples = 11\nvalue = [0, 11, 0]\nclass = 1", fillcolor="#39e581"] ;
558 -> 559 ;
560 [label="v_15 <= 13.5\ngini = 0.38\nsamples = 4\nvalue = [0, 1, 3]\nclass = 2", fillcolor="#ab7bee"] ;
558 -> 560 ;
561 [label="gini = 0.0\nsamples = 3\nvalue = [0, 0, 3]\nclass = 2", fillcolor="#8139e5"] ;
560 -> 561 ;
562 [label="gini = 0.0\nsamples = 1\nvalue = [0, 1, 0]\nclass = 1", fillcolor="#39e581"] ;
560 -> 562 ;
563 [label="v_17 <= 54.0\ngini = 0.44\nsamples = 3\nvalue = [1, 0, 2]\nclass = 2", fillcolor="#c09cf2"] ;
557 -> 563 ;
564 [label="gini = 0.0\nsamples = 2\nvalue = [0, 0, 2]\nclass = 2", fillcolor="#8139e5"] ;
563 -> 564 ;
565 [label="gini = 0.0\nsamples = 1\nvalue = [1, 0, 0]\nclass = 0", fillcolor="#e58139"] ;
563 -> 565 ;
566 [label="gini = 0.0\nsamples = 2\nvalue = [2, 0, 0]\nclass = 0", fillcolor="#e58139"] ;
556 -> 566 ;
567 [label="v_22 <= 25.76\ngini = 0.4\nsamples = 24\nvalue = [4, 2, 18]\nclass = 2", fillcolor="#a774ed"] ;
479 -> 567 ;
568 [label="v_29 <= 18.7\ngini = 0.36\nsamples = 23\nvalue = [4, 1, 18]\nclass = 2", fillcolor="#a26dec"] ;
567 -> 568 ;
569 [label="v_31 <= 35.5\ngini = 0.52\nsamples = 13\nvalue = [4, 1, 8]\nclass = 2", fillcolor="#c7a7f3"] ;
568 -> 569 ;
570 [label="v_31 <= 26.5\ngini = 0.2\nsamples = 9\nvalue = [0, 1, 8]\nclass = 2", fillcolor="#9152e8"] ;
569 -> 570 ;
571 [label="v_33 <= 29.0\ngini = 0.44\nsamples = 3\nvalue = [0, 1, 2]\nclass = 2", fillcolor="#c09cf2"] ;
570 -> 571 ;
572 [label="gini = 0.0\nsamples = 1\nvalue = [0, 1, 0]\nclass = 1", fillcolor="#39e581"] ;
571 -> 572 ;
573 [label="gini = 0.0\nsamples = 2\nvalue = [0, 0, 2]\nclass = 2", fillcolor="#8139e5"] ;
571 -> 573 ;
574 [label="gini = 0.0\nsamples = 6\nvalue = [0, 0, 6]\nclass = 2", fillcolor="#8139e5"] ;
570 -> 574 ;
575 [label="gini = 0.0\nsamples = 4\nvalue = [4, 0, 0]\nclass = 0", fillcolor="#e58139"] ;
569 -> 575 ;
576 [label="gini = 0.0\nsamples = 10\nvalue = [0, 0, 10]\nclass = 2", fillcolor="#8139e5"] ;
568 -> 576 ;
577 [label="gini = 0.0\nsamples = 1\nvalue = [0, 1, 0]\nclass = 1", fillcolor="#39e581"] ;
567 -> 577 ;
578 [label="v_17 <= 49.5\ngini = 0.57\nsamples = 233\nvalue = [27, 130, 76]\nclass = 1", fillcolor="#bbf6d4"] ;
470 -> 578 ;
579 [label="v_31 <= 33.0\ngini = 0.48\nsamples = 115\nvalue = [10, 78, 27]\nclass = 1", fillcolor="#8cf0b6"] ;
578 -> 579 ;
580 [label="v_5 <= 39.5\ngini = 0.42\nsamples = 101\nvalue = [8, 74, 19]\nclass = 1", fillcolor="#7aeeaa"] ;
579 -> 580 ;
581 [label="v_22 <= 24.37\ngini = 0.36\nsamples = 78\nvalue = [7, 61, 10]\nclass = 1", fillcolor="#6aeca0"] ;
580 -> 581 ;
582 [label="v_17 <= 48.5\ngini = 0.43\nsamples = 13\nvalue = [4, 9, 0]\nclass = 1", fillcolor="#91f1b9"] ;
581 -> 582 ;
583 [label="v_13 <= 15.5\ngini = 0.49\nsamples = 9\nvalue = [4, 5, 0]\nclass = 1", fillcolor="#d7fae6"] ;
582 -> 583 ;
584 [label="v_15 <= 10.5\ngini = 0.5\nsamples = 8\nvalue = [4, 4, 0]\nclass = 0", fillcolor="#ffffff"] ;
583 -> 584 ;
585 [label="v_29 <= 17.2\ngini = 0.49\nsamples = 7\nvalue = [4, 3, 0]\nclass = 0", fillcolor="#f8e0ce"] ;
584 -> 585 ;
586 [label="gini = 0.0\nsamples = 3\nvalue = [0, 3, 0]\nclass = 1", fillcolor="#39e581"] ;
585 -> 586 ;
587 [label="gini = 0.0\nsamples = 4\nvalue = [4, 0, 0]\nclass = 0", fillcolor="#e58139"] ;
585 -> 587 ;
588 [label="gini = 0.0\nsamples = 1\nvalue = [0, 1, 0]\nclass = 1", fillcolor="#39e581"] ;
584 -> 588 ;
589 [label="gini = 0.0\nsamples = 1\nvalue = [0, 1, 0]\nclass = 1", fillcolor="#39e581"] ;
583 -> 589 ;
590 [label="gini = 0.0\nsamples = 4\nvalue = [0, 4, 0]\nclass = 1", fillcolor="#39e581"] ;
582 -> 590 ;
591 [label="v_22 <= 25.78\ngini = 0.33\nsamples = 65\nvalue = [3, 52, 10]\nclass = 1", fillcolor="#68eb9f"] ;
581 -> 591 ;
592 [label="v_22 <= 25.52\ngini = 0.3\nsamples = 62\nvalue = [2, 51, 9]\nclass = 1", fillcolor="#62ea9b"] ;
591 -> 592 ;
593 [label="v_33 <= 29.5\ngini = 0.36\nsamples = 49\nvalue = [2, 38, 9]\nclass = 1", fillcolor="#6feca4"] ;
592 -> 593 ;
594 [label="v_22 <= 25.46\ngini = 0.33\nsamples = 41\nvalue = [2, 33, 6]\nclass = 1", fillcolor="#66eb9e"] ;
593 -> 594 ;
595 [label="v_17 <= 47.5\ngini = 0.25\nsamples = 35\nvalue = [2, 30, 3]\nclass = 1", fillcolor="#58e995"] ;
594 -> 595 ;
596 [label="v_5 <= 38.5\ngini = 0.22\nsamples = 16\nvalue = [2, 14, 0]\nclass = 1", fillcolor="#55e993"] ;
595 -> 596 ;
597 [label="v_22 <= 24.92\ngini = 0.26\nsamples = 13\nvalue = [2, 11, 0]\nclass = 1", fillcolor="#5dea98"] ;
596 -> 597 ;
598 [label="v_22 <= 24.73\ngini = 0.5\nsamples = 4\nvalue = [2, 2, 0]\nclass = 0", fillcolor="#ffffff"] ;
597 -> 598 ;
599 [label="gini = 0.0\nsamples = 2\nvalue = [0, 2, 0]\nclass = 1", fillcolor="#39e581"] ;
598 -> 599 ;
600 [label="gini = 0.0\nsamples = 2\nvalue = [2, 0, 0]\nclass = 0", fillcolor="#e58139"] ;
598 -> 600 ;
601 [label="gini = 0.0\nsamples = 9\nvalue = [0, 9, 0]\nclass = 1", fillcolor="#39e581"] ;
597 -> 601 ;
602 [label="gini = 0.0\nsamples = 3\nvalue = [0, 3, 0]\nclass = 1", fillcolor="#39e581"] ;
596 -> 602 ;
603 [label="v_15 <= 12.5\ngini = 0.27\nsamples = 19\nvalue = [0, 16, 3]\nclass = 1", fillcolor="#5eea99"] ;
595 -> 603 ;
604 [label="v_17 <= 48.5\ngini = 0.12\nsamples = 15\nvalue = [0, 14, 1]\nclass = 1", fillcolor="#47e78a"] ;
603 -> 604 ;
605 [label="gini = 0.0\nsamples = 10\nvalue = [0, 10, 0]\nclass = 1", fillcolor="#39e581"] ;
604 -> 605 ;
606 [label="v_15 <= 10.5\ngini = 0.32\nsamples = 5\nvalue = [0, 4, 1]\nclass = 1", fillcolor="#6aeca0"] ;
604 -> 606 ;
607 [label="v_22 <= 25.25\ngini = 0.5\nsamples = 2\nvalue = [0, 1, 1]\nclass = 1", fillcolor="#ffffff"] ;
606 -> 607 ;
608 [label="gini = 0.0\nsamples = 1\nvalue = [0, 1, 0]\nclass = 1", fillcolor="#39e581"] ;
607 -> 608 ;
609 [label="gini = 0.0\nsamples = 1\nvalue = [0, 0, 1]\nclass = 2", fillcolor="#8139e5"] ;
607 -> 609 ;
610 [label="gini = 0.0\nsamples = 3\nvalue = [0, 3, 0]\nclass = 1", fillcolor="#39e581"] ;
606 -> 610 ;
611 [label="v_29 <= 18.0\ngini = 0.5\nsamples = 4\nvalue = [0, 2, 2]\nclass = 1", fillcolor="#ffffff"] ;
603 -> 611 ;
612 [label="gini = 0.0\nsamples = 2\nvalue = [0, 2, 0]\nclass = 1", fillcolor="#39e581"] ;
611 -> 612 ;
613 [label="gini = 0.0\nsamples = 2\nvalue = [0, 0, 2]\nclass = 2", fillcolor="#8139e5"] ;
611 -> 613 ;
614 [label="v_31 <= 27.5\ngini = 0.5\nsamples = 6\nvalue = [0, 3, 3]\nclass = 1", fillcolor="#ffffff"] ;
594 -> 614 ;
615 [label="v_31 <= 26.5\ngini = 0.38\nsamples = 4\nvalue = [0, 3, 1]\nclass = 1", fillcolor="#7beeab"] ;
614 -> 615 ;
616 [label="gini = 0.0\nsamples = 1\nvalue = [0, 1, 0]\nclass = 1", fillcolor="#39e581"] ;
615 -> 616 ;
617 [label="v_17 <= 47.5\ngini = 0.44\nsamples = 3\nvalue = [0, 2, 1]\nclass = 1", fillcolor="#9cf2c0"] ;
615 -> 617 ;
618 [label="gini = 0.0\nsamples = 1\nvalue = [0, 0, 1]\nclass = 2", fillcolor="#8139e5"] ;
617 -> 618 ;
619 [label="gini = 0.0\nsamples = 2\nvalue = [0, 2, 0]\nclass = 1", fillcolor="#39e581"] ;
617 -> 619 ;
620 [label="gini = 0.0\nsamples = 2\nvalue = [0, 0, 2]\nclass = 2", fillcolor="#8139e5"] ;
614 -> 620 ;
621 [label="v_15 <= 10.5\ngini = 0.47\nsamples = 8\nvalue = [0, 5, 3]\nclass = 1", fillcolor="#b0f5cd"] ;
593 -> 621 ;
622 [label="v_29 <= 18.19\ngini = 0.5\nsamples = 6\nvalue = [0, 3, 3]\nclass = 1", fillcolor="#ffffff"] ;
621 -> 622 ;
623 [label="gini = 0.0\nsamples = 3\nvalue = [0, 0, 3]\nclass = 2", fillcolor="#8139e5"] ;
622 -> 623 ;
624 [label="gini = 0.0\nsamples = 3\nvalue = [0, 3, 0]\nclass = 1", fillcolor="#39e581"] ;
622 -> 624 ;
625 [label="gini = 0.0\nsamples = 2\nvalue = [0, 2, 0]\nclass = 1", fillcolor="#39e581"] ;
621 -> 625 ;
626 [label="gini = 0.0\nsamples = 13\nvalue = [0, 13, 0]\nclass = 1", fillcolor="#39e581"] ;
592 -> 626 ;
627 [label="v_31 <= 26.5\ngini = 0.67\nsamples = 3\nvalue = [1, 1, 1]\nclass = 0", fillcolor="#ffffff"] ;
591 -> 627 ;
628 [label="gini = 0.0\nsamples = 1\nvalue = [0, 0, 1]\nclass = 2", fillcolor="#8139e5"] ;
627 -> 628 ;
629 [label="v_31 <= 29.0\ngini = 0.5\nsamples = 2\nvalue = [1, 1, 0]\nclass = 0", fillcolor="#ffffff"] ;
627 -> 629 ;
630 [label="gini = 0.0\nsamples = 1\nvalue = [1, 0, 0]\nclass = 0", fillcolor="#e58139"] ;
629 -> 630 ;
631 [label="gini = 0.0\nsamples = 1\nvalue = [0, 1, 0]\nclass = 1", fillcolor="#39e581"] ;
629 -> 631 ;
632 [label="v_15 <= 13.5\ngini = 0.53\nsamples = 23\nvalue = [1, 13, 9]\nclass = 1", fillcolor="#c6f8db"] ;
580 -> 632 ;
633 [label="v_19 <= 24.5\ngini = 0.32\nsamples = 15\nvalue = [0, 12, 3]\nclass = 1", fillcolor="#6aeca0"] ;
632 -> 633 ;
634 [label="v_29 <= 17.79\ngini = 0.38\nsamples = 12\nvalue = [0, 9, 3]\nclass = 1", fillcolor="#7beeab"] ;
633 -> 634 ;
635 [label="gini = 0.0\nsamples = 4\nvalue = [0, 4, 0]\nclass = 1", fillcolor="#39e581"] ;
634 -> 635 ;
636 [label="v_29 <= 19.18\ngini = 0.47\nsamples = 8\nvalue = [0, 5, 3]\nclass = 1", fillcolor="#b0f5cd"] ;
634 -> 636 ;
637 [label="v_31 <= 27.0\ngini = 0.48\nsamples = 5\nvalue = [0, 2, 3]\nclass = 2", fillcolor="#d5bdf6"] ;
636 -> 637 ;
638 [label="gini = 0.0\nsamples = 2\nvalue = [0, 2, 0]\nclass = 1", fillcolor="#39e581"] ;
637 -> 638 ;
639 [label="gini = 0.0\nsamples = 3\nvalue = [0, 0, 3]\nclass = 2", fillcolor="#8139e5"] ;
637 -> 639 ;
640 [label="gini = 0.0\nsamples = 3\nvalue = [0, 3, 0]\nclass = 1", fillcolor="#39e581"] ;
636 -> 640 ;
641 [label="gini = 0.0\nsamples = 3\nvalue = [0, 3, 0]\nclass = 1", fillcolor="#39e581"] ;
633 -> 641 ;
642 [label="v_33 <= 29.5\ngini = 0.41\nsamples = 8\nvalue = [1, 1, 6]\nclass = 2", fillcolor="#a572ec"] ;
632 -> 642 ;
643 [label="gini = 0.0\nsamples = 6\nvalue = [0, 0, 6]\nclass = 2", fillcolor="#8139e5"] ;
642 -> 643 ;
644 [label="v_29 <= 18.9\ngini = 0.5\nsamples = 2\nvalue = [1, 1, 0]\nclass = 0", fillcolor="#ffffff"] ;
642 -> 644 ;
645 [label="gini = 0.0\nsamples = 1\nvalue = [1, 0, 0]\nclass = 0", fillcolor="#e58139"] ;
644 -> 645 ;
646 [label="gini = 0.0\nsamples = 1\nvalue = [0, 1, 0]\nclass = 1", fillcolor="#39e581"] ;
644 -> 646 ;
647 [label="v_22 <= 24.58\ngini = 0.57\nsamples = 14\nvalue = [2, 4, 8]\nclass = 2", fillcolor="#cdb0f5"] ;
579 -> 647 ;
648 [label="gini = 0.0\nsamples = 3\nvalue = [0, 3, 0]\nclass = 1", fillcolor="#39e581"] ;
647 -> 648 ;
649 [label="v_29 <= 19.5\ngini = 0.43\nsamples = 11\nvalue = [2, 1, 8]\nclass = 2", fillcolor="#ab7bee"] ;
647 -> 649 ;
650 [label="v_5 <= 38.0\ngini = 0.2\nsamples = 9\nvalue = [0, 1, 8]\nclass = 2", fillcolor="#9152e8"] ;
649 -> 650 ;
651 [label="v_17 <= 47.5\ngini = 0.5\nsamples = 2\nvalue = [0, 1, 1]\nclass = 1", fillcolor="#ffffff"] ;
650 -> 651 ;
652 [label="gini = 0.0\nsamples = 1\nvalue = [0, 0, 1]\nclass = 2", fillcolor="#8139e5"] ;
651 -> 652 ;
653 [label="gini = 0.0\nsamples = 1\nvalue = [0, 1, 0]\nclass = 1", fillcolor="#39e581"] ;
651 -> 653 ;
654 [label="gini = 0.0\nsamples = 7\nvalue = [0, 0, 7]\nclass = 2", fillcolor="#8139e5"] ;
650 -> 654 ;
655 [label="gini = 0.0\nsamples = 2\nvalue = [2, 0, 0]\nclass = 0", fillcolor="#e58139"] ;
649 -> 655 ;
656 [label="v_22 <= 25.81\ngini = 0.61\nsamples = 118\nvalue = [17, 52, 49]\nclass = 1", fillcolor="#f6fefa"] ;
578 -> 656 ;
657 [label="v_24 <= 17.5\ngini = 0.61\nsamples = 113\nvalue = [17, 52, 44]\nclass = 1", fillcolor="#e8fcf0"] ;
656 -> 657 ;
658 [label="v_31 <= 54.0\ngini = 0.55\nsamples = 56\nvalue = [3, 24, 29]\nclass = 2", fillcolor="#ebe0fb"] ;
657 -> 658 ;
659 [label="v_29 <= 17.35\ngini = 0.51\nsamples = 54\nvalue = [1, 24, 29]\nclass = 2", fillcolor="#eadefb"] ;
658 -> 659 ;
660 [label="v_5 <= 42.5\ngini = 0.38\nsamples = 8\nvalue = [0, 6, 2]\nclass = 1", fillcolor="#7beeab"] ;
659 -> 660 ;
661 [label="gini = 0.0\nsamples = 6\nvalue = [0, 6, 0]\nclass = 1", fillcolor="#39e581"] ;
660 -> 661 ;
662 [label="gini = 0.0\nsamples = 2\nvalue = [0, 0, 2]\nclass = 2", fillcolor="#8139e5"] ;
660 -> 662 ;
663 [label="v_22 <= 25.74\ngini = 0.5\nsamples = 46\nvalue = [1, 18, 27]\nclass = 2", fillcolor="#d7bff7"] ;
659 -> 663 ;
664 [label="v_17 <= 51.5\ngini = 0.48\nsamples = 43\nvalue = [1, 15, 27]\nclass = 2", fillcolor="#c9aaf4"] ;
663 -> 664 ;
665 [label="v_31 <= 27.5\ngini = 0.33\nsamples = 24\nvalue = [0, 5, 19]\nclass = 2", fillcolor="#a26dec"] ;
664 -> 665 ;
666 [label="v_5 <= 41.5\ngini = 0.48\nsamples = 10\nvalue = [0, 4, 6]\nclass = 2", fillcolor="#d5bdf6"] ;
665 -> 666 ;
667 [label="v_17 <= 50.5\ngini = 0.28\nsamples = 6\nvalue = [0, 1, 5]\nclass = 2", fillcolor="#9a61ea"] ;
666 -> 667 ;
668 [label="v_31 <= 26.5\ngini = 0.44\nsamples = 3\nvalue = [0, 1, 2]\nclass = 2", fillcolor="#c09cf2"] ;
667 -> 668 ;
669 [label="gini = 0.0\nsamples = 2\nvalue = [0, 0, 2]\nclass = 2", fillcolor="#8139e5"] ;
668 -> 669 ;
670 [label="gini = 0.0\nsamples = 1\nvalue = [0, 1, 0]\nclass = 1", fillcolor="#39e581"] ;
668 -> 670 ;
671 [label="gini = 0.0\nsamples = 3\nvalue = [0, 0, 3]\nclass = 2", fillcolor="#8139e5"] ;
667 -> 671 ;
672 [label="v_29 <= 19.6\ngini = 0.38\nsamples = 4\nvalue = [0, 3, 1]\nclass = 1", fillcolor="#7beeab"] ;
666 -> 672 ;
673 [label="v_31 <= 26.5\ngini = 0.5\nsamples = 2\nvalue = [0, 1, 1]\nclass = 1", fillcolor="#ffffff"] ;
672 -> 673 ;
674 [label="gini = 0.0\nsamples = 1\nvalue = [0, 1, 0]\nclass = 1", fillcolor="#39e581"] ;
673 -> 674 ;
675 [label="gini = 0.0\nsamples = 1\nvalue = [0, 0, 1]\nclass = 2", fillcolor="#8139e5"] ;
673 -> 675 ;
676 [label="gini = 0.0\nsamples = 2\nvalue = [0, 2, 0]\nclass = 1", fillcolor="#39e581"] ;
672 -> 676 ;
677 [label="v_15 <= 11.0\ngini = 0.13\nsamples = 14\nvalue = [0, 1, 13]\nclass = 2", fillcolor="#8b48e7"] ;
665 -> 677 ;
678 [label="gini = 0.0\nsamples = 12\nvalue = [0, 0, 12]\nclass = 2", fillcolor="#8139e5"] ;
677 -> 678 ;
679 [label="v_24 <= 16.0\ngini = 0.5\nsamples = 2\nvalue = [0, 1, 1]\nclass = 1", fillcolor="#ffffff"] ;
677 -> 679 ;
680 [label="gini = 0.0\nsamples = 1\nvalue = [0, 1, 0]\nclass = 1", fillcolor="#39e581"] ;
679 -> 680 ;
681 [label="gini = 0.0\nsamples = 1\nvalue = [0, 0, 1]\nclass = 2", fillcolor="#8139e5"] ;
679 -> 681 ;
682 [label="v_6 <= 13.5\ngini = 0.54\nsamples = 19\nvalue = [1, 10, 8]\nclass = 1", fillcolor="#dbfae8"] ;
664 -> 682 ;
683 [label="v_22 <= 24.65\ngini = 0.44\nsamples = 3\nvalue = [1, 0, 2]\nclass = 2", fillcolor="#c09cf2"] ;
682 -> 683 ;
684 [label="gini = 0.0\nsamples = 1\nvalue = [1, 0, 0]\nclass = 0", fillcolor="#e58139"] ;
683 -> 684 ;
685 [label="gini = 0.0\nsamples = 2\nvalue = [0, 0, 2]\nclass = 2", fillcolor="#8139e5"] ;
683 -> 685 ;
686 [label="v_24 <= 16.0\ngini = 0.47\nsamples = 16\nvalue = [0, 10, 6]\nclass = 1", fillcolor="#b0f5cd"] ;
682 -> 686 ;
687 [label="v_29 <= 18.22\ngini = 0.44\nsamples = 15\nvalue = [0, 10, 5]\nclass = 1", fillcolor="#9cf2c0"] ;
686 -> 687 ;
688 [label="gini = 0.0\nsamples = 4\nvalue = [0, 4, 0]\nclass = 1", fillcolor="#39e581"] ;
687 -> 688 ;
689 [label="v_22 <= 25.67\ngini = 0.5\nsamples = 11\nvalue = [0, 6, 5]\nclass = 1", fillcolor="#defbea"] ;
687 -> 689 ;
690 [label="v_13 <= 14.5\ngini = 0.44\nsamples = 9\nvalue = [0, 6, 3]\nclass = 1", fillcolor="#9cf2c0"] ;
689 -> 690 ;
691 [label="v_29 <= 18.56\ngini = 0.49\nsamples = 7\nvalue = [0, 4, 3]\nclass = 1", fillcolor="#cef8e0"] ;
690 -> 691 ;
692 [label="v_22 <= 25.45\ngini = 0.38\nsamples = 4\nvalue = [0, 1, 3]\nclass = 2", fillcolor="#ab7bee"] ;
691 -> 692 ;
693 [label="gini = 0.0\nsamples = 3\nvalue = [0, 0, 3]\nclass = 2", fillcolor="#8139e5"] ;
692 -> 693 ;
694 [label="gini = 0.0\nsamples = 1\nvalue = [0, 1, 0]\nclass = 1", fillcolor="#39e581"] ;
692 -> 694 ;
695 [label="gini = 0.0\nsamples = 3\nvalue = [0, 3, 0]\nclass = 1", fillcolor="#39e581"] ;
691 -> 695 ;
696 [label="gini = 0.0\nsamples = 2\nvalue = [0, 2, 0]\nclass = 1", fillcolor="#39e581"] ;
690 -> 696 ;
697 [label="gini = 0.0\nsamples = 2\nvalue = [0, 0, 2]\nclass = 2", fillcolor="#8139e5"] ;
689 -> 697 ;
698 [label="gini = 0.0\nsamples = 1\nvalue = [0, 0, 1]\nclass = 2", fillcolor="#8139e5"] ;
686 -> 698 ;
699 [label="gini = 0.0\nsamples = 3\nvalue = [0, 3, 0]\nclass = 1", fillcolor="#39e581"] ;
663 -> 699 ;
700 [label="gini = 0.0\nsamples = 2\nvalue = [2, 0, 0]\nclass = 0", fillcolor="#e58139"] ;
658 -> 700 ;
701 [label="v_6 <= 13.5\ngini = 0.63\nsamples = 57\nvalue = [14, 28, 15]\nclass = 1", fillcolor="#c2f7d8"] ;
657 -> 701 ;
702 [label="v_31 <= 48.0\ngini = 0.28\nsamples = 6\nvalue = [5, 1, 0]\nclass = 0", fillcolor="#ea9a61"] ;
701 -> 702 ;
703 [label="gini = 0.0\nsamples = 5\nvalue = [5, 0, 0]\nclass = 0", fillcolor="#e58139"] ;
702 -> 703 ;
704 [label="gini = 0.0\nsamples = 1\nvalue = [0, 1, 0]\nclass = 1", fillcolor="#39e581"] ;
702 -> 704 ;
705 [label="v_29 <= 17.84\ngini = 0.6\nsamples = 51\nvalue = [9, 27, 15]\nclass = 1", fillcolor="#bdf6d5"] ;
701 -> 705 ;
706 [label="v_5 <= 40.0\ngini = 0.62\nsamples = 31\nvalue = [6, 10, 15]\nclass = 2", fillcolor="#e1d0f9"] ;
705 -> 706 ;
707 [label="gini = 0.0\nsamples = 2\nvalue = [2, 0, 0]\nclass = 0", fillcolor="#e58139"] ;
706 -> 707 ;
708 [label="v_19 <= 30.5\ngini = 0.59\nsamples = 29\nvalue = [4, 10, 15]\nclass = 2", fillcolor="#decbf8"] ;
706 -> 708 ;
709 [label="v_17 <= 53.5\ngini = 0.5\nsamples = 20\nvalue = [2, 5, 13]\nclass = 2", fillcolor="#bc95f1"] ;
708 -> 709 ;
710 [label="v_6 <= 15.5\ngini = 0.45\nsamples = 7\nvalue = [1, 5, 1]\nclass = 1", fillcolor="#7beeab"] ;
709 -> 710 ;
711 [label="v_13 <= 19.5\ngini = 0.5\nsamples = 2\nvalue = [1, 0, 1]\nclass = 0", fillcolor="#ffffff"] ;
710 -> 711 ;
712 [label="gini = 0.0\nsamples = 1\nvalue = [1, 0, 0]\nclass = 0", fillcolor="#e58139"] ;
711 -> 712 ;
713 [label="gini = 0.0\nsamples = 1\nvalue = [0, 0, 1]\nclass = 2", fillcolor="#8139e5"] ;
711 -> 713 ;
714 [label="gini = 0.0\nsamples = 5\nvalue = [0, 5, 0]\nclass = 1", fillcolor="#39e581"] ;
710 -> 714 ;
715 [label="v_33 <= 35.5\ngini = 0.14\nsamples = 13\nvalue = [1, 0, 12]\nclass = 2", fillcolor="#8c49e7"] ;
709 -> 715 ;
716 [label="gini = 0.0\nsamples = 11\nvalue = [0, 0, 11]\nclass = 2", fillcolor="#8139e5"] ;
715 -> 716 ;
717 [label="v_19 <= 29.0\ngini = 0.5\nsamples = 2\nvalue = [1, 0, 1]\nclass = 0", fillcolor="#ffffff"] ;
715 -> 717 ;
718 [label="gini = 0.0\nsamples = 1\nvalue = [1, 0, 0]\nclass = 0", fillcolor="#e58139"] ;
717 -> 718 ;
719 [label="gini = 0.0\nsamples = 1\nvalue = [0, 0, 1]\nclass = 2", fillcolor="#8139e5"] ;
717 -> 719 ;
720 [label="v_31 <= 53.0\ngini = 0.59\nsamples = 9\nvalue = [2, 5, 2]\nclass = 1", fillcolor="#aaf4c9"] ;
708 -> 720 ;
721 [label="v_24 <= 25.5\ngini = 0.41\nsamples = 7\nvalue = [2, 5, 0]\nclass = 1", fillcolor="#88efb3"] ;
720 -> 721 ;
722 [label="gini = 0.0\nsamples = 4\nvalue = [0, 4, 0]\nclass = 1", fillcolor="#39e581"] ;
721 -> 722 ;
723 [label="v_17 <= 58.0\ngini = 0.44\nsamples = 3\nvalue = [2, 1, 0]\nclass = 0", fillcolor="#f2c09c"] ;
721 -> 723 ;
724 [label="gini = 0.0\nsamples = 2\nvalue = [2, 0, 0]\nclass = 0", fillcolor="#e58139"] ;
723 -> 724 ;
725 [label="gini = 0.0\nsamples = 1\nvalue = [0, 1, 0]\nclass = 1", fillcolor="#39e581"] ;
723 -> 725 ;
726 [label="gini = 0.0\nsamples = 2\nvalue = [0, 0, 2]\nclass = 2", fillcolor="#8139e5"] ;
720 -> 726 ;
727 [label="v_19 <= 36.5\ngini = 0.26\nsamples = 20\nvalue = [3, 17, 0]\nclass = 1", fillcolor="#5cea97"] ;
705 -> 727 ;
728 [label="v_31 <= 27.5\ngini = 0.11\nsamples = 17\nvalue = [1, 16, 0]\nclass = 1", fillcolor="#45e789"] ;
727 -> 728 ;
729 [label="v_17 <= 53.0\ngini = 0.5\nsamples = 2\nvalue = [1, 1, 0]\nclass = 0", fillcolor="#ffffff"] ;
728 -> 729 ;
730 [label="gini = 0.0\nsamples = 1\nvalue = [0, 1, 0]\nclass = 1", fillcolor="#39e581"] ;
729 -> 730 ;
731 [label="gini = 0.0\nsamples = 1\nvalue = [1, 0, 0]\nclass = 0", fillcolor="#e58139"] ;
729 -> 731 ;
732 [label="gini = 0.0\nsamples = 15\nvalue = [0, 15, 0]\nclass = 1", fillcolor="#39e581"] ;
728 -> 732 ;
733 [label="v_17 <= 64.5\ngini = 0.44\nsamples = 3\nvalue = [2, 1, 0]\nclass = 0", fillcolor="#f2c09c"] ;
727 -> 733 ;
734 [label="gini = 0.0\nsamples = 1\nvalue = [0, 1, 0]\nclass = 1", fillcolor="#39e581"] ;
733 -> 734 ;
735 [label="gini = 0.0\nsamples = 2\nvalue = [2, 0, 0]\nclass = 0", fillcolor="#e58139"] ;
733 -> 735 ;
736 [label="gini = 0.0\nsamples = 5\nvalue = [0, 0, 5]\nclass = 2", fillcolor="#8139e5"] ;
656 -> 736 ;
737 [label="v_31 <= 27.5\ngini = 0.42\nsamples = 423\nvalue = [31, 311, 81]\nclass = 1", fillcolor="#7aeeaa"] ;
469 -> 737 ;
738 [label="v_5 <= 40.5\ngini = 0.29\nsamples = 215\nvalue = [11, 179, 25]\nclass = 1", fillcolor="#5fea99"] ;
737 -> 738 ;
739 [label="v_15 <= 11.5\ngini = 0.24\nsamples = 191\nvalue = [9, 165, 17]\nclass = 1", fillcolor="#57e994"] ;
738 -> 739 ;
740 [label="v_22 <= 27.21\ngini = 0.19\nsamples = 122\nvalue = [3, 109, 10]\nclass = 1", fillcolor="#50e890"] ;
739 -> 740 ;
741 [label="v_22 <= 27.13\ngini = 0.27\nsamples = 83\nvalue = [3, 70, 10]\nclass = 1", fillcolor="#5cea97"] ;
740 -> 741 ;
742 [label="v_29 <= 17.77\ngini = 0.21\nsamples = 70\nvalue = [3, 62, 5]\nclass = 1", fillcolor="#51e891"] ;
741 -> 742 ;
743 [label="v_29 <= 17.41\ngini = 0.5\nsamples = 2\nvalue = [1, 1, 0]\nclass = 0", fillcolor="#ffffff"] ;
742 -> 743 ;
744 [label="gini = 0.0\nsamples = 1\nvalue = [0, 1, 0]\nclass = 1", fillcolor="#39e581"] ;
743 -> 744 ;
745 [label="gini = 0.0\nsamples = 1\nvalue = [1, 0, 0]\nclass = 0", fillcolor="#e58139"] ;
743 -> 745 ;
746 [label="v_15 <= 10.5\ngini = 0.19\nsamples = 68\nvalue = [2, 61, 5]\nclass = 1", fillcolor="#4fe88f"] ;
742 -> 746 ;
747 [label="v_29 <= 20.67\ngini = 0.14\nsamples = 55\nvalue = [1, 51, 3]\nclass = 1", fillcolor="#48e78b"] ;
746 -> 747 ;
748 [label="v_22 <= 26.98\ngini = 0.08\nsamples = 47\nvalue = [1, 45, 1]\nclass = 1", fillcolor="#42e686"] ;
747 -> 748 ;
749 [label="v_29 <= 18.34\ngini = 0.05\nsamples = 39\nvalue = [0, 38, 1]\nclass = 1", fillcolor="#3ee684"] ;
748 -> 749 ;
750 [label="v_5 <= 38.5\ngini = 0.24\nsamples = 7\nvalue = [0, 6, 1]\nclass = 1", fillcolor="#5ae996"] ;
749 -> 750 ;
751 [label="gini = 0.0\nsamples = 6\nvalue = [0, 6, 0]\nclass = 1", fillcolor="#39e581"] ;
750 -> 751 ;
752 [label="gini = 0.0\nsamples = 1\nvalue = [0, 0, 1]\nclass = 2", fillcolor="#8139e5"] ;
750 -> 752 ;
753 [label="gini = 0.0\nsamples = 32\nvalue = [0, 32, 0]\nclass = 1", fillcolor="#39e581"] ;
749 -> 753 ;
754 [label="v_17 <= 47.5\ngini = 0.22\nsamples = 8\nvalue = [1, 7, 0]\nclass = 1", fillcolor="#55e993"] ;
748 -> 754 ;
755 [label="gini = 0.0\nsamples = 1\nvalue = [1, 0, 0]\nclass = 0", fillcolor="#e58139"] ;
754 -> 755 ;
756 [label="gini = 0.0\nsamples = 7\nvalue = [0, 7, 0]\nclass = 1", fillcolor="#39e581"] ;
754 -> 756 ;
757 [label="v_29 <= 20.85\ngini = 0.38\nsamples = 8\nvalue = [0, 6, 2]\nclass = 1", fillcolor="#7beeab"] ;
747 -> 757 ;
758 [label="gini = 0.0\nsamples = 2\nvalue = [0, 0, 2]\nclass = 2", fillcolor="#8139e5"] ;
757 -> 758 ;
759 [label="gini = 0.0\nsamples = 6\nvalue = [0, 6, 0]\nclass = 1", fillcolor="#39e581"] ;
757 -> 759 ;
760 [label="v_29 <= 18.97\ngini = 0.38\nsamples = 13\nvalue = [1, 10, 2]\nclass = 1", fillcolor="#6feca3"] ;
746 -> 760 ;
761 [label="v_6 <= 14.5\ngini = 0.44\nsamples = 3\nvalue = [0, 1, 2]\nclass = 2", fillcolor="#c09cf2"] ;
760 -> 761 ;
762 [label="gini = 0.0\nsamples = 2\nvalue = [0, 0, 2]\nclass = 2", fillcolor="#8139e5"] ;
761 -> 762 ;
763 [label="gini = 0.0\nsamples = 1\nvalue = [0, 1, 0]\nclass = 1", fillcolor="#39e581"] ;
761 -> 763 ;
764 [label="v_31 <= 26.5\ngini = 0.18\nsamples = 10\nvalue = [1, 9, 0]\nclass = 1", fillcolor="#4fe88f"] ;
760 -> 764 ;
765 [label="gini = 0.0\nsamples = 6\nvalue = [0, 6, 0]\nclass = 1", fillcolor="#39e581"] ;
764 -> 765 ;
766 [label="v_29 <= 19.53\ngini = 0.38\nsamples = 4\nvalue = [1, 3, 0]\nclass = 1", fillcolor="#7beeab"] ;
764 -> 766 ;
767 [label="gini = 0.0\nsamples = 2\nvalue = [0, 2, 0]\nclass = 1", fillcolor="#39e581"] ;
766 -> 767 ;
768 [label="v_5 <= 37.5\ngini = 0.5\nsamples = 2\nvalue = [1, 1, 0]\nclass = 0", fillcolor="#ffffff"] ;
766 -> 768 ;
769 [label="gini = 0.0\nsamples = 1\nvalue = [0, 1, 0]\nclass = 1", fillcolor="#39e581"] ;
768 -> 769 ;
770 [label="gini = 0.0\nsamples = 1\nvalue = [1, 0, 0]\nclass = 0", fillcolor="#e58139"] ;
768 -> 770 ;
771 [label="v_29 <= 20.53\ngini = 0.47\nsamples = 13\nvalue = [0, 8, 5]\nclass = 1", fillcolor="#b5f5d0"] ;
741 -> 771 ;
772 [label="gini = 0.0\nsamples = 6\nvalue = [0, 6, 0]\nclass = 1", fillcolor="#39e581"] ;
771 -> 772 ;
773 [label="v_31 <= 26.5\ngini = 0.41\nsamples = 7\nvalue = [0, 2, 5]\nclass = 2", fillcolor="#b388ef"] ;
771 -> 773 ;
774 [label="v_17 <= 48.5\ngini = 0.28\nsamples = 6\nvalue = [0, 1, 5]\nclass = 2", fillcolor="#9a61ea"] ;
773 -> 774 ;
775 [label="v_17 <= 47.5\ngini = 0.44\nsamples = 3\nvalue = [0, 1, 2]\nclass = 2", fillcolor="#c09cf2"] ;
774 -> 775 ;
776 [label="gini = 0.0\nsamples = 2\nvalue = [0, 0, 2]\nclass = 2", fillcolor="#8139e5"] ;
775 -> 776 ;
777 [label="gini = 0.0\nsamples = 1\nvalue = [0, 1, 0]\nclass = 1", fillcolor="#39e581"] ;
775 -> 777 ;
778 [label="gini = 0.0\nsamples = 3\nvalue = [0, 0, 3]\nclass = 2", fillcolor="#8139e5"] ;
774 -> 778 ;
779 [label="gini = 0.0\nsamples = 1\nvalue = [0, 1, 0]\nclass = 1", fillcolor="#39e581"] ;
773 -> 779 ;
780 [label="gini = 0.0\nsamples = 39\nvalue = [0, 39, 0]\nclass = 1", fillcolor="#39e581"] ;
740 -> 780 ;
781 [label="v_6 <= 15.5\ngini = 0.32\nsamples = 69\nvalue = [6, 56, 7]\nclass = 1", fillcolor="#63ea9b"] ;
739 -> 781 ;
782 [label="v_5 <= 37.5\ngini = 0.41\nsamples = 39\nvalue = [3, 29, 7]\nclass = 1", fillcolor="#77eda8"] ;
781 -> 782 ;
783 [label="gini = 0.0\nsamples = 9\nvalue = [0, 9, 0]\nclass = 1", fillcolor="#39e581"] ;
782 -> 783 ;
784 [label="v_29 <= 19.24\ngini = 0.49\nsamples = 30\nvalue = [3, 20, 7]\nclass = 1", fillcolor="#8ff0b8"] ;
782 -> 784 ;
785 [label="v_10 <= 25.5\ngini = 0.64\nsamples = 9\nvalue = [3, 4, 2]\nclass = 1", fillcolor="#defbea"] ;
784 -> 785 ;
786 [label="v_5 <= 38.5\ngini = 0.49\nsamples = 7\nvalue = [3, 4, 0]\nclass = 1", fillcolor="#cef8e0"] ;
785 -> 786 ;
787 [label="gini = 0.0\nsamples = 2\nvalue = [2, 0, 0]\nclass = 0", fillcolor="#e58139"] ;
786 -> 787 ;
788 [label="v_29 <= 18.92\ngini = 0.32\nsamples = 5\nvalue = [1, 4, 0]\nclass = 1", fillcolor="#6aeca0"] ;
786 -> 788 ;
789 [label="gini = 0.0\nsamples = 4\nvalue = [0, 4, 0]\nclass = 1", fillcolor="#39e581"] ;
788 -> 789 ;
790 [label="gini = 0.0\nsamples = 1\nvalue = [1, 0, 0]\nclass = 0", fillcolor="#e58139"] ;
788 -> 790 ;
791 [label="gini = 0.0\nsamples = 2\nvalue = [0, 0, 2]\nclass = 2", fillcolor="#8139e5"] ;
785 -> 791 ;
792 [label="v_15 <= 12.5\ngini = 0.36\nsamples = 21\nvalue = [0, 16, 5]\nclass = 1", fillcolor="#77eda8"] ;
784 -> 792 ;
793 [label="v_22 <= 26.65\ngini = 0.49\nsamples = 9\nvalue = [0, 5, 4]\nclass = 1", fillcolor="#d7fae6"] ;
792 -> 793 ;
794 [label="gini = 0.0\nsamples = 3\nvalue = [0, 3, 0]\nclass = 1", fillcolor="#39e581"] ;
793 -> 794 ;
795 [label="v_29 <= 20.52\ngini = 0.44\nsamples = 6\nvalue = [0, 2, 4]\nclass = 2", fillcolor="#c09cf2"] ;
793 -> 795 ;
796 [label="v_6 <= 13.5\ngini = 0.32\nsamples = 5\nvalue = [0, 1, 4]\nclass = 2", fillcolor="#a06aec"] ;
795 -> 796 ;
797 [label="gini = 0.0\nsamples = 1\nvalue = [0, 1, 0]\nclass = 1", fillcolor="#39e581"] ;
796 -> 797 ;
798 [label="gini = 0.0\nsamples = 4\nvalue = [0, 0, 4]\nclass = 2", fillcolor="#8139e5"] ;
796 -> 798 ;
799 [label="gini = 0.0\nsamples = 1\nvalue = [0, 1, 0]\nclass = 1", fillcolor="#39e581"] ;
795 -> 799 ;
800 [label="v_22 <= 27.02\ngini = 0.15\nsamples = 12\nvalue = [0, 11, 1]\nclass = 1", fillcolor="#4be78c"] ;
792 -> 800 ;
801 [label="gini = 0.0\nsamples = 7\nvalue = [0, 7, 0]\nclass = 1", fillcolor="#39e581"] ;
800 -> 801 ;
802 [label="v_15 <= 14.0\ngini = 0.32\nsamples = 5\nvalue = [0, 4, 1]\nclass = 1", fillcolor="#6aeca0"] ;
800 -> 802 ;
803 [label="gini = 0.0\nsamples = 2\nvalue = [0, 2, 0]\nclass = 1", fillcolor="#39e581"] ;
802 -> 803 ;
804 [label="v_29 <= 20.08\ngini = 0.44\nsamples = 3\nvalue = [0, 2, 1]\nclass = 1", fillcolor="#9cf2c0"] ;
802 -> 804 ;
805 [label="gini = 0.0\nsamples = 1\nvalue = [0, 0, 1]\nclass = 2", fillcolor="#8139e5"] ;
804 -> 805 ;
806 [label="gini = 0.0\nsamples = 2\nvalue = [0, 2, 0]\nclass = 1", fillcolor="#39e581"] ;
804 -> 806 ;
807 [label="v_22 <= 28.5\ngini = 0.18\nsamples = 30\nvalue = [3, 27, 0]\nclass = 1", fillcolor="#4fe88f"] ;
781 -> 807 ;
808 [label="v_33 <= 30.5\ngini = 0.13\nsamples = 29\nvalue = [2, 27, 0]\nclass = 1", fillcolor="#48e78a"] ;
807 -> 808 ;
809 [label="v_15 <= 12.5\ngini = 0.17\nsamples = 21\nvalue = [2, 19, 0]\nclass = 1", fillcolor="#4ee88e"] ;
808 -> 809 ;
810 [label="gini = 0.0\nsamples = 5\nvalue = [0, 5, 0]\nclass = 1", fillcolor="#39e581"] ;
809 -> 810 ;
811 [label="v_22 <= 27.48\ngini = 0.22\nsamples = 16\nvalue = [2, 14, 0]\nclass = 1", fillcolor="#55e993"] ;
809 -> 811 ;
812 [label="v_31 <= 26.5\ngini = 0.35\nsamples = 9\nvalue = [2, 7, 0]\nclass = 1", fillcolor="#72eca5"] ;
811 -> 812 ;
813 [label="v_17 <= 48.5\ngini = 0.24\nsamples = 7\nvalue = [1, 6, 0]\nclass = 1", fillcolor="#5ae996"] ;
812 -> 813 ;
814 [label="gini = 0.0\nsamples = 3\nvalue = [0, 3, 0]\nclass = 1", fillcolor="#39e581"] ;
813 -> 814 ;
815 [label="v_5 <= 39.5\ngini = 0.38\nsamples = 4\nvalue = [1, 3, 0]\nclass = 1", fillcolor="#7beeab"] ;
813 -> 815 ;
816 [label="gini = 0.0\nsamples = 1\nvalue = [0, 1, 0]\nclass = 1", fillcolor="#39e581"] ;
815 -> 816 ;
817 [label="v_22 <= 26.33\ngini = 0.44\nsamples = 3\nvalue = [1, 2, 0]\nclass = 1", fillcolor="#9cf2c0"] ;
815 -> 817 ;
818 [label="gini = 0.0\nsamples = 2\nvalue = [0, 2, 0]\nclass = 1", fillcolor="#39e581"] ;
817 -> 818 ;
819 [label="gini = 0.0\nsamples = 1\nvalue = [1, 0, 0]\nclass = 0", fillcolor="#e58139"] ;
817 -> 819 ;
820 [label="v_22 <= 26.89\ngini = 0.5\nsamples = 2\nvalue = [1, 1, 0]\nclass = 0", fillcolor="#ffffff"] ;
812 -> 820 ;
821 [label="gini = 0.0\nsamples = 1\nvalue = [0, 1, 0]\nclass = 1", fillcolor="#39e581"] ;
820 -> 821 ;
822 [label="gini = 0.0\nsamples = 1\nvalue = [1, 0, 0]\nclass = 0", fillcolor="#e58139"] ;
820 -> 822 ;
823 [label="gini = 0.0\nsamples = 7\nvalue = [0, 7, 0]\nclass = 1", fillcolor="#39e581"] ;
811 -> 823 ;
824 [label="gini = 0.0\nsamples = 8\nvalue = [0, 8, 0]\nclass = 1", fillcolor="#39e581"] ;
808 -> 824 ;
825 [label="gini = 0.0\nsamples = 1\nvalue = [1, 0, 0]\nclass = 0", fillcolor="#e58139"] ;
807 -> 825 ;
826 [label="v_29 <= 19.62\ngini = 0.54\nsamples = 24\nvalue = [2, 14, 8]\nclass = 1", fillcolor="#b5f5d0"] ;
738 -> 826 ;
827 [label="v_22 <= 27.23\ngini = 0.57\nsamples = 14\nvalue = [2, 4, 8]\nclass = 2", fillcolor="#cdb0f5"] ;
826 -> 827 ;
828 [label="v_6 <= 14.5\ngini = 0.52\nsamples = 13\nvalue = [1, 4, 8]\nclass = 2", fillcolor="#c7a7f3"] ;
827 -> 828 ;
829 [label="v_31 <= 26.5\ngini = 0.37\nsamples = 9\nvalue = [1, 1, 7]\nclass = 2", fillcolor="#a06aec"] ;
828 -> 829 ;
830 [label="v_5 <= 41.5\ngini = 0.24\nsamples = 7\nvalue = [0, 1, 6]\nclass = 2", fillcolor="#965ae9"] ;
829 -> 830 ;
831 [label="v_17 <= 48.5\ngini = 0.44\nsamples = 3\nvalue = [0, 1, 2]\nclass = 2", fillcolor="#c09cf2"] ;
830 -> 831 ;
832 [label="gini = 0.0\nsamples = 1\nvalue = [0, 1, 0]\nclass = 1", fillcolor="#39e581"] ;
831 -> 832 ;
833 [label="gini = 0.0\nsamples = 2\nvalue = [0, 0, 2]\nclass = 2", fillcolor="#8139e5"] ;
831 -> 833 ;
834 [label="gini = 0.0\nsamples = 4\nvalue = [0, 0, 4]\nclass = 2", fillcolor="#8139e5"] ;
830 -> 834 ;
835 [label="v_29 <= 18.4\ngini = 0.5\nsamples = 2\nvalue = [1, 0, 1]\nclass = 0", fillcolor="#ffffff"] ;
829 -> 835 ;
836 [label="gini = 0.0\nsamples = 1\nvalue = [1, 0, 0]\nclass = 0", fillcolor="#e58139"] ;
835 -> 836 ;
837 [label="gini = 0.0\nsamples = 1\nvalue = [0, 0, 1]\nclass = 2", fillcolor="#8139e5"] ;
835 -> 837 ;
838 [label="v_22 <= 26.28\ngini = 0.38\nsamples = 4\nvalue = [0, 3, 1]\nclass = 1", fillcolor="#7beeab"] ;
828 -> 838 ;
839 [label="gini = 0.0\nsamples = 3\nvalue = [0, 3, 0]\nclass = 1", fillcolor="#39e581"] ;
838 -> 839 ;
840 [label="gini = 0.0\nsamples = 1\nvalue = [0, 0, 1]\nclass = 2", fillcolor="#8139e5"] ;
838 -> 840 ;
841 [label="gini = 0.0\nsamples = 1\nvalue = [1, 0, 0]\nclass = 0", fillcolor="#e58139"] ;
827 -> 841 ;
842 [label="gini = 0.0\nsamples = 10\nvalue = [0, 10, 0]\nclass = 1", fillcolor="#39e581"] ;
826 -> 842 ;
843 [label="v_5 <= 42.5\ngini = 0.52\nsamples = 208\nvalue = [20, 132, 56]\nclass = 1", fillcolor="#9cf2c0"] ;
737 -> 843 ;
844 [label="v_17 <= 49.5\ngini = 0.45\nsamples = 163\nvalue = [13, 115, 35]\nclass = 1", fillcolor="#83efb0"] ;
843 -> 844 ;
845 [label="v_13 <= 15.5\ngini = 0.31\nsamples = 104\nvalue = [8, 85, 11]\nclass = 1", fillcolor="#61ea9b"] ;
844 -> 845 ;
846 [label="v_29 <= 22.32\ngini = 0.24\nsamples = 89\nvalue = [4, 77, 8]\nclass = 1", fillcolor="#56e994"] ;
845 -> 846 ;
847 [label="v_29 <= 19.36\ngini = 0.23\nsamples = 88\nvalue = [4, 77, 7]\nclass = 1", fillcolor="#54e992"] ;
846 -> 847 ;
848 [label="v_31 <= 28.5\ngini = 0.34\nsamples = 50\nvalue = [3, 40, 7]\nclass = 1", fillcolor="#67eb9e"] ;
847 -> 848 ;
849 [label="v_29 <= 18.45\ngini = 0.5\nsamples = 23\nvalue = [2, 15, 6]\nclass = 1", fillcolor="#96f1bc"] ;
848 -> 849 ;
850 [label="v_15 <= 10.5\ngini = 0.18\nsamples = 10\nvalue = [1, 9, 0]\nclass = 1", fillcolor="#4fe88f"] ;
849 -> 850 ;
851 [label="gini = 0.0\nsamples = 9\nvalue = [0, 9, 0]\nclass = 1", fillcolor="#39e581"] ;
850 -> 851 ;
852 [label="gini = 0.0\nsamples = 1\nvalue = [1, 0, 0]\nclass = 0", fillcolor="#e58139"] ;
850 -> 852 ;
853 [label="v_15 <= 11.0\ngini = 0.57\nsamples = 13\nvalue = [1, 6, 6]\nclass = 1", fillcolor="#ffffff"] ;
849 -> 853 ;
854 [label="v_17 <= 48.5\ngini = 0.41\nsamples = 7\nvalue = [0, 5, 2]\nclass = 1", fillcolor="#88efb3"] ;
853 -> 854 ;
855 [label="gini = 0.0\nsamples = 2\nvalue = [0, 2, 0]\nclass = 1", fillcolor="#39e581"] ;
854 -> 855 ;
856 [label="v_19 <= 24.5\ngini = 0.48\nsamples = 5\nvalue = [0, 3, 2]\nclass = 1", fillcolor="#bdf6d5"] ;
854 -> 856 ;
857 [label="v_10 <= 26.0\ngini = 0.44\nsamples = 3\nvalue = [0, 1, 2]\nclass = 2", fillcolor="#c09cf2"] ;
856 -> 857 ;
858 [label="v_29 <= 19.23\ngini = 0.5\nsamples = 2\nvalue = [0, 1, 1]\nclass = 1", fillcolor="#ffffff"] ;
857 -> 858 ;
859 [label="gini = 0.0\nsamples = 1\nvalue = [0, 1, 0]\nclass = 1", fillcolor="#39e581"] ;
858 -> 859 ;
860 [label="gini = 0.0\nsamples = 1\nvalue = [0, 0, 1]\nclass = 2", fillcolor="#8139e5"] ;
858 -> 860 ;
861 [label="gini = 0.0\nsamples = 1\nvalue = [0, 0, 1]\nclass = 2", fillcolor="#8139e5"] ;
857 -> 861 ;
862 [label="gini = 0.0\nsamples = 2\nvalue = [0, 2, 0]\nclass = 1", fillcolor="#39e581"] ;
856 -> 862 ;
863 [label="v_29 <= 18.75\ngini = 0.5\nsamples = 6\nvalue = [1, 1, 4]\nclass = 2", fillcolor="#b388ef"] ;
853 -> 863 ;
864 [label="v_22 <= 26.58\ngini = 0.38\nsamples = 4\nvalue = [0, 1, 3]\nclass = 2", fillcolor="#ab7bee"] ;
863 -> 864 ;
865 [label="gini = 0.0\nsamples = 1\nvalue = [0, 1, 0]\nclass = 1", fillcolor="#39e581"] ;
864 -> 865 ;
866 [label="gini = 0.0\nsamples = 3\nvalue = [0, 0, 3]\nclass = 2", fillcolor="#8139e5"] ;
864 -> 866 ;
867 [label="v_29 <= 19.01\ngini = 0.5\nsamples = 2\nvalue = [1, 0, 1]\nclass = 0", fillcolor="#ffffff"] ;
863 -> 867 ;
868 [label="gini = 0.0\nsamples = 1\nvalue = [1, 0, 0]\nclass = 0", fillcolor="#e58139"] ;
867 -> 868 ;
869 [label="gini = 0.0\nsamples = 1\nvalue = [0, 0, 1]\nclass = 2", fillcolor="#8139e5"] ;
867 -> 869 ;
870 [label="v_17 <= 47.5\ngini = 0.14\nsamples = 27\nvalue = [1, 25, 1]\nclass = 1", fillcolor="#48e78b"] ;
848 -> 870 ;
871 [label="v_15 <= 10.5\ngini = 0.27\nsamples = 13\nvalue = [1, 11, 1]\nclass = 1", fillcolor="#5ae996"] ;
870 -> 871 ;
872 [label="v_10 <= 24.5\ngini = 0.5\nsamples = 6\nvalue = [1, 4, 1]\nclass = 1", fillcolor="#88efb3"] ;
871 -> 872 ;
873 [label="gini = 0.0\nsamples = 4\nvalue = [0, 4, 0]\nclass = 1", fillcolor="#39e581"] ;
872 -> 873 ;
874 [label="v_29 <= 18.92\ngini = 0.5\nsamples = 2\nvalue = [1, 0, 1]\nclass = 0", fillcolor="#ffffff"] ;
872 -> 874 ;
875 [label="gini = 0.0\nsamples = 1\nvalue = [1, 0, 0]\nclass = 0", fillcolor="#e58139"] ;
874 -> 875 ;
876 [label="gini = 0.0\nsamples = 1\nvalue = [0, 0, 1]\nclass = 2", fillcolor="#8139e5"] ;
874 -> 876 ;
877 [label="gini = 0.0\nsamples = 7\nvalue = [0, 7, 0]\nclass = 1", fillcolor="#39e581"] ;
871 -> 877 ;
878 [label="gini = 0.0\nsamples = 14\nvalue = [0, 14, 0]\nclass = 1", fillcolor="#39e581"] ;
870 -> 878 ;
879 [label="v_22 <= 28.28\ngini = 0.05\nsamples = 38\nvalue = [1, 37, 0]\nclass = 1", fillcolor="#3ee684"] ;
847 -> 879 ;
880 [label="gini = 0.0\nsamples = 32\nvalue = [0, 32, 0]\nclass = 1", fillcolor="#39e581"] ;
879 -> 880 ;
881 [label="v_5 <= 36.5\ngini = 0.28\nsamples = 6\nvalue = [1, 5, 0]\nclass = 1", fillcolor="#61ea9a"] ;
879 -> 881 ;
882 [label="v_29 <= 20.7\ngini = 0.5\nsamples = 2\nvalue = [1, 1, 0]\nclass = 0", fillcolor="#ffffff"] ;
881 -> 882 ;
883 [label="gini = 0.0\nsamples = 1\nvalue = [1, 0, 0]\nclass = 0", fillcolor="#e58139"] ;
882 -> 883 ;
884 [label="gini = 0.0\nsamples = 1\nvalue = [0, 1, 0]\nclass = 1", fillcolor="#39e581"] ;
882 -> 884 ;
885 [label="gini = 0.0\nsamples = 4\nvalue = [0, 4, 0]\nclass = 1", fillcolor="#39e581"] ;
881 -> 885 ;
886 [label="gini = 0.0\nsamples = 1\nvalue = [0, 0, 1]\nclass = 2", fillcolor="#8139e5"] ;
846 -> 886 ;
887 [label="v_31 <= 33.5\ngini = 0.6\nsamples = 15\nvalue = [4, 8, 3]\nclass = 1", fillcolor="#b7f6d1"] ;
845 -> 887 ;
888 [label="v_24 <= 16.0\ngini = 0.35\nsamples = 9\nvalue = [0, 7, 2]\nclass = 1", fillcolor="#72eca5"] ;
887 -> 888 ;
889 [label="gini = 0.0\nsamples = 1\nvalue = [0, 0, 1]\nclass = 2", fillcolor="#8139e5"] ;
888 -> 889 ;
890 [label="v_29 <= 27.21\ngini = 0.22\nsamples = 8\nvalue = [0, 7, 1]\nclass = 1", fillcolor="#55e993"] ;
888 -> 890 ;
