digraph Tree {
node [shape=box, style="filled", color="black", fontname="helvetica"] ;
edge [fontname="helvetica"] ;
0 [label="v_22_13 <= 0.5\nentropy = 1.585\nsamples = 1551\nvalue = [517, 517, 517]", fillcolor="#ffffff"] ;
1 [label="v_6_14 <= 0.5\nentropy = 1.553\nsamples = 1281\nvalue = [305, 501, 475]", fillcolor="#f9fefb"] ;
0 -> 1 [labeldistance=2.5, labelangle=45, headlabel="True"] ;
2 [label="v_10_27 <= 0.5\nentropy = 1.565\nsamples = 1025\nvalue = [273, 340, 412]", fillcolor="#f2eafc"] ;
1 -> 2 ;
3 [label="v_6_10 <= 0.5\nentropy = 1.549\nsamples = 857\nvalue = [246, 234, 377]", fillcolor="#e4d5f9"] ;
2 -> 3 ;
4 [label="v_22_23 <= 0.5\nentropy = 1.557\nsamples = 784\nvalue = [216, 233, 335]", fillcolor="#e8dafa"] ;
3 -> 4 ;
5 [label="v_6_11 <= 0.5\nentropy = 1.568\nsamples = 712\nvalue = [199, 227, 286]", fillcolor="#f0e7fc"] ;
4 -> 5 ;
6 [label="v_29_19 <= 0.5\nentropy = 1.565\nsamples = 617\nvalue = [160, 216, 241]", fillcolor="#f7f3fd"] ;
5 -> 6 ;
7 [label="v_29_9 <= 0.5\nentropy = 1.56\nsamples = 511\nvalue = [139, 158, 214]", fillcolor="#ebe0fb"] ;
6 -> 7 ;
8 [label="v_24_25 <= 0.5\nentropy = 1.556\nsamples = 504\nvalue = [132, 158, 214]", fillcolor="#ebdffb"] ;
7 -> 8 ;
9 [label="v_6_12 <= 0.5\nentropy = 1.55\nsamples = 497\nvalue = [125, 158, 214]", fillcolor="#eadefb"] ;
8 -> 9 ;
10 [label="v_6_9 <= 0.5\nentropy = 1.546\nsamples = 392\nvalue = [90, 142, 160]", fillcolor="#f6f1fd"] ;
9 -> 10 ;
11 [label="v_10_26 <= 0.5\nentropy = 1.5350000000000001\nsamples = 373\nvalue = [80, 142, 151]", fillcolor="#faf7fe"] ;
10 -> 11 ;
12 [label="v_17_46 <= 0.5\nentropy = 1.532\nsamples = 334\nvalue = [71, 138, 125]", fillcolor="#f3fdf7"] ;
11 -> 12 ;
13 [label="v_10_24 <= 0.5\nentropy = 1.5290000000000001\nsamples = 318\nvalue = [66, 127, 125]", fillcolor="#fdfffe"] ;
12 -> 13 ;
14 [label="v_22_34 <= 0.5\nentropy = 1.545\nsamples = 262\nvalue = [61, 110, 91]", fillcolor="#e9fcf1"] ;
13 -> 14 ;
15 [label="v_23_9 <= 0.5\nentropy = 1.551\nsamples = 253\nvalue = [60, 102, 91]", fillcolor="#f2fdf6"] ;
14 -> 15 ;
16 [label="v_24_16 <= 0.5\nentropy = 1.536\nsamples = 241\nvalue = [53, 102, 86]", fillcolor="#ebfcf2"] ;
15 -> 16 ;
17 [label="v_17_56 <= 0.5\nentropy = 1.547\nsamples = 221\nvalue = [53, 94, 74]", fillcolor="#e4fbee"] ;
16 -> 17 ;
18 [label="v_6_18 <= 0.5\nentropy = 1.547\nsamples = 197\nvalue = [52, 87, 58]", fillcolor="#d6fae5"] ;
17 -> 18 ;
19 [label="v_22_27 <= 0.5\nentropy = 1.5250000000000001\nsamples = 178\nvalue = [49, 84, 45]", fillcolor="#c9f8dd"] ;
18 -> 19 ;
20 [label="v_31_39 <= 0.5\nentropy = 1.544\nsamples = 164\nvalue = [49, 73, 42]", fillcolor="#d6fae5"] ;
19 -> 20 ;
21 [label="v_24_24 <= 0.5\nentropy = 1.538\nsamples = 160\nvalue = [45, 73, 42]", fillcolor="#cff9e0"] ;
20 -> 21 ;
22 [label="v_6_20 <= 0.5\nentropy = 1.5350000000000001\nsamples = 150\nvalue = [39, 69, 42]", fillcolor="#cef8e0"] ;
21 -> 22 ;
23 [label="v_13_18 <= 0.5\nentropy = 1.5230000000000001\nsamples = 141\nvalue = [33, 66, 42]", fillcolor="#cff9e0"] ;
22 -> 23 ;
24 [label="v_31_56 <= 0.5\nentropy = 1.506\nsamples = 134\nvalue = [28, 64, 42]", fillcolor="#d0f9e1"] ;
23 -> 24 ;
25 [label="v_24_19 <= 0.5\nentropy = 1.487\nsamples = 131\nvalue = [25, 64, 42]", fillcolor="#cef9e0"] ;
24 -> 25 ;
26 [label="v_17_50 <= 0.5\nentropy = 1.473\nsamples = 122\nvalue = [21, 59, 42]", fillcolor="#d5f9e4"] ;
25 -> 26 ;
27 [label="v_5_38 <= 0.5\nentropy = 1.45\nsamples = 115\nvalue = [19, 59, 37]", fillcolor="#c7f8db"] ;
26 -> 27 ;
28 [label="v_19_23 <= 0.5\nentropy = 1.446\nsamples = 105\nvalue = [16, 52, 37]", fillcolor="#d3f9e3"] ;
27 -> 28 ;
29 [label="v_15_22 <= 0.5\nentropy = 1.349\nsamples = 87\nvalue = [9, 47, 31]", fillcolor="#c6f8db"] ;
28 -> 29 ;
30 [label="v_5_37 <= 0.5\nentropy = 1.3\nsamples = 85\nvalue = [7, 47, 31]", fillcolor="#c4f7da"] ;
29 -> 30 ;
31 [label="v_5_39 <= 0.5\nentropy = 1.264\nsamples = 78\nvalue = [5, 42, 31]", fillcolor="#d1f9e2"] ;
30 -> 31 ;
32 [label="v_13_15 <= 0.5\nentropy = 1.197\nsamples = 73\nvalue = [3, 39, 31]", fillcolor="#d9fae7"] ;
31 -> 32 ;
33 [label="v_19_28 <= 0.5\nentropy = 1.089\nsamples = 69\nvalue = [1, 37, 31]", fillcolor="#e0fbeb"] ;
32 -> 33 ;
34 [label="v_24_22 <= 0.5\nentropy = 0.998\nsamples = 65\nvalue = [0, 34, 31]", fillcolor="#eefdf4"] ;
33 -> 34 ;
35 [label="v_15_12 <= 0.5\nentropy = 0.999\nsamples = 60\nvalue = [0, 29, 31]", fillcolor="#f7f2fd"] ;
34 -> 35 ;
36 [label="v_13_19 <= 0.5\nentropy = 0.998\nsamples = 55\nvalue = [0, 29, 26]", fillcolor="#ebfcf2"] ;
35 -> 36 ;
37 [label="v_15_19 <= 0.5\nentropy = 0.999\nsamples = 50\nvalue = [0, 24, 26]", fillcolor="#f5f0fd"] ;
36 -> 37 ;
38 [label="v_29_24 <= 0.5\nentropy = 0.999\nsamples = 46\nvalue = [0, 24, 22]", fillcolor="#effdf5"] ;
37 -> 38 ;
39 [label="v_6_13 <= 0.5\nentropy = 0.985\nsamples = 42\nvalue = [0, 24, 18]", fillcolor="#cef8e0"] ;
38 -> 39 ;
40 [label="v_0_12 <= 0.5\nentropy = 0.811\nsamples = 24\nvalue = [0, 18, 6]", fillcolor="#7beeab"] ;
39 -> 40 ;
41 [label="v_13_14 <= 0.5\nentropy = 0.996\nsamples = 13\nvalue = [0, 7, 6]", fillcolor="#e3fbed"] ;
40 -> 41 ;
42 [label="v_0_13 <= 0.5\nentropy = 0.971\nsamples = 10\nvalue = [0, 4, 6]", fillcolor="#d5bdf6"] ;
41 -> 42 ;
43 [label="v_19_26 <= 0.5\nentropy = 0.811\nsamples = 8\nvalue = [0, 2, 6]", fillcolor="#ab7bee"] ;
42 -> 43 ;
44 [label="entropy = 0.0\nsamples = 5\nvalue = [0, 0, 5]", fillcolor="#8139e5"] ;
43 -> 44 ;
45 [label="v_6_21 <= 0.5\nentropy = 0.918\nsamples = 3\nvalue = [0, 2, 1]", fillcolor="#9cf2c0"] ;
43 -> 45 ;
46 [label="entropy = 0.0\nsamples = 2\nvalue = [0, 2, 0]", fillcolor="#39e581"] ;
45 -> 46 ;
47 [label="entropy = 0.0\nsamples = 1\nvalue = [0, 0, 1]", fillcolor="#8139e5"] ;
45 -> 47 ;
48 [label="entropy = 0.0\nsamples = 2\nvalue = [0, 2, 0]", fillcolor="#39e581"] ;
42 -> 48 ;
49 [label="entropy = 0.0\nsamples = 3\nvalue = [0, 3, 0]", fillcolor="#39e581"] ;
41 -> 49 ;
50 [label="entropy = 0.0\nsamples = 11\nvalue = [0, 11, 0]", fillcolor="#39e581"] ;
40 -> 50 ;
51 [label="v_19_24 <= 0.5\nentropy = 0.918\nsamples = 18\nvalue = [0, 6, 12]", fillcolor="#c09cf2"] ;
39 -> 51 ;
52 [label="entropy = 0.0\nsamples = 6\nvalue = [0, 0, 6]", fillcolor="#8139e5"] ;
51 -> 52 ;
53 [label="v_22_25 <= 0.5\nentropy = 1.0\nsamples = 12\nvalue = [0, 6, 6]", fillcolor="#ffffff"] ;
51 -> 53 ;
54 [label="entropy = 0.0\nsamples = 4\nvalue = [0, 4, 0]", fillcolor="#39e581"] ;
53 -> 54 ;
55 [label="v_5_46 <= 0.5\nentropy = 0.811\nsamples = 8\nvalue = [0, 2, 6]", fillcolor="#ab7bee"] ;
53 -> 55 ;
56 [label="v_15_10 <= 0.5\nentropy = 0.592\nsamples = 7\nvalue = [0, 1, 6]", fillcolor="#965ae9"] ;
55 -> 56 ;
57 [label="entropy = 0.0\nsamples = 1\nvalue = [0, 1, 0]", fillcolor="#39e581"] ;
56 -> 57 ;
58 [label="entropy = 0.0\nsamples = 6\nvalue = [0, 0, 6]", fillcolor="#8139e5"] ;
56 -> 58 ;
59 [label="entropy = 0.0\nsamples = 1\nvalue = [0, 1, 0]", fillcolor="#39e581"] ;
55 -> 59 ;
60 [label="entropy = 0.0\nsamples = 4\nvalue = [0, 0, 4]", fillcolor="#8139e5"] ;
38 -> 60 ;
61 [label="entropy = 0.0\nsamples = 4\nvalue = [0, 0, 4]", fillcolor="#8139e5"] ;
37 -> 61 ;
62 [label="entropy = 0.0\nsamples = 5\nvalue = [0, 5, 0]", fillcolor="#39e581"] ;
36 -> 62 ;
63 [label="entropy = 0.0\nsamples = 5\nvalue = [0, 0, 5]", fillcolor="#8139e5"] ;
35 -> 63 ;
64 [label="entropy = 0.0\nsamples = 5\nvalue = [0, 5, 0]", fillcolor="#39e581"] ;
34 -> 64 ;
65 [label="v_22_25 <= 0.5\nentropy = 0.811\nsamples = 4\nvalue = [1, 3, 0]", fillcolor="#7beeab"] ;
33 -> 65 ;
66 [label="entropy = 0.0\nsamples = 3\nvalue = [0, 3, 0]", fillcolor="#39e581"] ;
65 -> 66 ;
67 [label="entropy = 0.0\nsamples = 1\nvalue = [1, 0, 0]", fillcolor="#e58139"] ;
65 -> 67 ;
68 [label="v_29_20 <= 0.5\nentropy = 1.0\nsamples = 4\nvalue = [2, 2, 0]", fillcolor="#ffffff"] ;
32 -> 68 ;
69 [label="v_5_47 <= 0.5\nentropy = 0.918\nsamples = 3\nvalue = [1, 2, 0]", fillcolor="#9cf2c0"] ;
68 -> 69 ;
70 [label="entropy = 0.0\nsamples = 2\nvalue = [0, 2, 0]", fillcolor="#39e581"] ;
69 -> 70 ;
71 [label="entropy = 0.0\nsamples = 1\nvalue = [1, 0, 0]", fillcolor="#e58139"] ;
69 -> 71 ;
72 [label="entropy = 0.0\nsamples = 1\nvalue = [1, 0, 0]", fillcolor="#e58139"] ;
68 -> 72 ;
73 [label="v_29_18 <= 0.5\nentropy = 0.971\nsamples = 5\nvalue = [2, 3, 0]", fillcolor="#bdf6d5"] ;
31 -> 73 ;
74 [label="entropy = 0.0\nsamples = 2\nvalue = [0, 2, 0]", fillcolor="#39e581"] ;
73 -> 74 ;
75 [label="v_15_10 <= 0.5\nentropy = 0.918\nsamples = 3\nvalue = [2, 1, 0]", fillcolor="#f2c09c"] ;
73 -> 75 ;
76 [label="entropy = 0.0\nsamples = 2\nvalue = [2, 0, 0]", fillcolor="#e58139"] ;
75 -> 76 ;
77 [label="entropy = 0.0\nsamples = 1\nvalue = [0, 1, 0]", fillcolor="#39e581"] ;
75 -> 77 ;
78 [label="v_19_24 <= 0.5\nentropy = 0.863\nsamples = 7\nvalue = [2, 5, 0]", fillcolor="#88efb3"] ;
30 -> 78 ;
79 [label="entropy = 0.0\nsamples = 5\nvalue = [0, 5, 0]", fillcolor="#39e581"] ;
78 -> 79 ;
80 [label="entropy = 0.0\nsamples = 2\nvalue = [2, 0, 0]", fillcolor="#e58139"] ;
78 -> 80 ;
81 [label="entropy = 0.0\nsamples = 2\nvalue = [2, 0, 0]", fillcolor="#e58139"] ;
29 -> 81 ;
82 [label="v_29_18 <= 0.5\nentropy = 1.572\nsamples = 18\nvalue = [7, 5, 6]", fillcolor="#fdf4ee"] ;
28 -> 82 ;
83 [label="v_22_26 <= 0.5\nentropy = 1.46\nsamples = 13\nvalue = [6, 5, 2]", fillcolor="#fcefe6"] ;
82 -> 83 ;
84 [label="v_31_63 <= 0.5\nentropy = 1.0\nsamples = 10\nvalue = [5, 5, 0]", fillcolor="#ffffff"] ;
83 -> 84 ;
85 [label="v_31_29 <= 0.5\nentropy = 0.9540000000000001\nsamples = 8\nvalue = [3, 5, 0]", fillcolor="#b0f5cd"] ;
84 -> 85 ;
86 [label="v_33_37 <= 0.5\nentropy = 0.65\nsamples = 6\nvalue = [1, 5, 0]", fillcolor="#61ea9a"] ;
85 -> 86 ;
87 [label="entropy = 0.0\nsamples = 5\nvalue = [0, 5, 0]", fillcolor="#39e581"] ;
86 -> 87 ;
88 [label="entropy = 0.0\nsamples = 1\nvalue = [1, 0, 0]", fillcolor="#e58139"] ;
86 -> 88 ;
89 [label="entropy = 0.0\nsamples = 2\nvalue = [2, 0, 0]", fillcolor="#e58139"] ;
85 -> 89 ;
90 [label="entropy = 0.0\nsamples = 2\nvalue = [2, 0, 0]", fillcolor="#e58139"] ;
84 -> 90 ;
91 [label="v_15_11 <= 0.5\nentropy = 0.918\nsamples = 3\nvalue = [1, 0, 2]", fillcolor="#c09cf2"] ;
83 -> 91 ;
92 [label="entropy = 0.0\nsamples = 2\nvalue = [0, 0, 2]", fillcolor="#8139e5"] ;
91 -> 92 ;
93 [label="entropy = 0.0\nsamples = 1\nvalue = [1, 0, 0]", fillcolor="#e58139"] ;
91 -> 93 ;
94 [label="v_17_52 <= 0.5\nentropy = 0.722\nsamples = 5\nvalue = [1, 0, 4]", fillcolor="#a06aec"] ;
82 -> 94 ;
95 [label="entropy = 0.0\nsamples = 4\nvalue = [0, 0, 4]", fillcolor="#8139e5"] ;
94 -> 95 ;
96 [label="entropy = 0.0\nsamples = 1\nvalue = [1, 0, 0]", fillcolor="#e58139"] ;
94 -> 96 ;
97 [label="v_17_49 <= 0.5\nentropy = 0.881\nsamples = 10\nvalue = [3, 7, 0]", fillcolor="#8ef0b7"] ;
27 -> 97 ;
98 [label="entropy = 0.0\nsamples = 7\nvalue = [0, 7, 0]", fillcolor="#39e581"] ;
97 -> 98 ;
99 [label="entropy = 0.0\nsamples = 3\nvalue = [3, 0, 0]", fillcolor="#e58139"] ;
97 -> 99 ;
100 [label="v_24_20 <= 0.5\nentropy = 0.863\nsamples = 7\nvalue = [2, 0, 5]", fillcolor="#b388ef"] ;
26 -> 100 ;
101 [label="entropy = 0.0\nsamples = 5\nvalue = [0, 0, 5]", fillcolor="#8139e5"] ;
100 -> 101 ;
102 [label="entropy = 0.0\nsamples = 2\nvalue = [2, 0, 0]", fillcolor="#e58139"] ;
100 -> 102 ;
103 [label="v_19_26 <= 0.5\nentropy = 0.991\nsamples = 9\nvalue = [4, 5, 0]", fillcolor="#d7fae6"] ;
25 -> 103 ;
104 [label="entropy = 0.0\nsamples = 5\nvalue = [0, 5, 0]", fillcolor="#39e581"] ;
103 -> 104 ;
105 [label="entropy = 0.0\nsamples = 4\nvalue = [4, 0, 0]", fillcolor="#e58139"] ;
103 -> 105 ;
106 [label="entropy = 0.0\nsamples = 3\nvalue = [3, 0, 0]", fillcolor="#e58139"] ;
24 -> 106 ;
107 [label="v_15_18 <= 0.5\nentropy = 0.863\nsamples = 7\nvalue = [5, 2, 0]", fillcolor="#efb388"] ;
23 -> 107 ;
108 [label="entropy = 0.0\nsamples = 5\nvalue = [5, 0, 0]", fillcolor="#e58139"] ;
107 -> 108 ;
109 [label="entropy = 0.0\nsamples = 2\nvalue = [0, 2, 0]", fillcolor="#39e581"] ;
107 -> 109 ;
110 [label="v_13_22 <= 0.5\nentropy = 0.918\nsamples = 9\nvalue = [6, 3, 0]", fillcolor="#f2c09c"] ;
22 -> 110 ;
111 [label="v_5_40 <= 0.5\nentropy = 0.592\nsamples = 7\nvalue = [6, 1, 0]", fillcolor="#e9965a"] ;
110 -> 111 ;
112 [label="entropy = 0.0\nsamples = 6\nvalue = [6, 0, 0]", fillcolor="#e58139"] ;
111 -> 112 ;
113 [label="entropy = 0.0\nsamples = 1\nvalue = [0, 1, 0]", fillcolor="#39e581"] ;
111 -> 113 ;
114 [label="entropy = 0.0\nsamples = 2\nvalue = [0, 2, 0]", fillcolor="#39e581"] ;
110 -> 114 ;
115 [label="v_33_31 <= 0.5\nentropy = 0.971\nsamples = 10\nvalue = [6, 4, 0]", fillcolor="#f6d5bd"] ;
21 -> 115 ;
116 [label="v_5_50 <= 0.5\nentropy = 0.918\nsamples = 6\nvalue = [2, 4, 0]", fillcolor="#9cf2c0"] ;
115 -> 116 ;
117 [label="v_31_63 <= 0.5\nentropy = 0.722\nsamples = 5\nvalue = [1, 4, 0]", fillcolor="#6aeca0"] ;
116 -> 117 ;
118 [label="entropy = 0.0\nsamples = 4\nvalue = [0, 4, 0]", fillcolor="#39e581"] ;
117 -> 118 ;
119 [label="entropy = 0.0\nsamples = 1\nvalue = [1, 0, 0]", fillcolor="#e58139"] ;
117 -> 119 ;
120 [label="entropy = 0.0\nsamples = 1\nvalue = [1, 0, 0]", fillcolor="#e58139"] ;
116 -> 120 ;
121 [label="entropy = 0.0\nsamples = 4\nvalue = [4, 0, 0]", fillcolor="#e58139"] ;
115 -> 121 ;
122 [label="entropy = 0.0\nsamples = 4\nvalue = [4, 0, 0]", fillcolor="#e58139"] ;
20 -> 122 ;
123 [label="v_13_16 <= 0.5\nentropy = 0.75\nsamples = 14\nvalue = [0, 11, 3]", fillcolor="#6feca3"] ;
19 -> 123 ;
124 [label="v_24_17 <= 0.5\nentropy = 0.41400000000000003\nsamples = 12\nvalue = [0, 11, 1]", fillcolor="#4be78c"] ;
123 -> 124 ;
125 [label="entropy = 0.0\nsamples = 11\nvalue = [0, 11, 0]", fillcolor="#39e581"] ;
124 -> 125 ;
126 [label="entropy = 0.0\nsamples = 1\nvalue = [0, 0, 1]", fillcolor="#8139e5"] ;
124 -> 126 ;
127 [label="entropy = 0.0\nsamples = 2\nvalue = [0, 0, 2]", fillcolor="#8139e5"] ;
123 -> 127 ;
128 [label="v_15_19 <= 0.5\nentropy = 1.216\nsamples = 19\nvalue = [3, 3, 13]", fillcolor="#b083ef"] ;
18 -> 128 ;
129 [label="v_0_12 <= 0.5\nentropy = 0.722\nsamples = 15\nvalue = [0, 3, 12]", fillcolor="#a06aec"] ;
128 -> 129 ;
130 [label="entropy = 0.0\nsamples = 10\nvalue = [0, 0, 10]", fillcolor="#8139e5"] ;
129 -> 130 ;
131 [label="v_5_50 <= 0.5\nentropy = 0.971\nsamples = 5\nvalue = [0, 3, 2]", fillcolor="#bdf6d5"] ;
129 -> 131 ;
132 [label="v_15_14 <= 0.5\nentropy = 0.918\nsamples = 3\nvalue = [0, 1, 2]", fillcolor="#c09cf2"] ;
131 -> 132 ;
133 [label="entropy = 0.0\nsamples = 2\nvalue = [0, 0, 2]", fillcolor="#8139e5"] ;
132 -> 133 ;
134 [label="entropy = 0.0\nsamples = 1\nvalue = [0, 1, 0]", fillcolor="#39e581"] ;
132 -> 134 ;
135 [label="entropy = 0.0\nsamples = 2\nvalue = [0, 2, 0]", fillcolor="#39e581"] ;
131 -> 135 ;
136 [label="v_23_13 <= 0.5\nentropy = 0.811\nsamples = 4\nvalue = [3, 0, 1]", fillcolor="#eeab7b"] ;
128 -> 136 ;
137 [label="entropy = 0.0\nsamples = 3\nvalue = [3, 0, 0]", fillcolor="#e58139"] ;
136 -> 137 ;
138 [label="entropy = 0.0\nsamples = 1\nvalue = [0, 0, 1]", fillcolor="#8139e5"] ;
136 -> 138 ;
139 [label="v_33_30 <= 0.5\nentropy = 1.099\nsamples = 24\nvalue = [1, 7, 16]", fillcolor="#bc96f1"] ;
17 -> 139 ;
140 [label="v_24_19 <= 0.5\nentropy = 0.792\nsamples = 21\nvalue = [0, 5, 16]", fillcolor="#a877ed"] ;
139 -> 140 ;
141 [label="v_10_30 <= 0.5\nentropy = 0.503\nsamples = 18\nvalue = [0, 2, 16]", fillcolor="#9152e8"] ;
140 -> 141 ;
142 [label="entropy = 0.0\nsamples = 14\nvalue = [0, 0, 14]", fillcolor="#8139e5"] ;
141 -> 142 ;
143 [label="v_5_48 <= 0.5\nentropy = 1.0\nsamples = 4\nvalue = [0, 2, 2]", fillcolor="#ffffff"] ;
141 -> 143 ;
144 [label="entropy = 0.0\nsamples = 2\nvalue = [0, 2, 0]", fillcolor="#39e581"] ;
143 -> 144 ;
145 [label="entropy = 0.0\nsamples = 2\nvalue = [0, 0, 2]", fillcolor="#8139e5"] ;
143 -> 145 ;
146 [label="entropy = 0.0\nsamples = 3\nvalue = [0, 3, 0]", fillcolor="#39e581"] ;
140 -> 146 ;
147 [label="v_24_17 <= 0.5\nentropy = 0.918\nsamples = 3\nvalue = [1, 2, 0]", fillcolor="#9cf2c0"] ;
139 -> 147 ;
148 [label="entropy = 0.0\nsamples = 2\nvalue = [0, 2, 0]", fillcolor="#39e581"] ;
147 -> 148 ;
149 [label="entropy = 0.0\nsamples = 1\nvalue = [1, 0, 0]", fillcolor="#e58139"] ;
147 -> 149 ;
150 [label="v_13_22 <= 0.5\nentropy = 0.971\nsamples = 20\nvalue = [0, 8, 12]", fillcolor="#d5bdf6"] ;
16 -> 150 ;
151 [label="v_10_33 <= 0.5\nentropy = 0.722\nsamples = 15\nvalue = [0, 3, 12]", fillcolor="#a06aec"] ;
150 -> 151 ;
152 [label="entropy = 0.0\nsamples = 12\nvalue = [0, 0, 12]", fillcolor="#8139e5"] ;
151 -> 152 ;
153 [label="entropy = 0.0\nsamples = 3\nvalue = [0, 3, 0]", fillcolor="#39e581"] ;
151 -> 153 ;
154 [label="entropy = 0.0\nsamples = 5\nvalue = [0, 5, 0]", fillcolor="#39e581"] ;
150 -> 154 ;
155 [label="v_33_34 <= 0.5\nentropy = 0.98\nsamples = 12\nvalue = [7, 0, 5]", fillcolor="#f8dbc6"] ;
15 -> 155 ;
156 [label="v_24_15 <= 0.5\nentropy = 0.544\nsamples = 8\nvalue = [7, 0, 1]", fillcolor="#e99355"] ;
155 -> 156 ;
157 [label="entropy = 0.0\nsamples = 7\nvalue = [7, 0, 0]", fillcolor="#e58139"] ;
156 -> 157 ;
158 [label="entropy = 0.0\nsamples = 1\nvalue = [0, 0, 1]", fillcolor="#8139e5"] ;
156 -> 158 ;
159 [label="entropy = 0.0\nsamples = 4\nvalue = [0, 0, 4]", fillcolor="#8139e5"] ;
155 -> 159 ;
160 [label="v_10_29 <= 0.5\nentropy = 0.503\nsamples = 9\nvalue = [1, 8, 0]", fillcolor="#52e891"] ;
14 -> 160 ;
161 [label="entropy = 0.0\nsamples = 8\nvalue = [0, 8, 0]", fillcolor="#39e581"] ;
160 -> 161 ;
162 [label="entropy = 0.0\nsamples = 1\nvalue = [1, 0, 0]", fillcolor="#e58139"] ;
160 -> 162 ;
163 [label="v_17_48 <= 0.5\nentropy = 1.27\nsamples = 56\nvalue = [5, 17, 34]", fillcolor="#c8a9f4"] ;
13 -> 163 ;
164 [label="v_5_37 <= 0.5\nentropy = 1.145\nsamples = 49\nvalue = [4, 11, 34]", fillcolor="#b387ef"] ;
163 -> 164 ;
165 [label="v_31_43 <= 0.5\nentropy = 0.922\nsamples = 40\nvalue = [4, 4, 32]", fillcolor="#9d65eb"] ;
164 -> 165 ;
166 [label="v_22_26 <= 0.5\nentropy = 0.774\nsamples = 38\nvalue = [2, 4, 32]", fillcolor="#975cea"] ;
165 -> 166 ;
167 [label="v_17_49 <= 0.5\nentropy = 0.614\nsamples = 36\nvalue = [2, 2, 32]", fillcolor="#9050e8"] ;
166 -> 167 ;
168 [label="v_31_28 <= 0.5\nentropy = 0.34500000000000003\nsamples = 31\nvalue = [2, 0, 29]", fillcolor="#8a47e7"] ;
167 -> 168 ;
169 [label="v_31_52 <= 0.5\nentropy = 0.211\nsamples = 30\nvalue = [1, 0, 29]", fillcolor="#8540e6"] ;
168 -> 169 ;
170 [label="entropy = 0.0\nsamples = 29\nvalue = [0, 0, 29]", fillcolor="#8139e5"] ;
169 -> 170 ;
171 [label="entropy = 0.0\nsamples = 1\nvalue = [1, 0, 0]", fillcolor="#e58139"] ;
169 -> 171 ;
172 [label="entropy = 0.0\nsamples = 1\nvalue = [1, 0, 0]", fillcolor="#e58139"] ;
168 -> 172 ;
173 [label="v_5_38 <= 0.5\nentropy = 0.971\nsamples = 5\nvalue = [0, 2, 3]", fillcolor="#d5bdf6"] ;
167 -> 173 ;
174 [label="v_22_24 <= 0.5\nentropy = 0.918\nsamples = 3\nvalue = [0, 2, 1]", fillcolor="#9cf2c0"] ;
173 -> 174 ;
175 [label="entropy = 0.0\nsamples = 1\nvalue = [0, 0, 1]", fillcolor="#8139e5"] ;
174 -> 175 ;
176 [label="entropy = 0.0\nsamples = 2\nvalue = [0, 2, 0]", fillcolor="#39e581"] ;
174 -> 176 ;
177 [label="entropy = 0.0\nsamples = 2\nvalue = [0, 0, 2]", fillcolor="#8139e5"] ;
173 -> 177 ;
178 [label="entropy = 0.0\nsamples = 2\nvalue = [0, 2, 0]", fillcolor="#39e581"] ;
166 -> 178 ;
179 [label="entropy = 0.0\nsamples = 2\nvalue = [2, 0, 0]", fillcolor="#e58139"] ;
165 -> 179 ;
180 [label="v_19_23 <= 0.5\nentropy = 0.764\nsamples = 9\nvalue = [0, 7, 2]", fillcolor="#72eca5"] ;
164 -> 180 ;
181 [label="entropy = 0.0\nsamples = 2\nvalue = [0, 0, 2]", fillcolor="#8139e5"] ;
180 -> 181 ;
182 [label="entropy = 0.0\nsamples = 7\nvalue = [0, 7, 0]", fillcolor="#39e581"] ;
180 -> 182 ;
183 [label="v_31_28 <= 0.5\nentropy = 0.592\nsamples = 7\nvalue = [1, 6, 0]", fillcolor="#5ae996"] ;
163 -> 183 ;
184 [label="entropy = 0.0\nsamples = 6\nvalue = [0, 6, 0]", fillcolor="#39e581"] ;
183 -> 184 ;
185 [label="entropy = 0.0\nsamples = 1\nvalue = [1, 0, 0]", fillcolor="#e58139"] ;
183 -> 185 ;
186 [label="v_15_10 <= 0.5\nentropy = 0.896\nsamples = 16\nvalue = [5, 11, 0]", fillcolor="#93f1ba"] ;
12 -> 186 ;
187 [label="entropy = 0.0\nsamples = 4\nvalue = [4, 0, 0]", fillcolor="#e58139"] ;
186 -> 187 ;
188 [label="v_31_38 <= 0.5\nentropy = 0.41400000000000003\nsamples = 12\nvalue = [1, 11, 0]", fillcolor="#4be78c"] ;
186 -> 188 ;
189 [label="entropy = 0.0\nsamples = 11\nvalue = [0, 11, 0]", fillcolor="#39e581"] ;
188 -> 189 ;
190 [label="entropy = 0.0\nsamples = 1\nvalue = [1, 0, 0]", fillcolor="#e58139"] ;
188 -> 190 ;
191 [label="v_22_26 <= 0.5\nentropy = 1.215\nsamples = 39\nvalue = [9, 4, 26]", fillcolor="#b88ff0"] ;
11 -> 191 ;
192 [label="v_33_30 <= 0.5\nentropy = 1.477\nsamples = 24\nvalue = [9, 4, 11]", fillcolor="#eee5fc"] ;
191 -> 192 ;
193 [label="v_29_18 <= 0.5\nentropy = 1.379\nsamples = 14\nvalue = [8, 4, 2]", fillcolor="#f5cdb0"] ;
192 -> 193 ;
194 [label="v_6_18 <= 0.5\nentropy = 0.722\nsamples = 10\nvalue = [8, 2, 0]", fillcolor="#eca06a"] ;
193 -> 194 ;
195 [label="v_5_43 <= 0.5\nentropy = 0.503\nsamples = 9\nvalue = [8, 1, 0]", fillcolor="#e89152"] ;
194 -> 195 ;
196 [label="entropy = 0.0\nsamples = 8\nvalue = [8, 0, 0]", fillcolor="#e58139"] ;
195 -> 196 ;
197 [label="entropy = 0.0\nsamples = 1\nvalue = [0, 1, 0]", fillcolor="#39e581"] ;
195 -> 197 ;
198 [label="entropy = 0.0\nsamples = 1\nvalue = [0, 1, 0]", fillcolor="#39e581"] ;
194 -> 198 ;
199 [label="v_15_10 <= 0.5\nentropy = 1.0\nsamples = 4\nvalue = [0, 2, 2]", fillcolor="#ffffff"] ;
193 -> 199 ;
200 [label="entropy = 0.0\nsamples = 1\nvalue = [0, 1, 0]", fillcolor="#39e581"] ;
199 -> 200 ;
201 [label="v_31_34 <= 0.5\nentropy = 0.918\nsamples = 3\nvalue = [0, 1, 2]", fillcolor="#c09cf2"] ;
199 -> 201 ;
202 [label="entropy = 0.0\nsamples = 2\nvalue = [0, 0, 2]", fillcolor="#8139e5"] ;
201 -> 202 ;
203 [label="entropy = 0.0\nsamples = 1\nvalue = [0, 1, 0]", fillcolor="#39e581"] ;
201 -> 203 ;
204 [label="v_13_15 <= 0.5\nentropy = 0.46900000000000003\nsamples = 10\nvalue = [1, 0, 9]", fillcolor="#8f4fe8"] ;
192 -> 204 ;
205 [label="entropy = 0.0\nsamples = 9\nvalue = [0, 0, 9]", fillcolor="#8139e5"] ;
204 -> 205 ;
206 [label="entropy = 0.0\nsamples = 1\nvalue = [1, 0, 0]", fillcolor="#e58139"] ;
204 -> 206 ;
207 [label="entropy = 0.0\nsamples = 15\nvalue = [0, 0, 15]", fillcolor="#8139e5"] ;
191 -> 207 ;
208 [label="v_17_54 <= 0.5\nentropy = 0.998\nsamples = 19\nvalue = [10, 0, 9]", fillcolor="#fcf2eb"] ;
10 -> 208 ;
209 [label="v_17_47 <= 0.5\nentropy = 0.971\nsamples = 15\nvalue = [6, 0, 9]", fillcolor="#d5bdf6"] ;
208 -> 209 ;
210 [label="v_5_45 <= 0.5\nentropy = 0.89\nsamples = 13\nvalue = [4, 0, 9]", fillcolor="#b991f1"] ;
209 -> 210 ;
211 [label="v_19_20 <= 0.5\nentropy = 0.684\nsamples = 11\nvalue = [2, 0, 9]", fillcolor="#9d65eb"] ;
210 -> 211 ;
212 [label="entropy = 0.0\nsamples = 8\nvalue = [0, 0, 8]", fillcolor="#8139e5"] ;
211 -> 212 ;
213 [label="v_23_3 <= 0.5\nentropy = 0.918\nsamples = 3\nvalue = [2, 0, 1]", fillcolor="#f2c09c"] ;
211 -> 213 ;
214 [label="entropy = 0.0\nsamples = 1\nvalue = [0, 0, 1]", fillcolor="#8139e5"] ;
213 -> 214 ;
215 [label="entropy = 0.0\nsamples = 2\nvalue = [2, 0, 0]", fillcolor="#e58139"] ;
213 -> 215 ;
216 [label="entropy = 0.0\nsamples = 2\nvalue = [2, 0, 0]", fillcolor="#e58139"] ;
210 -> 216 ;
217 [label="entropy = 0.0\nsamples = 2\nvalue = [2, 0, 0]", fillcolor="#e58139"] ;
209 -> 217 ;
218 [label="entropy = 0.0\nsamples = 4\nvalue = [4, 0, 0]", fillcolor="#e58139"] ;
208 -> 218 ;
219 [label="v_23_4 <= 0.5\nentropy = 1.435\nsamples = 105\nvalue = [35, 16, 54]", fillcolor="#ddc9f8"] ;
9 -> 219 ;
220 [label="v_5_39 <= 0.5\nentropy = 1.474\nsamples = 96\nvalue = [35, 16, 45]", fillcolor="#eadffb"] ;
219 -> 220 ;
221 [label="v_0_13 <= 0.5\nentropy = 1.467\nsamples = 84\nvalue = [35, 13, 36]", fillcolor="#fcfbfe"] ;
220 -> 221 ;
222 [label="v_17_52 <= 0.5\nentropy = 1.424\nsamples = 77\nvalue = [31, 10, 36]", fillcolor="#f1e9fc"] ;
221 -> 222 ;
223 [label="v_22_27 <= 0.5\nentropy = 1.358\nsamples = 73\nvalue = [31, 7, 35]", fillcolor="#f3ecfd"] ;
222 -> 223 ;
224 [label="v_33_28 <= 0.5\nentropy = 1.295\nsamples = 71\nvalue = [31, 5, 35]", fillcolor="#f2ebfc"] ;
223 -> 224 ;
225 [label="v_29_17 <= 0.5\nentropy = 1.2530000000000001\nsamples = 46\nvalue = [26, 3, 17]", fillcolor="#f7d8c2"] ;
224 -> 225 ;
226 [label="v_31_28 <= 0.5\nentropy = 0.998\nsamples = 23\nvalue = [17, 1, 5]", fillcolor="#eeab7b"] ;
225 -> 226 ;
227 [label="v_31_26 <= 0.5\nentropy = 0.773\nsamples = 22\nvalue = [17, 0, 5]", fillcolor="#eda673"] ;
226 -> 227 ;
228 [label="v_5_44 <= 0.5\nentropy = 0.523\nsamples = 17\nvalue = [15, 0, 2]", fillcolor="#e89253"] ;
227 -> 228 ;
229 [label="entropy = 0.0\nsamples = 13\nvalue = [13, 0, 0]", fillcolor="#e58139"] ;
228 -> 229 ;
230 [label="v_33_29 <= 0.5\nentropy = 1.0\nsamples = 4\nvalue = [2, 0, 2]", fillcolor="#ffffff"] ;
228 -> 230 ;
231 [label="entropy = 0.0\nsamples = 2\nvalue = [2, 0, 0]", fillcolor="#e58139"] ;
230 -> 231 ;
232 [label="entropy = 0.0\nsamples = 2\nvalue = [0, 0, 2]", fillcolor="#8139e5"] ;
230 -> 232 ;
233 [label="v_22_28 <= 0.5\nentropy = 0.971\nsamples = 5\nvalue = [2, 0, 3]", fillcolor="#d5bdf6"] ;
227 -> 233 ;
234 [label="entropy = 0.0\nsamples = 3\nvalue = [0, 0, 3]", fillcolor="#8139e5"] ;
233 -> 234 ;
235 [label="entropy = 0.0\nsamples = 2\nvalue = [2, 0, 0]", fillcolor="#e58139"] ;
233 -> 235 ;
236 [label="entropy = 0.0\nsamples = 1\nvalue = [0, 1, 0]", fillcolor="#39e581"] ;
226 -> 236 ;
237 [label="v_31_26 <= 0.5\nentropy = 1.326\nsamples = 23\nvalue = [9, 2, 12]", fillcolor="#e4d5f9"] ;
225 -> 237 ;
238 [label="v_22_25 <= 0.5\nentropy = 0.9490000000000001\nsamples = 19\nvalue = [7, 0, 12]", fillcolor="#caacf4"] ;
237 -> 238 ;
239 [label="v_5_44 <= 0.5\nentropy = 0.98\nsamples = 12\nvalue = [7, 0, 5]", fillcolor="#f8dbc6"] ;
238 -> 239 ;
240 [label="v_17_59 <= 0.5\nentropy = 0.881\nsamples = 10\nvalue = [7, 0, 3]", fillcolor="#f0b78e"] ;
239 -> 240 ;
241 [label="v_31_33 <= 0.5\nentropy = 0.544\nsamples = 8\nvalue = [7, 0, 1]", fillcolor="#e99355"] ;
240 -> 241 ;
242 [label="entropy = 0.0\nsamples = 7\nvalue = [7, 0, 0]", fillcolor="#e58139"] ;
241 -> 242 ;
243 [label="entropy = 0.0\nsamples = 1\nvalue = [0, 0, 1]", fillcolor="#8139e5"] ;
241 -> 243 ;
244 [label="entropy = 0.0\nsamples = 2\nvalue = [0, 0, 2]", fillcolor="#8139e5"] ;
240 -> 244 ;
245 [label="entropy = 0.0\nsamples = 2\nvalue = [0, 0, 2]", fillcolor="#8139e5"] ;
239 -> 245 ;
246 [label="entropy = 0.0\nsamples = 7\nvalue = [0, 0, 7]", fillcolor="#8139e5"] ;
238 -> 246 ;
247 [label="v_5_40 <= 0.5\nentropy = 1.0\nsamples = 4\nvalue = [2, 2, 0]", fillcolor="#ffffff"] ;
237 -> 247 ;
248 [label="entropy = 0.0\nsamples = 2\nvalue = [0, 2, 0]", fillcolor="#39e581"] ;
247 -> 248 ;
249 [label="entropy = 0.0\nsamples = 2\nvalue = [2, 0, 0]", fillcolor="#e58139"] ;
247 -> 249 ;
250 [label="v_31_28 <= 0.5\nentropy = 1.097\nsamples = 25\nvalue = [5, 2, 18]", fillcolor="#ad7eee"] ;
224 -> 250 ;
251 [label="v_17_49 <= 0.5\nentropy = 0.868\nsamples = 16\nvalue = [1, 2, 13]", fillcolor="#9c63eb"] ;
250 -> 251 ;
252 [label="v_15_13 <= 0.5\nentropy = 0.371\nsamples = 14\nvalue = [0, 1, 13]", fillcolor="#8b48e7"] ;
251 -> 252 ;
253 [label="entropy = 0.0\nsamples = 13\nvalue = [0, 0, 13]", fillcolor="#8139e5"] ;
252 -> 253 ;
254 [label="entropy = 0.0\nsamples = 1\nvalue = [0, 1, 0]", fillcolor="#39e581"] ;
252 -> 254 ;
255 [label="v_19_20 <= 0.5\nentropy = 1.0\nsamples = 2\nvalue = [1, 1, 0]", fillcolor="#ffffff"] ;
251 -> 255 ;
256 [label="entropy = 0.0\nsamples = 1\nvalue = [0, 1, 0]", fillcolor="#39e581"] ;
255 -> 256 ;
257 [label="entropy = 0.0\nsamples = 1\nvalue = [1, 0, 0]", fillcolor="#e58139"] ;
255 -> 257 ;
258 [label="v_29_18 <= 0.5\nentropy = 0.991\nsamples = 9\nvalue = [4, 0, 5]", fillcolor="#e6d7fa"] ;
250 -> 258 ;
259 [label="v_22_26 <= 0.5\nentropy = 0.65\nsamples = 6\nvalue = [1, 0, 5]", fillcolor="#9a61ea"] ;
258 -> 259 ;
260 [label="entropy = 0.0\nsamples = 5\nvalue = [0, 0, 5]", fillcolor="#8139e5"] ;
259 -> 260 ;
261 [label="entropy = 0.0\nsamples = 1\nvalue = [1, 0, 0]", fillcolor="#e58139"] ;
259 -> 261 ;
262 [label="entropy = 0.0\nsamples = 3\nvalue = [3, 0, 0]", fillcolor="#e58139"] ;
258 -> 262 ;
263 [label="entropy = 0.0\nsamples = 2\nvalue = [0, 2, 0]", fillcolor="#39e581"] ;
223 -> 263 ;
264 [label="v_15_10 <= 0.5\nentropy = 0.811\nsamples = 4\nvalue = [0, 3, 1]", fillcolor="#7beeab"] ;
222 -> 264 ;
265 [label="entropy = 0.0\nsamples = 3\nvalue = [0, 3, 0]", fillcolor="#39e581"] ;
264 -> 265 ;
266 [label="entropy = 0.0\nsamples = 1\nvalue = [0, 0, 1]", fillcolor="#8139e5"] ;
264 -> 266 ;
267 [label="v_23_3 <= 0.5\nentropy = 0.985\nsamples = 7\nvalue = [4, 3, 0]", fillcolor="#f8e0ce"] ;
221 -> 267 ;
268 [label="entropy = 0.0\nsamples = 4\nvalue = [4, 0, 0]", fillcolor="#e58139"] ;
267 -> 268 ;
269 [label="entropy = 0.0\nsamples = 3\nvalue = [0, 3, 0]", fillcolor="#39e581"] ;
267 -> 269 ;
270 [label="v_15_11 <= 0.5\nentropy = 0.811\nsamples = 12\nvalue = [0, 3, 9]", fillcolor="#ab7bee"] ;
220 -> 270 ;
271 [label="entropy = 0.0\nsamples = 9\nvalue = [0, 0, 9]", fillcolor="#8139e5"] ;
270 -> 271 ;
272 [label="entropy = 0.0\nsamples = 3\nvalue = [0, 3, 0]", fillcolor="#39e581"] ;
270 -> 272 ;
273 [label="entropy = 0.0\nsamples = 9\nvalue = [0, 0, 9]", fillcolor="#8139e5"] ;
219 -> 273 ;
274 [label="entropy = 0.0\nsamples = 7\nvalue = [7, 0, 0]", fillcolor="#e58139"] ;
8 -> 274 ;
275 [label="entropy = 0.0\nsamples = 7\nvalue = [7, 0, 0]", fillcolor="#e58139"] ;
7 -> 275 ;
276 [label="v_17_51 <= 0.5\nentropy = 1.441\nsamples = 106\nvalue = [21, 58, 27]", fillcolor="#b1f5ce"] ;
6 -> 276 ;
277 [label="v_31_27 <= 0.5\nentropy = 1.371\nsamples = 95\nvalue = [19, 57, 19]", fillcolor="#9cf2c0"] ;
276 -> 277 ;
278 [label="v_10_24 <= 0.5\nentropy = 1.478\nsamples = 73\nvalue = [18, 38, 17]", fillcolor="#b7f6d1"] ;
277 -> 278 ;
279 [label="v_10_29 <= 0.5\nentropy = 1.561\nsamples = 55\nvalue = [17, 23, 15]", fillcolor="#e0fbeb"] ;
278 -> 279 ;
280 [label="v_24_15 <= 0.5\nentropy = 1.5310000000000001\nsamples = 50\nvalue = [17, 22, 11]", fillcolor="#e1fbec"] ;
279 -> 280 ;
281 [label="v_15_15 <= 0.5\nentropy = 1.159\nsamples = 25\nvalue = [9, 15, 1]", fillcolor="#b5f5d0"] ;
280 -> 281 ;
282 [label="v_33_39 <= 0.5\nentropy = 0.9540000000000001\nsamples = 24\nvalue = [9, 15, 0]", fillcolor="#b0f5cd"] ;
281 -> 282 ;
283 [label="v_24_28 <= 0.5\nentropy = 0.902\nsamples = 22\nvalue = [7, 15, 0]", fillcolor="#95f1bc"] ;
282 -> 283 ;
284 [label="v_22_26 <= 0.5\nentropy = 0.811\nsamples = 20\nvalue = [5, 15, 0]", fillcolor="#7beeab"] ;
283 -> 284 ;
285 [label="v_0_12 <= 0.5\nentropy = 0.9400000000000001\nsamples = 14\nvalue = [5, 9, 0]", fillcolor="#a7f3c7"] ;
284 -> 285 ;
286 [label="v_6_12 <= 0.5\nentropy = 0.811\nsamples = 4\nvalue = [3, 1, 0]", fillcolor="#eeab7b"] ;
285 -> 286 ;
287 [label="entropy = 0.0\nsamples = 3\nvalue = [3, 0, 0]", fillcolor="#e58139"] ;
286 -> 287 ;
288 [label="entropy = 0.0\nsamples = 1\nvalue = [0, 1, 0]", fillcolor="#39e581"] ;
286 -> 288 ;
289 [label="v_10_25 <= 0.5\nentropy = 0.722\nsamples = 10\nvalue = [2, 8, 0]", fillcolor="#6aeca0"] ;
285 -> 289 ;
290 [label="entropy = 0.0\nsamples = 7\nvalue = [0, 7, 0]", fillcolor="#39e581"] ;
289 -> 290 ;
291 [label="v_6_12 <= 0.5\nentropy = 0.918\nsamples = 3\nvalue = [2, 1, 0]", fillcolor="#f2c09c"] ;
289 -> 291 ;
292 [label="entropy = 0.0\nsamples = 2\nvalue = [2, 0, 0]", fillcolor="#e58139"] ;
291 -> 292 ;
293 [label="entropy = 0.0\nsamples = 1\nvalue = [0, 1, 0]", fillcolor="#39e581"] ;
291 -> 293 ;
294 [label="entropy = 0.0\nsamples = 6\nvalue = [0, 6, 0]", fillcolor="#39e581"] ;
284 -> 294 ;
295 [label="entropy = 0.0\nsamples = 2\nvalue = [2, 0, 0]", fillcolor="#e58139"] ;
283 -> 295 ;
296 [label="entropy = 0.0\nsamples = 2\nvalue = [2, 0, 0]", fillcolor="#e58139"] ;
282 -> 296 ;
297 [label="entropy = 0.0\nsamples = 1\nvalue = [0, 0, 1]", fillcolor="#8139e5"] ;
281 -> 297 ;
298 [label="v_5_40 <= 0.5\nentropy = 1.569\nsamples = 25\nvalue = [8, 7, 10]", fillcolor="#f0e8fc"] ;
280 -> 298 ;
299 [label="v_5_37 <= 0.5\nentropy = 1.441\nsamples = 20\nvalue = [7, 3, 10]", fillcolor="#e2d1f9"] ;
298 -> 299 ;
300 [label="v_15_10 <= 0.5\nentropy = 1.198\nsamples = 16\nvalue = [5, 1, 10]", fillcolor="#c6a5f3"] ;
299 -> 300 ;
301 [label="v_31_31 <= 0.5\nentropy = 1.352\nsamples = 9\nvalue = [5, 1, 3]", fillcolor="#f6d5bd"] ;
300 -> 301 ;
302 [label="v_6_15 <= 0.5\nentropy = 0.65\nsamples = 6\nvalue = [5, 0, 1]", fillcolor="#ea9a61"] ;
301 -> 302 ;
303 [label="entropy = 0.0\nsamples = 5\nvalue = [5, 0, 0]", fillcolor="#e58139"] ;
302 -> 303 ;
304 [label="entropy = 0.0\nsamples = 1\nvalue = [0, 0, 1]", fillcolor="#8139e5"] ;
302 -> 304 ;
305 [label="v_15_12 <= 0.5\nentropy = 0.918\nsamples = 3\nvalue = [0, 1, 2]", fillcolor="#c09cf2"] ;
301 -> 305 ;
306 [label="entropy = 0.0\nsamples = 1\nvalue = [0, 1, 0]", fillcolor="#39e581"] ;
305 -> 306 ;
307 [label="entropy = 0.0\nsamples = 2\nvalue = [0, 0, 2]", fillcolor="#8139e5"] ;
305 -> 307 ;
308 [label="entropy = 0.0\nsamples = 7\nvalue = [0, 0, 7]", fillcolor="#8139e5"] ;
300 -> 308 ;
309 [label="v_15_10 <= 0.5\nentropy = 1.0\nsamples = 4\nvalue = [2, 2, 0]", fillcolor="#ffffff"] ;
299 -> 309 ;
310 [label="entropy = 0.0\nsamples = 1\nvalue = [0, 1, 0]", fillcolor="#39e581"] ;
309 -> 310 ;
311 [label="v_31_31 <= 0.5\nentropy = 0.918\nsamples = 3\nvalue = [2, 1, 0]", fillcolor="#f2c09c"] ;
309 -> 311 ;
312 [label="entropy = 0.0\nsamples = 2\nvalue = [2, 0, 0]", fillcolor="#e58139"] ;
311 -> 312 ;
313 [label="entropy = 0.0\nsamples = 1\nvalue = [0, 1, 0]", fillcolor="#39e581"] ;
311 -> 313 ;
314 [label="v_19_23 <= 0.5\nentropy = 0.722\nsamples = 5\nvalue = [1, 4, 0]", fillcolor="#6aeca0"] ;
298 -> 314 ;
315 [label="entropy = 0.0\nsamples = 4\nvalue = [0, 4, 0]", fillcolor="#39e581"] ;
314 -> 315 ;
316 [label="entropy = 0.0\nsamples = 1\nvalue = [1, 0, 0]", fillcolor="#e58139"] ;
314 -> 316 ;
317 [label="v_33_33 <= 0.5\nentropy = 0.722\nsamples = 5\nvalue = [0, 1, 4]", fillcolor="#a06aec"] ;
279 -> 317 ;
318 [label="entropy = 0.0\nsamples = 4\nvalue = [0, 0, 4]", fillcolor="#8139e5"] ;
317 -> 318 ;
319 [label="entropy = 0.0\nsamples = 1\nvalue = [0, 1, 0]", fillcolor="#39e581"] ;
317 -> 319 ;
320 [label="v_5_39 <= 0.5\nentropy = 0.803\nsamples = 18\nvalue = [1, 15, 2]", fillcolor="#5eea99"] ;
278 -> 320 ;
321 [label="v_31_45 <= 0.5\nentropy = 0.337\nsamples = 16\nvalue = [1, 15, 0]", fillcolor="#46e789"] ;
320 -> 321 ;
322 [label="entropy = 0.0\nsamples = 15\nvalue = [0, 15, 0]", fillcolor="#39e581"] ;
321 -> 322 ;
323 [label="entropy = 0.0\nsamples = 1\nvalue = [1, 0, 0]", fillcolor="#e58139"] ;
321 -> 323 ;
324 [label="entropy = 0.0\nsamples = 2\nvalue = [0, 0, 2]", fillcolor="#8139e5"] ;
320 -> 324 ;
325 [label="v_5_42 <= 0.5\nentropy = 0.7000000000000001\nsamples = 22\nvalue = [1, 19, 2]", fillcolor="#57e994"] ;
277 -> 325 ;
326 [label="v_6_9 <= 0.5\nentropy = 0.28600000000000003\nsamples = 20\nvalue = [1, 19, 0]", fillcolor="#43e688"] ;
325 -> 326 ;
327 [label="entropy = 0.0\nsamples = 19\nvalue = [0, 19, 0]", fillcolor="#39e581"] ;
326 -> 327 ;
328 [label="entropy = 0.0\nsamples = 1\nvalue = [1, 0, 0]", fillcolor="#e58139"] ;
326 -> 328 ;
329 [label="entropy = 0.0\nsamples = 2\nvalue = [0, 0, 2]", fillcolor="#8139e5"] ;
325 -> 329 ;
330 [label="v_33_33 <= 0.5\nentropy = 1.096\nsamples = 11\nvalue = [2, 1, 8]", fillcolor="#ab7bee"] ;
276 -> 330 ;
331 [label="v_22_27 <= 0.5\nentropy = 0.503\nsamples = 9\nvalue = [0, 1, 8]", fillcolor="#9152e8"] ;
330 -> 331 ;
332 [label="entropy = 0.0\nsamples = 8\nvalue = [0, 0, 8]", fillcolor="#8139e5"] ;
331 -> 332 ;
333 [label="entropy = 0.0\nsamples = 1\nvalue = [0, 1, 0]", fillcolor="#39e581"] ;
331 -> 333 ;
334 [label="entropy = 0.0\nsamples = 2\nvalue = [2, 0, 0]", fillcolor="#e58139"] ;
330 -> 334 ;
335 [label="v_15_11 <= 0.5\nentropy = 1.3980000000000001\nsamples = 95\nvalue = [39, 11, 45]", fillcolor="#f2eafc"] ;
5 -> 335 ;
336 [label="v_31_28 <= 0.5\nentropy = 1.297\nsamples = 85\nvalue = [39, 6, 40]", fillcolor="#fcfbfe"] ;
335 -> 336 ;
337 [label="v_13_14 <= 0.5\nentropy = 1.248\nsamples = 69\nvalue = [37, 4, 28]", fillcolor="#f9e3d4"] ;
336 -> 337 ;
338 [label="v_24_22 <= 0.5\nentropy = 0.592\nsamples = 14\nvalue = [12, 0, 2]", fillcolor="#e9965a"] ;
337 -> 338 ;
339 [label="entropy = 0.0\nsamples = 12\nvalue = [12, 0, 0]", fillcolor="#e58139"] ;
338 -> 339 ;
340 [label="entropy = 0.0\nsamples = 2\nvalue = [0, 0, 2]", fillcolor="#8139e5"] ;
338 -> 340 ;
341 [label="v_22_24 <= 0.5\nentropy = 1.303\nsamples = 55\nvalue = [25, 4, 26]", fillcolor="#fbf8fe"] ;
337 -> 341 ;
342 [label="v_17_48 <= 0.5\nentropy = 1.195\nsamples = 26\nvalue = [17, 2, 7]", fillcolor="#f1bd97"] ;
341 -> 342 ;
343 [label="v_17_52 <= 0.5\nentropy = 0.811\nsamples = 20\nvalue = [15, 0, 5]", fillcolor="#eeab7b"] ;
342 -> 343 ;
344 [label="v_29_17 <= 0.5\nentropy = 0.961\nsamples = 13\nvalue = [8, 0, 5]", fillcolor="#f5d0b5"] ;
343 -> 344 ;
345 [label="v_31_45 <= 0.5\nentropy = 1.0\nsamples = 10\nvalue = [5, 0, 5]", fillcolor="#ffffff"] ;
344 -> 345 ;
346 [label="v_19_21 <= 0.5\nentropy = 0.9540000000000001\nsamples = 8\nvalue = [3, 0, 5]", fillcolor="#cdb0f5"] ;
345 -> 346 ;
347 [label="v_31_41 <= 0.5\nentropy = 1.0\nsamples = 6\nvalue = [3, 0, 3]", fillcolor="#ffffff"] ;
346 -> 347 ;
348 [label="v_5_42 <= 0.5\nentropy = 0.971\nsamples = 5\nvalue = [3, 0, 2]", fillcolor="#f6d5bd"] ;
347 -> 348 ;
349 [label="v_22_26 <= 0.5\nentropy = 0.811\nsamples = 4\nvalue = [3, 0, 1]", fillcolor="#eeab7b"] ;
348 -> 349 ;
350 [label="v_15_12 <= 0.5\nentropy = 1.0\nsamples = 2\nvalue = [1, 0, 1]", fillcolor="#ffffff"] ;
349 -> 350 ;
351 [label="entropy = 0.0\nsamples = 1\nvalue = [0, 0, 1]", fillcolor="#8139e5"] ;
350 -> 351 ;
352 [label="entropy = 0.0\nsamples = 1\nvalue = [1, 0, 0]", fillcolor="#e58139"] ;
350 -> 352 ;
353 [label="entropy = 0.0\nsamples = 2\nvalue = [2, 0, 0]", fillcolor="#e58139"] ;
349 -> 353 ;
354 [label="entropy = 0.0\nsamples = 1\nvalue = [0, 0, 1]", fillcolor="#8139e5"] ;
348 -> 354 ;
355 [label="entropy = 0.0\nsamples = 1\nvalue = [0, 0, 1]", fillcolor="#8139e5"] ;
347 -> 355 ;
356 [label="entropy = 0.0\nsamples = 2\nvalue = [0, 0, 2]", fillcolor="#8139e5"] ;
346 -> 356 ;
357 [label="entropy = 0.0\nsamples = 2\nvalue = [2, 0, 0]", fillcolor="#e58139"] ;
345 -> 357 ;
358 [label="entropy = 0.0\nsamples = 3\nvalue = [3, 0, 0]", fillcolor="#e58139"] ;
344 -> 358 ;
359 [label="entropy = 0.0\nsamples = 7\nvalue = [7, 0, 0]", fillcolor="#e58139"] ;
343 -> 359 ;
360 [label="v_31_27 <= 0.5\nentropy = 1.585\nsamples = 6\nvalue = [2, 2, 2]", fillcolor="#ffffff"] ;
342 -> 360 ;
361 [label="v_19_21 <= 0.5\nentropy = 1.0\nsamples = 4\nvalue = [2, 2, 0]", fillcolor="#ffffff"] ;
360 -> 361 ;
362 [label="entropy = 0.0\nsamples = 2\nvalue = [0, 2, 0]", fillcolor="#39e581"] ;
361 -> 362 ;
363 [label="entropy = 0.0\nsamples = 2\nvalue = [2, 0, 0]", fillcolor="#e58139"] ;
361 -> 363 ;
364 [label="entropy = 0.0\nsamples = 2\nvalue = [0, 0, 2]", fillcolor="#8139e5"] ;
360 -> 364 ;
365 [label="v_29_17 <= 0.5\nentropy = 1.178\nsamples = 29\nvalue = [8, 2, 19]", fillcolor="#bd97f1"] ;
341 -> 365 ;
366 [label="v_29_19 <= 0.5\nentropy = 0.971\nsamples = 20\nvalue = [8, 0, 12]", fillcolor="#d5bdf6"] ;
365 -> 366 ;
367 [label="v_29_21 <= 0.5\nentropy = 0.874\nsamples = 17\nvalue = [5, 0, 12]", fillcolor="#b58bf0"] ;
366 -> 367 ;
368 [label="v_19_22 <= 0.5\nentropy = 0.722\nsamples = 15\nvalue = [3, 0, 12]", fillcolor="#a06aec"] ;
367 -> 368 ;
369 [label="entropy = 0.0\nsamples = 11\nvalue = [0, 0, 11]", fillcolor="#8139e5"] ;
368 -> 369 ;
370 [label="v_17_55 <= 0.5\nentropy = 0.811\nsamples = 4\nvalue = [3, 0, 1]", fillcolor="#eeab7b"] ;
368 -> 370 ;
371 [label="entropy = 0.0\nsamples = 3\nvalue = [3, 0, 0]", fillcolor="#e58139"] ;
370 -> 371 ;
372 [label="entropy = 0.0\nsamples = 1\nvalue = [0, 0, 1]", fillcolor="#8139e5"] ;
370 -> 372 ;
373 [label="entropy = 0.0\nsamples = 2\nvalue = [2, 0, 0]", fillcolor="#e58139"] ;
367 -> 373 ;
374 [label="entropy = 0.0\nsamples = 3\nvalue = [3, 0, 0]", fillcolor="#e58139"] ;
366 -> 374 ;
375 [label="v_31_27 <= 0.5\nentropy = 0.764\nsamples = 9\nvalue = [0, 2, 7]", fillcolor="#a572ec"] ;
365 -> 375 ;
376 [label="v_19_21 <= 0.5\nentropy = 1.0\nsamples = 4\nvalue = [0, 2, 2]", fillcolor="#ffffff"] ;
375 -> 376 ;
377 [label="entropy = 0.0\nsamples = 2\nvalue = [0, 2, 0]", fillcolor="#39e581"] ;
376 -> 377 ;
378 [label="entropy = 0.0\nsamples = 2\nvalue = [0, 0, 2]", fillcolor="#8139e5"] ;
376 -> 378 ;
379 [label="entropy = 0.0\nsamples = 5\nvalue = [0, 0, 5]", fillcolor="#8139e5"] ;
375 -> 379 ;
380 [label="v_5_42 <= 0.5\nentropy = 1.061\nsamples = 16\nvalue = [2, 2, 12]", fillcolor="#a572ec"] ;
336 -> 380 ;
381 [label="v_17_49 <= 0.5\nentropy = 0.735\nsamples = 14\nvalue = [1, 1, 12]", fillcolor="#9457e9"] ;
380 -> 381 ;
382 [label="v_17_46 <= 0.5\nentropy = 0.391\nsamples = 13\nvalue = [1, 0, 12]", fillcolor="#8c49e7"] ;
381 -> 382 ;
383 [label="entropy = 0.0\nsamples = 12\nvalue = [0, 0, 12]", fillcolor="#8139e5"] ;
382 -> 383 ;
384 [label="entropy = 0.0\nsamples = 1\nvalue = [1, 0, 0]", fillcolor="#e58139"] ;
382 -> 384 ;
385 [label="entropy = 0.0\nsamples = 1\nvalue = [0, 1, 0]", fillcolor="#39e581"] ;
381 -> 385 ;
386 [label="v_19_22 <= 0.5\nentropy = 1.0\nsamples = 2\nvalue = [1, 1, 0]", fillcolor="#ffffff"] ;
380 -> 386 ;
387 [label="entropy = 0.0\nsamples = 1\nvalue = [0, 1, 0]", fillcolor="#39e581"] ;
386 -> 387 ;
388 [label="entropy = 0.0\nsamples = 1\nvalue = [1, 0, 0]", fillcolor="#e58139"] ;
386 -> 388 ;
389 [label="v_31_27 <= 0.5\nentropy = 1.0\nsamples = 10\nvalue = [0, 5, 5]", fillcolor="#ffffff"] ;
335 -> 389 ;
390 [label="v_19_21 <= 0.5\nentropy = 0.863\nsamples = 7\nvalue = [0, 2, 5]", fillcolor="#b388ef"] ;
389 -> 390 ;
391 [label="v_29_16 <= 0.5\nentropy = 0.918\nsamples = 3\nvalue = [0, 2, 1]", fillcolor="#9cf2c0"] ;
390 -> 391 ;
392 [label="entropy = 0.0\nsamples = 2\nvalue = [0, 2, 0]", fillcolor="#39e581"] ;
391 -> 392 ;
393 [label="entropy = 0.0\nsamples = 1\nvalue = [0, 0, 1]", fillcolor="#8139e5"] ;
391 -> 393 ;
394 [label="entropy = 0.0\nsamples = 4\nvalue = [0, 0, 4]", fillcolor="#8139e5"] ;
390 -> 394 ;
395 [label="entropy = 0.0\nsamples = 3\nvalue = [0, 3, 0]", fillcolor="#39e581"] ;
389 -> 395 ;
396 [label="v_5_41 <= 0.5\nentropy = 1.168\nsamples = 72\nvalue = [17, 6, 49]", fillcolor="#b68cf0"] ;
4 -> 396 ;
397 [label="v_0_14 <= 0.5\nentropy = 1.041\nsamples = 59\nvalue = [16, 2, 41]", fillcolor="#b68cf0"] ;
396 -> 397 ;
398 [label="v_19_23 <= 0.5\nentropy = 0.933\nsamples = 56\nvalue = [14, 1, 41]", fillcolor="#ae80ee"] ;
397 -> 398 ;
399 [label="v_5_39 <= 0.5\nentropy = 0.893\nsamples = 42\nvalue = [13, 0, 29]", fillcolor="#b992f1"] ;
398 -> 399 ;
400 [label="v_33_33 <= 0.5\nentropy = 0.96\nsamples = 34\nvalue = [13, 0, 21]", fillcolor="#cfb4f5"] ;
399 -> 400 ;
401 [label="v_29_17 <= 0.5\nentropy = 0.987\nsamples = 30\nvalue = [13, 0, 17]", fillcolor="#e1d0f9"] ;
400 -> 401 ;
402 [label="v_10_24 <= 0.5\nentropy = 0.881\nsamples = 20\nvalue = [6, 0, 14]", fillcolor="#b78ef0"] ;
401 -> 402 ;
403 [label="v_29_18 <= 0.5\nentropy = 0.994\nsamples = 11\nvalue = [5, 0, 6]", fillcolor="#eadefb"] ;
402 -> 403 ;
404 [label="v_10_25 <= 0.5\nentropy = 0.811\nsamples = 8\nvalue = [2, 0, 6]", fillcolor="#ab7bee"] ;
403 -> 404 ;
405 [label="v_19_28 <= 0.5\nentropy = 1.0\nsamples = 4\nvalue = [2, 0, 2]", fillcolor="#ffffff"] ;
404 -> 405 ;
406 [label="entropy = 0.0\nsamples = 2\nvalue = [2, 0, 0]", fillcolor="#e58139"] ;
405 -> 406 ;
407 [label="entropy = 0.0\nsamples = 2\nvalue = [0, 0, 2]", fillcolor="#8139e5"] ;
405 -> 407 ;
408 [label="entropy = 0.0\nsamples = 4\nvalue = [0, 0, 4]", fillcolor="#8139e5"] ;
404 -> 408 ;
409 [label="entropy = 0.0\nsamples = 3\nvalue = [3, 0, 0]", fillcolor="#e58139"] ;
403 -> 409 ;
410 [label="v_5_42 <= 0.5\nentropy = 0.503\nsamples = 9\nvalue = [1, 0, 8]", fillcolor="#9152e8"] ;
402 -> 410 ;
411 [label="entropy = 0.0\nsamples = 8\nvalue = [0, 0, 8]", fillcolor="#8139e5"] ;
410 -> 411 ;
412 [label="entropy = 0.0\nsamples = 1\nvalue = [1, 0, 0]", fillcolor="#e58139"] ;
410 -> 412 ;
413 [label="v_17_54 <= 0.5\nentropy = 0.881\nsamples = 10\nvalue = [7, 0, 3]", fillcolor="#f0b78e"] ;
401 -> 413 ;
414 [label="v_31_28 <= 0.5\nentropy = 0.544\nsamples = 8\nvalue = [7, 0, 1]", fillcolor="#e99355"] ;
413 -> 414 ;
415 [label="entropy = 0.0\nsamples = 7\nvalue = [7, 0, 0]", fillcolor="#e58139"] ;
414 -> 415 ;
416 [label="entropy = 0.0\nsamples = 1\nvalue = [0, 0, 1]", fillcolor="#8139e5"] ;
414 -> 416 ;
417 [label="entropy = 0.0\nsamples = 2\nvalue = [0, 0, 2]", fillcolor="#8139e5"] ;
413 -> 417 ;
418 [label="entropy = 0.0\nsamples = 4\nvalue = [0, 0, 4]", fillcolor="#8139e5"] ;
400 -> 418 ;
419 [label="entropy = 0.0\nsamples = 8\nvalue = [0, 0, 8]", fillcolor="#8139e5"] ;
399 -> 419 ;
420 [label="v_31_29 <= 0.5\nentropy = 0.735\nsamples = 14\nvalue = [1, 1, 12]", fillcolor="#9457e9"] ;
398 -> 420 ;
421 [label="v_17_51 <= 0.5\nentropy = 0.391\nsamples = 13\nvalue = [0, 1, 12]", fillcolor="#8c49e7"] ;
420 -> 421 ;
422 [label="entropy = 0.0\nsamples = 11\nvalue = [0, 0, 11]", fillcolor="#8139e5"] ;
421 -> 422 ;
423 [label="v_31_27 <= 0.5\nentropy = 1.0\nsamples = 2\nvalue = [0, 1, 1]", fillcolor="#ffffff"] ;
421 -> 423 ;
424 [label="entropy = 0.0\nsamples = 1\nvalue = [0, 0, 1]", fillcolor="#8139e5"] ;
423 -> 424 ;
425 [label="entropy = 0.0\nsamples = 1\nvalue = [0, 1, 0]", fillcolor="#39e581"] ;
423 -> 425 ;
426 [label="entropy = 0.0\nsamples = 1\nvalue = [1, 0, 0]", fillcolor="#e58139"] ;
420 -> 426 ;
427 [label="v_10_25 <= 0.5\nentropy = 0.918\nsamples = 3\nvalue = [2, 1, 0]", fillcolor="#f2c09c"] ;
397 -> 427 ;
428 [label="entropy = 0.0\nsamples = 2\nvalue = [2, 0, 0]", fillcolor="#e58139"] ;
427 -> 428 ;
429 [label="entropy = 0.0\nsamples = 1\nvalue = [0, 1, 0]", fillcolor="#39e581"] ;
427 -> 429 ;
430 [label="v_23_3 <= 0.5\nentropy = 1.239\nsamples = 13\nvalue = [1, 4, 8]", fillcolor="#c7a7f3"] ;
396 -> 430 ;
431 [label="entropy = 0.0\nsamples = 3\nvalue = [0, 3, 0]", fillcolor="#39e581"] ;
430 -> 431 ;
432 [label="v_31_28 <= 0.5\nentropy = 0.922\nsamples = 10\nvalue = [1, 1, 8]", fillcolor="#9d65eb"] ;
430 -> 432 ;
433 [label="v_10_26 <= 0.5\nentropy = 0.503\nsamples = 9\nvalue = [1, 0, 8]", fillcolor="#9152e8"] ;
432 -> 433 ;
434 [label="entropy = 0.0\nsamples = 8\nvalue = [0, 0, 8]", fillcolor="#8139e5"] ;
433 -> 434 ;
435 [label="entropy = 0.0\nsamples = 1\nvalue = [1, 0, 0]", fillcolor="#e58139"] ;
433 -> 435 ;
436 [label="entropy = 0.0\nsamples = 1\nvalue = [0, 1, 0]", fillcolor="#39e581"] ;
432 -> 436 ;
437 [label="v_22_24 <= 0.5\nentropy = 1.071\nsamples = 73\nvalue = [30, 1, 42]", fillcolor="#dcc8f8"] ;
3 -> 437 ;
438 [label="v_5_33 <= 0.5\nentropy = 1.112\nsamples = 55\nvalue = [28, 1, 26]", fillcolor="#fdf6f1"] ;
437 -> 438 ;
439 [label="v_31_29 <= 0.5\nentropy = 0.999\nsamples = 54\nvalue = [28, 0, 26]", fillcolor="#fdf6f1"] ;
438 -> 439 ;
440 [label="v_23_3 <= 0.5\nentropy = 0.98\nsamples = 48\nvalue = [28, 0, 20]", fillcolor="#f8dbc6"] ;
439 -> 440 ;
441 [label="v_19_23 <= 0.5\nentropy = 0.46900000000000003\nsamples = 10\nvalue = [9, 0, 1]", fillcolor="#e88f4f"] ;
440 -> 441 ;
442 [label="entropy = 0.0\nsamples = 9\nvalue = [9, 0, 0]", fillcolor="#e58139"] ;
441 -> 442 ;
443 [label="entropy = 0.0\nsamples = 1\nvalue = [0, 0, 1]", fillcolor="#8139e5"] ;
441 -> 443 ;
444 [label="v_29_17 <= 0.5\nentropy = 1.0\nsamples = 38\nvalue = [19, 0, 19]", fillcolor="#ffffff"] ;
440 -> 444 ;
445 [label="v_13_16 <= 0.5\nentropy = 0.918\nsamples = 24\nvalue = [8, 0, 16]", fillcolor="#c09cf2"] ;
444 -> 445 ;
446 [label="v_24_15 <= 0.5\nentropy = 0.991\nsamples = 18\nvalue = [8, 0, 10]", fillcolor="#e6d7fa"] ;
445 -> 446 ;
447 [label="entropy = 0.0\nsamples = 2\nvalue = [2, 0, 0]", fillcolor="#e58139"] ;
446 -> 447 ;
448 [label="v_17_52 <= 0.5\nentropy = 0.9540000000000001\nsamples = 16\nvalue = [6, 0, 10]", fillcolor="#cdb0f5"] ;
446 -> 448 ;
449 [label="v_31_27 <= 0.5\nentropy = 0.863\nsamples = 14\nvalue = [4, 0, 10]", fillcolor="#b388ef"] ;
448 -> 449 ;
450 [label="v_19_19 <= 0.5\nentropy = 0.971\nsamples = 10\nvalue = [4, 0, 6]", fillcolor="#d5bdf6"] ;
449 -> 450 ;
451 [label="v_17_49 <= 0.5\nentropy = 0.811\nsamples = 8\nvalue = [2, 0, 6]", fillcolor="#ab7bee"] ;
450 -> 451 ;
452 [label="entropy = 0.0\nsamples = 5\nvalue = [0, 0, 5]", fillcolor="#8139e5"] ;
451 -> 452 ;
453 [label="v_19_24 <= 0.5\nentropy = 0.918\nsamples = 3\nvalue = [2, 0, 1]", fillcolor="#f2c09c"] ;
451 -> 453 ;
454 [label="entropy = 0.0\nsamples = 2\nvalue = [2, 0, 0]", fillcolor="#e58139"] ;
453 -> 454 ;
455 [label="entropy = 0.0\nsamples = 1\nvalue = [0, 0, 1]", fillcolor="#8139e5"] ;
453 -> 455 ;
456 [label="entropy = 0.0\nsamples = 2\nvalue = [2, 0, 0]", fillcolor="#e58139"] ;
450 -> 456 ;
457 [label="entropy = 0.0\nsamples = 4\nvalue = [0, 0, 4]", fillcolor="#8139e5"] ;
449 -> 457 ;
458 [label="entropy = 0.0\nsamples = 2\nvalue = [2, 0, 0]", fillcolor="#e58139"] ;
448 -> 458 ;
459 [label="entropy = 0.0\nsamples = 6\nvalue = [0, 0, 6]", fillcolor="#8139e5"] ;
445 -> 459 ;
460 [label="v_33_29 <= 0.5\nentropy = 0.75\nsamples = 14\nvalue = [11, 0, 3]", fillcolor="#eca36f"] ;
444 -> 460 ;
461 [label="v_13_20 <= 0.5\nentropy = 0.811\nsamples = 4\nvalue = [1, 0, 3]", fillcolor="#ab7bee"] ;
460 -> 461 ;
462 [label="entropy = 0.0\nsamples = 3\nvalue = [0, 0, 3]", fillcolor="#8139e5"] ;
461 -> 462 ;
463 [label="entropy = 0.0\nsamples = 1\nvalue = [1, 0, 0]", fillcolor="#e58139"] ;
461 -> 463 ;
464 [label="entropy = 0.0\nsamples = 10\nvalue = [10, 0, 0]", fillcolor="#e58139"] ;
460 -> 464 ;
465 [label="entropy = 0.0\nsamples = 6\nvalue = [0, 0, 6]", fillcolor="#8139e5"] ;
439 -> 465 ;
466 [label="entropy = 0.0\nsamples = 1\nvalue = [0, 1, 0]", fillcolor="#39e581"] ;
438 -> 466 ;
467 [label="v_5_46 <= 0.5\nentropy = 0.503\nsamples = 18\nvalue = [2, 0, 16]", fillcolor="#9152e8"] ;
437 -> 467 ;
468 [label="v_5_44 <= 0.5\nentropy = 0.323\nsamples = 17\nvalue = [1, 0, 16]", fillcolor="#8945e7"] ;
467 -> 468 ;
469 [label="entropy = 0.0\nsamples = 16\nvalue = [0, 0, 16]", fillcolor="#8139e5"] ;
468 -> 469 ;
470 [label="entropy = 0.0\nsamples = 1\nvalue = [1, 0, 0]", fillcolor="#e58139"] ;
468 -> 470 ;
471 [label="entropy = 0.0\nsamples = 1\nvalue = [1, 0, 0]", fillcolor="#e58139"] ;
467 -> 471 ;
472 [label="v_6_13 <= 0.5\nentropy = 1.315\nsamples = 168\nvalue = [27, 106, 35]", fillcolor="#95f1bc"] ;
2 -> 472 ;
473 [label="v_13_14 <= 0.5\nentropy = 1.203\nsamples = 154\nvalue = [21, 106, 27]", fillcolor="#84efb1"] ;
472 -> 473 ;
474 [label="v_33_37 <= 0.5\nentropy = 1.5330000000000001\nsamples = 33\nvalue = [13, 13, 7]", fillcolor="#ffffff"] ;
473 -> 474 ;
475 [label="v_17_55 <= 0.5\nentropy = 1.3760000000000001\nsamples = 29\nvalue = [13, 13, 3]", fillcolor="#ffffff"] ;
474 -> 475 ;
476 [label="v_24_18 <= 0.5\nentropy = 0.999\nsamples = 25\nvalue = [13, 12, 0]", fillcolor="#fdf5f0"] ;
475 -> 476 ;
477 [label="v_5_39 <= 0.5\nentropy = 0.971\nsamples = 20\nvalue = [8, 12, 0]", fillcolor="#bdf6d5"] ;
476 -> 477 ;
478 [label="v_19_28 <= 0.5\nentropy = 1.0\nsamples = 16\nvalue = [8, 8, 0]", fillcolor="#ffffff"] ;
477 -> 478 ;
479 [label="v_24_17 <= 0.5\nentropy = 0.961\nsamples = 13\nvalue = [8, 5, 0]", fillcolor="#f5d0b5"] ;
478 -> 479 ;
480 [label="v_33_32 <= 0.5\nentropy = 0.991\nsamples = 9\nvalue = [4, 5, 0]", fillcolor="#d7fae6"] ;
479 -> 480 ;
481 [label="v_5_42 <= 0.5\nentropy = 0.918\nsamples = 6\nvalue = [4, 2, 0]", fillcolor="#f2c09c"] ;
480 -> 481 ;
482 [label="v_6_19 <= 0.5\nentropy = 0.722\nsamples = 5\nvalue = [4, 1, 0]", fillcolor="#eca06a"] ;
481 -> 482 ;
483 [label="entropy = 0.0\nsamples = 4\nvalue = [4, 0, 0]", fillcolor="#e58139"] ;
482 -> 483 ;
484 [label="entropy = 0.0\nsamples = 1\nvalue = [0, 1, 0]", fillcolor="#39e581"] ;
482 -> 484 ;
485 [label="entropy = 0.0\nsamples = 1\nvalue = [0, 1, 0]", fillcolor="#39e581"] ;
481 -> 485 ;
486 [label="entropy = 0.0\nsamples = 3\nvalue = [0, 3, 0]", fillcolor="#39e581"] ;
480 -> 486 ;
487 [label="entropy = 0.0\nsamples = 4\nvalue = [4, 0, 0]", fillcolor="#e58139"] ;
479 -> 487 ;
488 [label="entropy = 0.0\nsamples = 3\nvalue = [0, 3, 0]", fillcolor="#39e581"] ;
478 -> 488 ;
489 [label="entropy = 0.0\nsamples = 4\nvalue = [0, 4, 0]", fillcolor="#39e581"] ;
477 -> 489 ;
490 [label="entropy = 0.0\nsamples = 5\nvalue = [5, 0, 0]", fillcolor="#e58139"] ;
476 -> 490 ;
491 [label="v_33_28 <= 0.5\nentropy = 0.811\nsamples = 4\nvalue = [0, 1, 3]", fillcolor="#ab7bee"] ;
475 -> 491 ;
492 [label="entropy = 0.0\nsamples = 3\nvalue = [0, 0, 3]", fillcolor="#8139e5"] ;
491 -> 492 ;
493 [label="entropy = 0.0\nsamples = 1\nvalue = [0, 1, 0]", fillcolor="#39e581"] ;
491 -> 493 ;
494 [label="entropy = 0.0\nsamples = 4\nvalue = [0, 0, 4]", fillcolor="#8139e5"] ;
474 -> 494 ;
495 [label="v_31_27 <= 0.5\nentropy = 0.98\nsamples = 121\nvalue = [8, 93, 20]", fillcolor="#70eca4"] ;
473 -> 495 ;
496 [label="v_19_23 <= 0.5\nentropy = 1.1480000000000001\nsamples = 84\nvalue = [8, 59, 17]", fillcolor="#83efb0"] ;
495 -> 496 ;
497 [label="v_15_11 <= 0.5\nentropy = 1.101\nsamples = 81\nvalue = [8, 59, 14]", fillcolor="#7aeeaa"] ;
496 -> 497 ;
498 [label="v_5_40 <= 0.5\nentropy = 1.087\nsamples = 68\nvalue = [5, 49, 14]", fillcolor="#7feead"] ;
497 -> 498 ;
499 [label="v_19_24 <= 0.5\nentropy = 0.971\nsamples = 58\nvalue = [2, 43, 13]", fillcolor="#7beeab"] ;
498 -> 499 ;
500 [label="v_31_35 <= 0.5\nentropy = 0.8280000000000001\nsamples = 53\nvalue = [1, 42, 10]", fillcolor="#6ceca1"] ;
499 -> 500 ;
501 [label="v_15_12 <= 0.5\nentropy = 0.706\nsamples = 52\nvalue = [0, 42, 10]", fillcolor="#68eb9f"] ;
500 -> 501 ;
502 [label="v_17_48 <= 0.5\nentropy = 0.583\nsamples = 43\nvalue = [0, 37, 6]", fillcolor="#59e995"] ;
501 -> 502 ;
503 [label="v_22_24 <= 0.5\nentropy = 0.398\nsamples = 38\nvalue = [0, 35, 3]", fillcolor="#4ae78c"] ;
502 -> 503 ;
504 [label="v_29_20 <= 0.5\nentropy = 0.187\nsamples = 35\nvalue = [0, 34, 1]", fillcolor="#3fe685"] ;
503 -> 504 ;
505 [label="entropy = 0.0\nsamples = 29\nvalue = [0, 29, 0]", fillcolor="#39e581"] ;
504 -> 505 ;
506 [label="v_31_28 <= 0.5\nentropy = 0.65\nsamples = 6\nvalue = [0, 5, 1]", fillcolor="#61ea9a"] ;
504 -> 506 ;
507 [label="entropy = 0.0\nsamples = 5\nvalue = [0, 5, 0]", fillcolor="#39e581"] ;
506 -> 507 ;
508 [label="entropy = 0.0\nsamples = 1\nvalue = [0, 0, 1]", fillcolor="#8139e5"] ;
506 -> 508 ;
509 [label="v_17_50 <= 0.5\nentropy = 0.918\nsamples = 3\nvalue = [0, 1, 2]", fillcolor="#c09cf2"] ;
503 -> 509 ;
510 [label="entropy = 0.0\nsamples = 2\nvalue = [0, 0, 2]", fillcolor="#8139e5"] ;
509 -> 510 ;
511 [label="entropy = 0.0\nsamples = 1\nvalue = [0, 1, 0]", fillcolor="#39e581"] ;
509 -> 511 ;
512 [label="v_15_10 <= 0.5\nentropy = 0.971\nsamples = 5\nvalue = [0, 2, 3]", fillcolor="#d5bdf6"] ;
502 -> 512 ;
513 [label="entropy = 0.0\nsamples = 2\nvalue = [0, 2, 0]", fillcolor="#39e581"] ;
512 -> 513 ;
514 [label="entropy = 0.0\nsamples = 3\nvalue = [0, 0, 3]", fillcolor="#8139e5"] ;
512 -> 514 ;
515 [label="v_6_15 <= 0.5\nentropy = 0.991\nsamples = 9\nvalue = [0, 5, 4]", fillcolor="#d7fae6"] ;
501 -> 515 ;
516 [label="v_29_19 <= 0.5\nentropy = 0.722\nsamples = 5\nvalue = [0, 4, 1]", fillcolor="#6aeca0"] ;
515 -> 516 ;
517 [label="entropy = 1.0\nsamples = 2\nvalue = [0, 1, 1]", fillcolor="#ffffff"] ;
516 -> 517 ;
518 [label="entropy = 0.0\nsamples = 3\nvalue = [0, 3, 0]", fillcolor="#39e581"] ;
516 -> 518 ;
519 [label="v_5_39 <= 0.5\nentropy = 0.811\nsamples = 4\nvalue = [0, 1, 3]", fillcolor="#ab7bee"] ;
515 -> 519 ;
520 [label="entropy = 0.0\nsamples = 1\nvalue = [0, 0, 1]", fillcolor="#8139e5"] ;
519 -> 520 ;
521 [label="entropy = 0.918\nsamples = 3\nvalue = [0, 1, 2]", fillcolor="#c09cf2"] ;
519 -> 521 ;
522 [label="entropy = 0.0\nsamples = 1\nvalue = [1, 0, 0]", fillcolor="#e58139"] ;
500 -> 522 ;
523 [label="v_29_19 <= 0.5\nentropy = 1.371\nsamples = 5\nvalue = [1, 1, 3]", fillcolor="#c09cf2"] ;
499 -> 523 ;
524 [label="v_6_15 <= 0.5\nentropy = 1.0\nsamples = 2\nvalue = [1, 1, 0]", fillcolor="#ffffff"] ;
523 -> 524 ;
525 [label="entropy = 0.0\nsamples = 1\nvalue = [1, 0, 0]", fillcolor="#e58139"] ;
524 -> 525 ;
526 [label="entropy = 0.0\nsamples = 1\nvalue = [0, 1, 0]", fillcolor="#39e581"] ;
524 -> 526 ;
527 [label="entropy = 0.0\nsamples = 3\nvalue = [0, 0, 3]", fillcolor="#8139e5"] ;
523 -> 527 ;
528 [label="v_22_26 <= 0.5\nentropy = 1.295\nsamples = 10\nvalue = [3, 6, 1]", fillcolor="#aaf4c9"] ;
498 -> 528 ;
529 [label="v_31_28 <= 0.5\nentropy = 0.65\nsamples = 6\nvalue = [0, 5, 1]", fillcolor="#61ea9a"] ;
528 -> 529 ;
530 [label="entropy = 0.0\nsamples = 5\nvalue = [0, 5, 0]", fillcolor="#39e581"] ;
529 -> 530 ;
531 [label="entropy = 0.0\nsamples = 1\nvalue = [0, 0, 1]", fillcolor="#8139e5"] ;
529 -> 531 ;
532 [label="v_19_24 <= 0.5\nentropy = 0.811\nsamples = 4\nvalue = [3, 1, 0]", fillcolor="#eeab7b"] ;
528 -> 532 ;
533 [label="entropy = 0.0\nsamples = 3\nvalue = [3, 0, 0]", fillcolor="#e58139"] ;
532 -> 533 ;
534 [label="entropy = 0.0\nsamples = 1\nvalue = [0, 1, 0]", fillcolor="#39e581"] ;
532 -> 534 ;
535 [label="v_31_28 <= 0.5\nentropy = 0.779\nsamples = 13\nvalue = [3, 10, 0]", fillcolor="#74eda7"] ;
497 -> 535 ;
536 [label="entropy = 0.0\nsamples = 9\nvalue = [0, 9, 0]", fillcolor="#39e581"] ;
535 -> 536 ;
537 [label="v_29_18 <= 0.5\nentropy = 0.811\nsamples = 4\nvalue = [3, 1, 0]", fillcolor="#eeab7b"] ;
535 -> 537 ;
538 [label="entropy = 0.0\nsamples = 3\nvalue = [3, 0, 0]", fillcolor="#e58139"] ;
537 -> 538 ;
539 [label="entropy = 0.0\nsamples = 1\nvalue = [0, 1, 0]", fillcolor="#39e581"] ;
537 -> 539 ;
540 [label="entropy = 0.0\nsamples = 3\nvalue = [0, 0, 3]", fillcolor="#8139e5"] ;
496 -> 540 ;
541 [label="v_0_12 <= 0.5\nentropy = 0.406\nsamples = 37\nvalue = [0, 34, 3]", fillcolor="#4ae78c"] ;
495 -> 541 ;
542 [label="entropy = 0.0\nsamples = 1\nvalue = [0, 0, 1]", fillcolor="#8139e5"] ;
541 -> 542 ;
543 [label="v_5_43 <= 0.5\nentropy = 0.31\nsamples = 36\nvalue = [0, 34, 2]", fillcolor="#45e788"] ;
541 -> 543 ;
544 [label="v_15_15 <= 0.5\nentropy = 0.187\nsamples = 35\nvalue = [0, 34, 1]", fillcolor="#3fe685"] ;
543 -> 544 ;
545 [label="entropy = 0.0\nsamples = 29\nvalue = [0, 29, 0]", fillcolor="#39e581"] ;
544 -> 545 ;
546 [label="v_33_31 <= 0.5\nentropy = 0.65\nsamples = 6\nvalue = [0, 5, 1]", fillcolor="#61ea9a"] ;
544 -> 546 ;
547 [label="entropy = 0.0\nsamples = 3\nvalue = [0, 3, 0]", fillcolor="#39e581"] ;
546 -> 547 ;
548 [label="entropy = 0.918\nsamples = 3\nvalue = [0, 2, 1]", fillcolor="#9cf2c0"] ;
546 -> 548 ;
549 [label="entropy = 0.0\nsamples = 1\nvalue = [0, 0, 1]", fillcolor="#8139e5"] ;
543 -> 549 ;
550 [label="v_24_15 <= 0.5\nentropy = 0.985\nsamples = 14\nvalue = [6, 0, 8]", fillcolor="#e0cef8"] ;
472 -> 550 ;
551 [label="entropy = 0.0\nsamples = 4\nvalue = [4, 0, 0]", fillcolor="#e58139"] ;
550 -> 551 ;
552 [label="v_33_31 <= 0.5\nentropy = 0.722\nsamples = 10\nvalue = [2, 0, 8]", fillcolor="#a06aec"] ;
550 -> 552 ;
553 [label="entropy = 0.0\nsamples = 8\nvalue = [0, 0, 8]", fillcolor="#8139e5"] ;
552 -> 553 ;
554 [label="entropy = 0.0\nsamples = 2\nvalue = [2, 0, 0]", fillcolor="#e58139"] ;
552 -> 554 ;
555 [label="v_10_25 <= 0.5\nentropy = 1.294\nsamples = 256\nvalue = [32, 161, 63]", fillcolor="#9af2bf"] ;
1 -> 555 ;
556 [label="v_5_38 <= 0.5\nentropy = 1.485\nsamples = 80\nvalue = [26, 15, 39]", fillcolor="#e1cff9"] ;
555 -> 556 ;
557 [label="v_10_26 <= 0.5\nentropy = 0.984\nsamples = 61\nvalue = [26, 0, 35]", fillcolor="#dfccf8"] ;
556 -> 557 ;
558 [label="v_24_15 <= 0.5\nentropy = 0.896\nsamples = 32\nvalue = [22, 0, 10]", fillcolor="#f1ba93"] ;
557 -> 558 ;
559 [label="v_19_26 <= 0.5\nentropy = 0.559\nsamples = 23\nvalue = [20, 0, 3]", fillcolor="#e99457"] ;
558 -> 559 ;
560 [label="v_33_35 <= 0.5\nentropy = 0.276\nsamples = 21\nvalue = [20, 0, 1]", fillcolor="#e68743"] ;
559 -> 560 ;
561 [label="entropy = 0.0\nsamples = 20\nvalue = [20, 0, 0]", fillcolor="#e58139"] ;
560 -> 561 ;
562 [label="entropy = 0.0\nsamples = 1\nvalue = [0, 0, 1]", fillcolor="#8139e5"] ;
560 -> 562 ;
563 [label="entropy = 0.0\nsamples = 2\nvalue = [0, 0, 2]", fillcolor="#8139e5"] ;
559 -> 563 ;
564 [label="v_22_25 <= 0.5\nentropy = 0.764\nsamples = 9\nvalue = [2, 0, 7]", fillcolor="#a572ec"] ;
558 -> 564 ;
565 [label="entropy = 0.0\nsamples = 7\nvalue = [0, 0, 7]", fillcolor="#8139e5"] ;
564 -> 565 ;
566 [label="entropy = 0.0\nsamples = 2\nvalue = [2, 0, 0]", fillcolor="#e58139"] ;
564 -> 566 ;
567 [label="v_29_18 <= 0.5\nentropy = 0.579\nsamples = 29\nvalue = [4, 0, 25]", fillcolor="#9559e9"] ;
557 -> 567 ;
568 [label="v_5_39 <= 0.5\nentropy = 0.787\nsamples = 17\nvalue = [4, 0, 13]", fillcolor="#a876ed"] ;
567 -> 568 ;
569 [label="v_17_51 <= 0.5\nentropy = 0.9460000000000001\nsamples = 11\nvalue = [4, 0, 7]", fillcolor="#c9aaf4"] ;
568 -> 569 ;
570 [label="v_22_26 <= 0.5\nentropy = 0.764\nsamples = 9\nvalue = [2, 0, 7]", fillcolor="#a572ec"] ;
569 -> 570 ;
571 [label="v_31_31 <= 0.5\nentropy = 0.544\nsamples = 8\nvalue = [1, 0, 7]", fillcolor="#9355e9"] ;
570 -> 571 ;
572 [label="entropy = 0.0\nsamples = 7\nvalue = [0, 0, 7]", fillcolor="#8139e5"] ;
571 -> 572 ;
573 [label="entropy = 0.0\nsamples = 1\nvalue = [1, 0, 0]", fillcolor="#e58139"] ;
571 -> 573 ;
574 [label="entropy = 0.0\nsamples = 1\nvalue = [1, 0, 0]", fillcolor="#e58139"] ;
570 -> 574 ;
575 [label="entropy = 0.0\nsamples = 2\nvalue = [2, 0, 0]", fillcolor="#e58139"] ;
569 -> 575 ;
576 [label="entropy = 0.0\nsamples = 6\nvalue = [0, 0, 6]", fillcolor="#8139e5"] ;
568 -> 576 ;
577 [label="entropy = 0.0\nsamples = 12\nvalue = [0, 0, 12]", fillcolor="#8139e5"] ;
567 -> 577 ;
578 [label="v_17_48 <= 0.5\nentropy = 0.742\nsamples = 19\nvalue = [0, 15, 4]", fillcolor="#6eeca3"] ;
556 -> 578 ;
579 [label="entropy = 0.0\nsamples = 4\nvalue = [0, 0, 4]", fillcolor="#8139e5"] ;
578 -> 579 ;
580 [label="entropy = 0.0\nsamples = 15\nvalue = [0, 15, 0]", fillcolor="#39e581"] ;
578 -> 580 ;
581 [label="v_31_34 <= 0.5\nentropy = 0.782\nsamples = 176\nvalue = [6, 146, 24]", fillcolor="#60ea9a"] ;
555 -> 581 ;
582 [label="v_22_23 <= 0.5\nentropy = 0.744\nsamples = 173\nvalue = [6, 146, 21]", fillcolor="#5cea97"] ;
581 -> 582 ;
583 [label="v_15_10 <= 0.5\nentropy = 0.6950000000000001\nsamples = 166\nvalue = [6, 143, 17]", fillcolor="#58e994"] ;
582 -> 583 ;
584 [label="v_33_28 <= 0.5\nentropy = 0.994\nsamples = 53\nvalue = [5, 41, 7]", fillcolor="#6deca2"] ;
583 -> 584 ;
585 [label="v_29_18 <= 0.5\nentropy = 0.9550000000000001\nsamples = 52\nvalue = [5, 41, 6]", fillcolor="#68eb9f"] ;
584 -> 585 ;
586 [label="v_15_12 <= 0.5\nentropy = 0.7030000000000001\nsamples = 37\nvalue = [3, 32, 2]", fillcolor="#56e994"] ;
585 -> 586 ;
587 [label="v_17_48 <= 0.5\nentropy = 0.402\nsamples = 25\nvalue = [2, 23, 0]", fillcolor="#4ae78c"] ;
586 -> 587 ;
588 [label="v_29_20 <= 0.5\nentropy = 0.276\nsamples = 21\nvalue = [1, 20, 0]", fillcolor="#43e687"] ;
587 -> 588 ;
589 [label="entropy = 0.0\nsamples = 15\nvalue = [0, 15, 0]", fillcolor="#39e581"] ;
588 -> 589 ;
590 [label="v_15_13 <= 0.5\nentropy = 0.65\nsamples = 6\nvalue = [1, 5, 0]", fillcolor="#61ea9a"] ;
588 -> 590 ;
591 [label="entropy = 0.0\nsamples = 5\nvalue = [0, 5, 0]", fillcolor="#39e581"] ;
590 -> 591 ;
592 [label="entropy = 0.0\nsamples = 1\nvalue = [1, 0, 0]", fillcolor="#e58139"] ;
590 -> 592 ;
593 [label="v_5_38 <= 0.5\nentropy = 0.811\nsamples = 4\nvalue = [1, 3, 0]", fillcolor="#7beeab"] ;
587 -> 593 ;
594 [label="entropy = 0.0\nsamples = 3\nvalue = [0, 3, 0]", fillcolor="#39e581"] ;
593 -> 594 ;
595 [label="entropy = 0.0\nsamples = 1\nvalue = [1, 0, 0]", fillcolor="#e58139"] ;
593 -> 595 ;
596 [label="v_31_28 <= 0.5\nentropy = 1.041\nsamples = 12\nvalue = [1, 9, 2]", fillcolor="#74eda7"] ;
586 -> 596 ;
597 [label="v_22_27 <= 0.5\nentropy = 0.722\nsamples = 10\nvalue = [0, 8, 2]", fillcolor="#6aeca0"] ;
596 -> 597 ;
598 [label="v_22_26 <= 0.5\nentropy = 0.544\nsamples = 8\nvalue = [0, 7, 1]", fillcolor="#55e993"] ;
597 -> 598 ;
599 [label="entropy = 0.0\nsamples = 4\nvalue = [0, 4, 0]", fillcolor="#39e581"] ;
598 -> 599 ;
600 [label="v_5_38 <= 0.5\nentropy = 0.811\nsamples = 4\nvalue = [0, 3, 1]", fillcolor="#7beeab"] ;
598 -> 600 ;
601 [label="entropy = 0.0\nsamples = 1\nvalue = [0, 0, 1]", fillcolor="#8139e5"] ;
600 -> 601 ;
602 [label="entropy = 0.0\nsamples = 3\nvalue = [0, 3, 0]", fillcolor="#39e581"] ;
600 -> 602 ;
603 [label="v_5_37 <= 0.5\nentropy = 1.0\nsamples = 2\nvalue = [0, 1, 1]", fillcolor="#ffffff"] ;
597 -> 603 ;
604 [label="entropy = 0.0\nsamples = 1\nvalue = [0, 0, 1]", fillcolor="#8139e5"] ;
603 -> 604 ;
605 [label="entropy = 0.0\nsamples = 1\nvalue = [0, 1, 0]", fillcolor="#39e581"] ;
603 -> 605 ;
606 [label="v_5_38 <= 0.5\nentropy = 1.0\nsamples = 2\nvalue = [1, 1, 0]", fillcolor="#ffffff"] ;
596 -> 606 ;
607 [label="entropy = 0.0\nsamples = 1\nvalue = [0, 1, 0]", fillcolor="#39e581"] ;
606 -> 607 ;
608 [label="entropy = 0.0\nsamples = 1\nvalue = [1, 0, 0]", fillcolor="#e58139"] ;
606 -> 608 ;
609 [label="v_22_25 <= 0.5\nentropy = 1.338\nsamples = 15\nvalue = [2, 9, 4]", fillcolor="#a5f3c6"] ;
585 -> 609 ;
610 [label="v_17_47 <= 0.5\nentropy = 0.863\nsamples = 7\nvalue = [2, 5, 0]", fillcolor="#88efb3"] ;
609 -> 610 ;
611 [label="entropy = 0.0\nsamples = 3\nvalue = [0, 3, 0]", fillcolor="#39e581"] ;
610 -> 611 ;
612 [label="entropy = 1.0\nsamples = 4\nvalue = [2, 2, 0]", fillcolor="#ffffff"] ;
610 -> 612 ;
613 [label="v_5_38 <= 0.5\nentropy = 1.0\nsamples = 8\nvalue = [0, 4, 4]", fillcolor="#ffffff"] ;
609 -> 613 ;
614 [label="v_15_15 <= 0.5\nentropy = 0.722\nsamples = 5\nvalue = [0, 1, 4]", fillcolor="#a06aec"] ;
613 -> 614 ;
615 [label="entropy = 0.0\nsamples = 4\nvalue = [0, 0, 4]", fillcolor="#8139e5"] ;
614 -> 615 ;
616 [label="entropy = 0.0\nsamples = 1\nvalue = [0, 1, 0]", fillcolor="#39e581"] ;
614 -> 616 ;
617 [label="entropy = 0.0\nsamples = 3\nvalue = [0, 3, 0]", fillcolor="#39e581"] ;
613 -> 617 ;
618 [label="entropy = 0.0\nsamples = 1\nvalue = [0, 0, 1]", fillcolor="#8139e5"] ;
584 -> 618 ;
619 [label="v_5_40 <= 0.5\nentropy = 0.503\nsamples = 113\nvalue = [1, 102, 10]", fillcolor="#4ee88e"] ;
583 -> 619 ;
620 [label="v_23_3 <= 0.5\nentropy = 0.361\nsamples = 102\nvalue = [0, 95, 7]", fillcolor="#48e78a"] ;
619 -> 620 ;
621 [label="entropy = 0.0\nsamples = 1\nvalue = [0, 0, 1]", fillcolor="#8139e5"] ;
620 -> 621 ;
622 [label="v_31_39 <= 0.5\nentropy = 0.325\nsamples = 101\nvalue = [0, 95, 6]", fillcolor="#46e789"] ;
620 -> 622 ;
623 [label="v_5_42 <= 0.5\nentropy = 0.28600000000000003\nsamples = 100\nvalue = [0, 95, 5]", fillcolor="#43e688"] ;
622 -> 623 ;
624 [label="v_17_52 <= 0.5\nentropy = 0.246\nsamples = 98\nvalue = [0, 94, 4]", fillcolor="#41e686"] ;
623 -> 624 ;
625 [label="v_31_27 <= 0.5\nentropy = 0.202\nsamples = 95\nvalue = [0, 92, 3]", fillcolor="#3fe685"] ;
624 -> 625 ;
626 [label="v_17_49 <= 0.5\nentropy = 0.106\nsamples = 72\nvalue = [0, 71, 1]", fillcolor="#3ce583"] ;
625 -> 626 ;
627 [label="entropy = 0.0\nsamples = 61\nvalue = [0, 61, 0]", fillcolor="#39e581"] ;
626 -> 627 ;
628 [label="v_29_18 <= 0.5\nentropy = 0.439\nsamples = 11\nvalue = [0, 10, 1]", fillcolor="#4de88e"] ;
626 -> 628 ;
629 [label="entropy = 0.0\nsamples = 10\nvalue = [0, 10, 0]", fillcolor="#39e581"] ;
628 -> 629 ;
630 [label="entropy = 0.0\nsamples = 1\nvalue = [0, 0, 1]", fillcolor="#8139e5"] ;
628 -> 630 ;
631 [label="v_17_47 <= 0.5\nentropy = 0.426\nsamples = 23\nvalue = [0, 21, 2]", fillcolor="#4ce78d"] ;
625 -> 631 ;
632 [label="entropy = 0.0\nsamples = 12\nvalue = [0, 12, 0]", fillcolor="#39e581"] ;
631 -> 632 ;
633 [label="v_29_19 <= 0.5\nentropy = 0.684\nsamples = 11\nvalue = [0, 9, 2]", fillcolor="#65eb9d"] ;
631 -> 633 ;
634 [label="v_29_17 <= 0.5\nentropy = 0.811\nsamples = 8\nvalue = [0, 6, 2]", fillcolor="#7beeab"] ;
633 -> 634 ;
635 [label="v_22_25 <= 0.5\nentropy = 0.918\nsamples = 6\nvalue = [0, 4, 2]", fillcolor="#9cf2c0"] ;
634 -> 635 ;
636 [label="v_5_39 <= 0.5\nentropy = 0.722\nsamples = 5\nvalue = [0, 4, 1]", fillcolor="#6aeca0"] ;
635 -> 636 ;
637 [label="entropy = 0.0\nsamples = 4\nvalue = [0, 4, 0]", fillcolor="#39e581"] ;
636 -> 637 ;
638 [label="entropy = 0.0\nsamples = 1\nvalue = [0, 0, 1]", fillcolor="#8139e5"] ;
636 -> 638 ;
639 [label="entropy = 0.0\nsamples = 1\nvalue = [0, 0, 1]", fillcolor="#8139e5"] ;
635 -> 639 ;
640 [label="entropy = 0.0\nsamples = 2\nvalue = [0, 2, 0]", fillcolor="#39e581"] ;
634 -> 640 ;
641 [label="entropy = 0.0\nsamples = 3\nvalue = [0, 3, 0]", fillcolor="#39e581"] ;
633 -> 641 ;
642 [label="v_29_19 <= 0.5\nentropy = 0.918\nsamples = 3\nvalue = [0, 2, 1]", fillcolor="#9cf2c0"] ;
624 -> 642 ;
643 [label="entropy = 0.0\nsamples = 2\nvalue = [0, 2, 0]", fillcolor="#39e581"] ;
642 -> 643 ;
644 [label="entropy = 0.0\nsamples = 1\nvalue = [0, 0, 1]", fillcolor="#8139e5"] ;
642 -> 644 ;
645 [label="v_31_43 <= 0.5\nentropy = 1.0\nsamples = 2\nvalue = [0, 1, 1]", fillcolor="#ffffff"] ;
623 -> 645 ;
646 [label="entropy = 0.0\nsamples = 1\nvalue = [0, 0, 1]", fillcolor="#8139e5"] ;
645 -> 646 ;
647 [label="entropy = 0.0\nsamples = 1\nvalue = [0, 1, 0]", fillcolor="#39e581"] ;
645 -> 647 ;
648 [label="entropy = 0.0\nsamples = 1\nvalue = [0, 0, 1]", fillcolor="#8139e5"] ;
622 -> 648 ;
649 [label="v_31_33 <= 0.5\nentropy = 1.241\nsamples = 11\nvalue = [1, 7, 3]", fillcolor="#9cf2c0"] ;
619 -> 649 ;
650 [label="v_31_27 <= 0.5\nentropy = 0.881\nsamples = 10\nvalue = [0, 7, 3]", fillcolor="#8ef0b7"] ;
649 -> 650 ;
651 [label="v_17_51 <= 0.5\nentropy = 1.0\nsamples = 6\nvalue = [0, 3, 3]", fillcolor="#ffffff"] ;
650 -> 651 ;
652 [label="v_31_28 <= 0.5\nentropy = 0.811\nsamples = 4\nvalue = [0, 3, 1]", fillcolor="#7beeab"] ;
651 -> 652 ;
653 [label="v_22_27 <= 0.5\nentropy = 1.0\nsamples = 2\nvalue = [0, 1, 1]", fillcolor="#ffffff"] ;
652 -> 653 ;
654 [label="entropy = 0.0\nsamples = 1\nvalue = [0, 1, 0]", fillcolor="#39e581"] ;
653 -> 654 ;
655 [label="entropy = 0.0\nsamples = 1\nvalue = [0, 0, 1]", fillcolor="#8139e5"] ;
653 -> 655 ;
656 [label="entropy = 0.0\nsamples = 2\nvalue = [0, 2, 0]", fillcolor="#39e581"] ;
652 -> 656 ;
657 [label="entropy = 0.0\nsamples = 2\nvalue = [0, 0, 2]", fillcolor="#8139e5"] ;
651 -> 657 ;
658 [label="entropy = 0.0\nsamples = 4\nvalue = [0, 4, 0]", fillcolor="#39e581"] ;
650 -> 658 ;
659 [label="entropy = 0.0\nsamples = 1\nvalue = [1, 0, 0]", fillcolor="#e58139"] ;
649 -> 659 ;
660 [label="v_19_24 <= 0.5\nentropy = 0.985\nsamples = 7\nvalue = [0, 3, 4]", fillcolor="#e0cef8"] ;
582 -> 660 ;
661 [label="entropy = 0.0\nsamples = 4\nvalue = [0, 0, 4]", fillcolor="#8139e5"] ;
660 -> 661 ;
662 [label="entropy = 0.0\nsamples = 3\nvalue = [0, 3, 0]", fillcolor="#39e581"] ;
660 -> 662 ;
663 [label="entropy = 0.0\nsamples = 3\nvalue = [0, 0, 3]", fillcolor="#8139e5"] ;
581 -> 663 ;
664 [label="v_10_19 <= 0.5\nentropy = 0.933\nsamples = 270\nvalue = [212, 16, 42]", fillcolor="#eca16b"] ;
0 -> 664 [labeldistance=2.5, labelangle=-45, headlabel="False"] ;
665 [label="v_5_31 <= 0.5\nentropy = 0.448\nsamples = 203\nvalue = [184, 0, 19]", fillcolor="#e88e4d"] ;
664 -> 665 ;
666 [label="v_17_46 <= 0.5\nentropy = 0.555\nsamples = 147\nvalue = [128, 0, 19]", fillcolor="#e99456"] ;
665 -> 666 ;
667 [label="v_10_25 <= 0.5\nentropy = 0.618\nsamples = 124\nvalue = [105, 0, 19]", fillcolor="#ea985d"] ;
666 -> 667 ;
668 [label="v_19_20 <= 0.5\nentropy = 0.753\nsamples = 74\nvalue = [58, 0, 16]", fillcolor="#eca470"] ;
667 -> 668 ;
669 [label="v_5_38 <= 0.5\nentropy = 0.811\nsamples = 64\nvalue = [48, 0, 16]", fillcolor="#eeab7b"] ;
668 -> 669 ;
670 [label="v_31_32 <= 0.5\nentropy = 0.863\nsamples = 56\nvalue = [40, 0, 16]", fillcolor="#efb388"] ;
669 -> 670 ;
671 [label="v_24_15 <= 0.5\nentropy = 0.89\nsamples = 52\nvalue = [36, 0, 16]", fillcolor="#f1b991"] ;
670 -> 671 ;
672 [label="entropy = 0.0\nsamples = 4\nvalue = [4, 0, 0]", fillcolor="#e58139"] ;
671 -> 672 ;
673 [label="v_15_15 <= 0.5\nentropy = 0.918\nsamples = 48\nvalue = [32, 0, 16]", fillcolor="#f2c09c"] ;
671 -> 673 ;
674 [label="v_31_28 <= 0.5\nentropy = 0.9460000000000001\nsamples = 44\nvalue = [28, 0, 16]", fillcolor="#f4c9aa"] ;
673 -> 674 ;
675 [label="v_23_11 <= 0.5\nentropy = 0.878\nsamples = 37\nvalue = [26, 0, 11]", fillcolor="#f0b68d"] ;
674 -> 675 ;
676 [label="v_23_3 <= 0.5\nentropy = 0.8220000000000001\nsamples = 35\nvalue = [26, 0, 9]", fillcolor="#eead7e"] ;
675 -> 676 ;
677 [label="entropy = 0.0\nsamples = 7\nvalue = [7, 0, 0]", fillcolor="#e58139"] ;
676 -> 677 ;
678 [label="v_31_26 <= 0.5\nentropy = 0.906\nsamples = 28\nvalue = [19, 0, 9]", fillcolor="#f1bd97"] ;
676 -> 678 ;
679 [label="v_19_18 <= 0.5\nentropy = 0.755\nsamples = 23\nvalue = [18, 0, 5]", fillcolor="#eca470"] ;
678 -> 679 ;
680 [label="v_17_57 <= 0.5\nentropy = 0.971\nsamples = 5\nvalue = [2, 0, 3]", fillcolor="#d5bdf6"] ;
679 -> 680 ;
681 [label="v_31_42 <= 0.5\nentropy = 0.811\nsamples = 4\nvalue = [1, 0, 3]", fillcolor="#ab7bee"] ;
680 -> 681 ;
682 [label="entropy = 0.0\nsamples = 3\nvalue = [0, 0, 3]", fillcolor="#8139e5"] ;
681 -> 682 ;
683 [label="entropy = 0.0\nsamples = 1\nvalue = [1, 0, 0]", fillcolor="#e58139"] ;
681 -> 683 ;
684 [label="entropy = 0.0\nsamples = 1\nvalue = [1, 0, 0]", fillcolor="#e58139"] ;
680 -> 684 ;
685 [label="v_15_12 <= 0.5\nentropy = 0.503\nsamples = 18\nvalue = [16, 0, 2]", fillcolor="#e89152"] ;
679 -> 685 ;
686 [label="v_31_39 <= 0.5\nentropy = 0.323\nsamples = 17\nvalue = [16, 0, 1]", fillcolor="#e78945"] ;
685 -> 686 ;
687 [label="entropy = 0.0\nsamples = 16\nvalue = [16, 0, 0]", fillcolor="#e58139"] ;
686 -> 687 ;
688 [label="entropy = 0.0\nsamples = 1\nvalue = [0, 0, 1]", fillcolor="#8139e5"] ;
686 -> 688 ;
689 [label="entropy = 0.0\nsamples = 1\nvalue = [0, 0, 1]", fillcolor="#8139e5"] ;
685 -> 689 ;
690 [label="v_17_48 <= 0.5\nentropy = 0.722\nsamples = 5\nvalue = [1, 0, 4]", fillcolor="#a06aec"] ;
678 -> 690 ;
691 [label="entropy = 0.0\nsamples = 4\nvalue = [0, 0, 4]", fillcolor="#8139e5"] ;
690 -> 691 ;
692 [label="entropy = 0.0\nsamples = 1\nvalue = [1, 0, 0]", fillcolor="#e58139"] ;
690 -> 692 ;
693 [label="entropy = 0.0\nsamples = 2\nvalue = [0, 0, 2]", fillcolor="#8139e5"] ;
675 -> 693 ;
694 [label="v_15_10 <= 0.5\nentropy = 0.863\nsamples = 7\nvalue = [2, 0, 5]", fillcolor="#b388ef"] ;
674 -> 694 ;
695 [label="v_33_28 <= 0.5\nentropy = 0.918\nsamples = 3\nvalue = [2, 0, 1]", fillcolor="#f2c09c"] ;
694 -> 695 ;
696 [label="entropy = 0.0\nsamples = 1\nvalue = [0, 0, 1]", fillcolor="#8139e5"] ;
695 -> 696 ;
697 [label="entropy = 0.0\nsamples = 2\nvalue = [2, 0, 0]", fillcolor="#e58139"] ;
695 -> 697 ;
698 [label="entropy = 0.0\nsamples = 4\nvalue = [0, 0, 4]", fillcolor="#8139e5"] ;
694 -> 698 ;
699 [label="entropy = 0.0\nsamples = 4\nvalue = [4, 0, 0]", fillcolor="#e58139"] ;
673 -> 699 ;
700 [label="entropy = 0.0\nsamples = 4\nvalue = [4, 0, 0]", fillcolor="#e58139"] ;
670 -> 700 ;
701 [label="entropy = 0.0\nsamples = 8\nvalue = [8, 0, 0]", fillcolor="#e58139"] ;
669 -> 701 ;
702 [label="entropy = 0.0\nsamples = 10\nvalue = [10, 0, 0]", fillcolor="#e58139"] ;
668 -> 702 ;
703 [label="v_17_56 <= 0.5\nentropy = 0.327\nsamples = 50\nvalue = [47, 0, 3]", fillcolor="#e78946"] ;
667 -> 703 ;
704 [label="v_31_35 <= 0.5\nentropy = 0.246\nsamples = 49\nvalue = [47, 0, 2]", fillcolor="#e68641"] ;
703 -> 704 ;
705 [label="v_31_32 <= 0.5\nentropy = 0.149\nsamples = 47\nvalue = [46, 0, 1]", fillcolor="#e6843d"] ;
704 -> 705 ;
706 [label="entropy = 0.0\nsamples = 43\nvalue = [43, 0, 0]", fillcolor="#e58139"] ;
705 -> 706 ;
707 [label="v_17_47 <= 0.5\nentropy = 0.811\nsamples = 4\nvalue = [3, 0, 1]", fillcolor="#eeab7b"] ;
705 -> 707 ;
708 [label="entropy = 0.0\nsamples = 3\nvalue = [3, 0, 0]", fillcolor="#e58139"] ;
707 -> 708 ;
709 [label="entropy = 0.0\nsamples = 1\nvalue = [0, 0, 1]", fillcolor="#8139e5"] ;
707 -> 709 ;
710 [label="v_29_6 <= 0.5\nentropy = 1.0\nsamples = 2\nvalue = [1, 0, 1]", fillcolor="#ffffff"] ;
704 -> 710 ;
711 [label="entropy = 0.0\nsamples = 1\nvalue = [1, 0, 0]", fillcolor="#e58139"] ;
710 -> 711 ;
712 [label="entropy = 0.0\nsamples = 1\nvalue = [0, 0, 1]", fillcolor="#8139e5"] ;
710 -> 712 ;
713 [label="entropy = 0.0\nsamples = 1\nvalue = [0, 0, 1]", fillcolor="#8139e5"] ;
703 -> 713 ;
714 [label="entropy = 0.0\nsamples = 23\nvalue = [23, 0, 0]", fillcolor="#e58139"] ;
666 -> 714 ;
715 [label="entropy = 0.0\nsamples = 56\nvalue = [56, 0, 0]", fillcolor="#e58139"] ;
665 -> 715 ;
716 [label="v_31_27 <= 0.5\nentropy = 1.549\nsamples = 67\nvalue = [28, 16, 23]", fillcolor="#fcf1e8"] ;
664 -> 716 ;
717 [label="v_31_34 <= 0.5\nentropy = 1.5270000000000001\nsamples = 45\nvalue = [13, 11, 21]", fillcolor="#e0cef8"] ;
716 -> 717 ;
718 [label="v_31_28 <= 0.5\nentropy = 1.5110000000000001\nsamples = 43\nvalue = [11, 11, 21]", fillcolor="#d8c1f7"] ;
717 -> 718 ;
719 [label="v_15_11 <= 0.5\nentropy = 1.5210000000000001\nsamples = 38\nvalue = [9, 11, 18]", fillcolor="#deccf8"] ;
718 -> 719 ;
720 [label="v_31_29 <= 0.5\nentropy = 1.553\nsamples = 35\nvalue = [9, 11, 15]", fillcolor="#eadefb"] ;
719 -> 720 ;
721 [label="v_15_12 <= 0.5\nentropy = 1.541\nsamples = 31\nvalue = [7, 11, 13]", fillcolor="#f2ebfc"] ;
720 -> 721 ;
722 [label="v_31_44 <= 0.5\nentropy = 1.566\nsamples = 27\nvalue = [7, 10, 10]", fillcolor="#ffffff"] ;
721 -> 722 ;
723 [label="v_15_14 <= 0.5\nentropy = 1.549\nsamples = 26\nvalue = [6, 10, 10]", fillcolor="#ffffff"] ;
722 -> 723 ;
724 [label="v_31_31 <= 0.5\nentropy = 1.522\nsamples = 25\nvalue = [5, 10, 10]", fillcolor="#ffffff"] ;
723 -> 724 ;
725 [label="v_15_15 <= 0.5\nentropy = 1.491\nsamples = 23\nvalue = [4, 9, 10]", fillcolor="#f6f1fd"] ;
724 -> 725 ;
726 [label="v_31_30 <= 0.5\nentropy = 1.495\nsamples = 22\nvalue = [4, 8, 10]", fillcolor="#ede3fb"] ;
725 -> 726 ;
727 [label="entropy = 1.462\nsamples = 19\nvalue = [3, 7, 9]", fillcolor="#eadefb"] ;
726 -> 727 ;
728 [label="entropy = 1.585\nsamples = 3\nvalue = [1, 1, 1]", fillcolor="#ffffff"] ;
726 -> 728 ;
729 [label="entropy = 0.0\nsamples = 1\nvalue = [0, 1, 0]", fillcolor="#39e581"] ;
725 -> 729 ;
730 [label="entropy = 1.0\nsamples = 2\nvalue = [1, 1, 0]", fillcolor="#ffffff"] ;
724 -> 730 ;
731 [label="entropy = 0.0\nsamples = 1\nvalue = [1, 0, 0]", fillcolor="#e58139"] ;
723 -> 731 ;
732 [label="entropy = 0.0\nsamples = 1\nvalue = [1, 0, 0]", fillcolor="#e58139"] ;
722 -> 732 ;
733 [label="v_31_30 <= 0.5\nentropy = 0.811\nsamples = 4\nvalue = [0, 1, 3]", fillcolor="#ab7bee"] ;
721 -> 733 ;
734 [label="entropy = 0.0\nsamples = 1\nvalue = [0, 0, 1]", fillcolor="#8139e5"] ;
733 -> 734 ;
735 [label="entropy = 0.918\nsamples = 3\nvalue = [0, 1, 2]", fillcolor="#c09cf2"] ;
733 -> 735 ;
736 [label="entropy = 1.0\nsamples = 4\nvalue = [2, 0, 2]", fillcolor="#ffffff"] ;
720 -> 736 ;
737 [label="entropy = 0.0\nsamples = 3\nvalue = [0, 0, 3]", fillcolor="#8139e5"] ;
719 -> 737 ;
738 [label="v_15_10 <= 0.5\nentropy = 0.971\nsamples = 5\nvalue = [2, 0, 3]", fillcolor="#d5bdf6"] ;
718 -> 738 ;
739 [label="entropy = 0.0\nsamples = 1\nvalue = [1, 0, 0]", fillcolor="#e58139"] ;
738 -> 739 ;
740 [label="entropy = 0.811\nsamples = 4\nvalue = [1, 0, 3]", fillcolor="#ab7bee"] ;
738 -> 740 ;
741 [label="entropy = 0.0\nsamples = 2\nvalue = [2, 0, 0]", fillcolor="#e58139"] ;
717 -> 741 ;
742 [label="v_15_12 <= 0.5\nentropy = 1.177\nsamples = 22\nvalue = [15, 5, 2]", fillcolor="#f0b58b"] ;
716 -> 742 ;
743 [label="v_15_13 <= 0.5\nentropy = 0.992\nsamples = 20\nvalue = [15, 4, 1]", fillcolor="#eda877"] ;
742 -> 743 ;
744 [label="v_15_10 <= 0.5\nentropy = 1.159\nsamples = 15\nvalue = [10, 4, 1]", fillcolor="#f1ba93"] ;
743 -> 744 ;
745 [label="entropy = 0.811\nsamples = 4\nvalue = [3, 1, 0]", fillcolor="#eeab7b"] ;
744 -> 745 ;
746 [label="entropy = 1.241\nsamples = 11\nvalue = [7, 3, 1]", fillcolor="#f2c09c"] ;
744 -> 746 ;
747 [label="entropy = 0.0\nsamples = 5\nvalue = [5, 0, 0]", fillcolor="#e58139"] ;
743 -> 747 ;
748 [label="entropy = 1.0\nsamples = 2\nvalue = [0, 1, 1]", fillcolor="#ffffff"] ;
742 -> 748 ;
}